228 64
69 -0.4729724 0.46105784 0.13983363 0.18395492 -0.20754196 -0.22370917 -0.14331529 -0.2708582 0.050105847 -0.11153484 -0.29098338 -0.05504094 -0.15701863 -0.116965495 -0.072720975 0.06904179 -0.09252225 -0.052445885 -0.20369825 0.013483448 0.027700225 -0.1514998 -0.15998423 -0.22858559 0.10072787 0.10972095 0.15222047 -0.12707125 0.33973867 0.3316602 0.098238006 0.055140227 0.025013084 0.11663355 -0.03076394 -0.09883337 -0.26244548 -0.07255319 -0.11016476 -0.12766169 0.1743216 0.021286912 0.17957799 0.034585427 0.016975265 -0.121014 -0.038043585 0.10600901 -0.16352068 0.0322615 0.24337363 0.04337079 0.042166196 0.06251776 -0.020516027 0.07718034 0.037831217 -0.034467388 0.025982633 0.042334195 0.15879174 0.14813583 0.13343078 -0.0091419965
48 -0.49341944 0.5362982 0.08473006 0.14568935 -0.15975375 -0.16741693 -0.14126876 -0.22097647 -0.0616441 -0.15999886 -0.28044724 -0.06458678 -0.13691026 -0.13770069 -0.058379557 0.01728764 -0.22053172 0.02427035 -0.16862413 0.13208754 0.022114517 -0.1692388 -0.15665635 -0.18294927 0.10974829 0.17342412 0.22683138 -0.07095727 0.21421269 0.26415503 0.13015258 -0.011398634 -0.058358155 0.25881308 -0.03051344 -0.25315744 -0.27899677 -0.18389727 0.0461522 -0.13304561 0.10673468 -0.03608308 0.119759984 0.13728245 -0.036858447 -0.1533369 -0.06479765 0.11399307 -0.04305225 0.07275685 0.20327362 0.03844509 0.06881011 -0.03402002 -0.028627578 0.07239405 0.20014545 0.03423072 0.015216709 0.08420704 0.09753714 0.20792915 0.20316835 -0.09766356
67 -0.5561736 0.48620754 0.15193076 0.20784827 -0.19731918 -0.23315045 -0.09831653 -0.2535099 -0.031314053 -0.1659456 -0.19679311 0.015107334 -0.11494764 -0.071434915 -0.10746077 0.016785692 -0.009160134 0.051215284 -0.15937434 0.10763894 0.111834675 -0.124740295 -0.15877794 -0.14922036 0.15649156 0.08852162 0.20091666 -0.18471044 0.23890366 0.23477627 0.07858211 -0.0009636299 0.09319223 0.17420137 0.005503314 -0.079091385 -0.26413146 -0.12134196 -0.09042947 -0.18532649 0.12846811 0.050696835 0.19953682 0.0046147024 -0.106483795 -0.12703419 0.004451491 0.1594852 -0.0072985054 0.08443657 0.27450958 0.025075117 0.09709758 0.041355588 -0.027049482 0.054744784 0.039811492 0.06502964 0.03489358 0.05398625 0.16178703 0.14738719 0.22027433 -0.10498114
83 -0.3488874 0.53690267 0.027554665 0.11865111 -0.30159262 -0.11012062 -0.007331649 -0.16476887 -0.026843527 -0.17339547 -0.24134006 -0.07690847 -0.2545461 -0.12770389 -0.019204443 0.03636853 -0.031605266 0.03732261 -0.11374055 0.14000756 -0.0032656232 -0.13725182 -0.111485384 -0.28217876 0.055725966 0.039913915 0.09850444 -0.12362647 0.25833192 0.32475612 0.15870309 0.016489718 -0.07194565 0.22734468 0.011665531 0.02402067 -0.20680201 -0.089053 0.007019535 -0.15859859 0.10861489 0.11319831 0.18379508 0.009692219 0.012516968 -0.12621363 0.008654789 0.20085426 -0.07155662 0.0721463 0.21721774 0.06310802 0.0031953172 0.12779534 -0.0758916 -0.04572285 0.11344957 0.1302048 0.02949538 0.069430135 0.087281704 0.21601163 0.026506087 -0.084817626
41 -0.50085884 0.59428185 0.15234324 0.15273345 -0.105384395 -0.115874685 -0.11498795 -0.22379582 -0.008609019 -0.071696796 -0.2673569 -0.1089451 -0.23458587 -0.13822503 -0.12590715 0.020736285 -0.09626862 0.018502725 -0.16627592 0.1117468 0.08717313 -0.17528245 -0.1987593 -0.17809205 0.068141796 0.045402054 0.18165725 -0.1437555 0.23865372 0.30069277 0.019694768 -0.13274549 -0.03374454 0.2642194 0.08525189 -0.15438381 -0.2705984 -0.18920508 -0.024136556 -0.11814082 0.048653126 0.050416786 0.2033619 0.048442043 -0.037684858 -0.029255804 0.011355876 0.22458807 -0.12397807 0.07924708 0.20963216 0.0866949 -0.023125663 0.03829759 -0.13726988 0.044636518 0.055347797 0.063707024 0.007744018 0.10957324 0.17202097 0.14196554 0.12719615 -0.17108549
63 -0.5219132 0.5118702 0.12869777 0.24777682 -0.19025941 -0.0928664 -0.07488184 -0.21061277 -0.02012821 -0.09235044 -0.3465252 -0.14574598 -0.18210821 -0.07539398 -0.06208707 -0.008595525 -0.031912975 0.05815976 -0.18514709 0.18222229 0.020885622 -0.19332913 -0.11061553 -0.2594692 0.09183348 0.024204385 0.113832265 -0.086912334 0.2171789 0.27321383 0.08822436 -0.018603401 0.007655473 0.3526427 0.04230869 -0.15897171 -0.2523766 -0.166711 -0.029533813 -0.2074824 0.12301605 -0.011978013 0.22887051 0.116899826 -0.053549703 -0.091538 0.044752028 0.12304673 -0.089007914 0.058958843 0.27649665 -0.013994376 0.01722134 -0.0047349115 -0.053687796 0.101135865 0.00864814 0.08067296 0.0049729436 0.13772674 0.093655124 0.06313326 0.032000635 -0.06959139
25 -0.47003946 0.5414446 0.16422124 0.13160673 -0.20962293 -0.11652419 -0.066979535 -0.34195384 0.0833418 -0.105142534 -0.20889962 -0.038125373 -0.2552467 -0.065076225 0.031736817 0.019713374 -0.06994806 -0.022516344 -0.1720756 0.060113557 0.1525482 -0.19562651 -0.14421003 -0.2239339 0.033702616 0.1609283 0.22703889 -0.0709428 0.25944987 0.29863933 0.13826689 -0.026254183 -0.003167238 0.33239073 0.030530704 -0.18591945 -0.19837213 -0.061201148 -0.07977241 -0.10850903 0.18191962 -0.01247086 0.1924321 0.055528015 -0.050025005 -0.14701264 0.0515966 0.13518621 -0.051925644 0.060848705 0.2278198 0.05219869 -0.01673682 0.0030603327 -0.06132417 0.05339823 0.01075494 0.015929598 -0.0020487837 0.13797453 0.104854725 0.2522953 0.08945099 -0.12380828
102 -0.45063746 0.48345384 0.021469159 0.113452636 -0.24784485 -0.05684854 -0.029285759 -0.23374988 -0.08402294 -0.18441716 -0.34799737 -0.023670478 -0.1952932 -0.18092756 -0.0032990542 0.015696049 0.005725304 -0.019490201 -0.11172258 0.02337859 0.041386146 -0.08060347 -0.19923663 -0.19826616 0.09605725 0.08125606 0.23958732 0.034106616 0.2481813 0.22347169 0.08801236 -0.065987654 -0.013609571 0.23910972 -0.023668336 -0.14664486 -0.12823719 -0.13608125 -0.010751001 -0.21509966 0.097031794 -0.015827943 0.20892942 0.00019286515 -0.13943322 -0.06820978 -0.03856091 0.15578985 -0.08162656 0.108634636 0.25842 0.060611226 0.007432759 0.14607932 -0.024274757 0.050171144 0.10333085 0.09121847 0.15524162 0.04857894 0.13047549 0.17584604 0.14245069 -0.119267166
22 -0.5048794 0.52465963 0.0069026467 0.14694095 -0.1912866 -0.14039929 -0.12142613 -0.26704118 -0.02389532 -0.11192533 -0.2803131 -0.049030993 -0.23275545 -0.14887719 0.06298425 0.06822894 -0.16976279 0.02895068 -0.22200195 0.08059499 0.010180015 -0.10025688 -0.11300491 -0.19348414 0.06530917 0.09352619 0.24593498 -0.1272119 0.28092146 0.19680147 0.08620491 -0.15180495 -0.09480997 0.28361923 0.03812443 -0.18500811 -0.1125411 -0.14855058 -0.06953794 -0.16465916 0.2781739 0.015175064 0.26296535 0.04143146 -0.015359011 -0.16944726 0.051702555 0.034350418 -0.059801567 0.1466323 0.2500644 -0.035110064 0.034085605 0.08130051 -0.107697785 0.060249783 0.10112393 0.023207964 -0.045457333 -0.018408962 0.07827452 0.1590049 0.17485331 -0.08276112
18 -0.5151762 0.55375576 0.10128857 0.1999108 -0.14903913 -0.18614817 -0.098675996 -0.26513925 -0.07025024 -0.049356416 -0.3128005 -0.10395499 -0.09616222 -0.1216926 -0.012756125 0.037629023 -0.22636962 -0.023093188 -0.20780928 0.13879861 0.11973352 -0.16424908 -0.20348623 -0.2623682 0.092849545 0.09013059 0.14277968 -0.04458766 0.28154948 0.31395745 0.072403416 -0.0912942 -0.035610557 0.18210194 -0.016094223 -0.11473519 -0.2409941 -0.10658324 -0.117209405 -0.14056168 0.20547901 0.03216457 0.18709095 0.014443656 -0.09184329 -0.002850793 -0.008915462 0.060166568 -0.1016157 0.13718389 0.25569078 0.022595 -0.02338454 0.07870189 -0.060020834 0.10897667 0.08677579 0.022892797 0.0376099 0.11743842 0.13254432 0.10695192 0.08609848 -0.0957646
24 -0.5108023 0.50846726 0.12715206 0.10610936 -0.20107388 -0.206881 -0.1691002 -0.19953105 0.025021108 -0.15750079 -0.37506473 -0.07378544 -0.24534777 -0.12178823 0.05004074 0.10256609 -0.09571908 0.016192878 -0.19217464 0.09130275 0.16313384 -0.20118627 -0.23297566 -0.19965465 0.073668845 0.064900495 0.17110398 -0.02546998 0.25701156 0.3538861 0.03147231 -0.037844103 -0.038591146 0.2049639 0.0024275864 -0.18676968 -0.14812045 -0.050081708 -0.014250356 -0.22640738 0.13190545 -0.05148279 0.15428667 0.07149398 -0.10656355 -0.08532954 0.027894128 0.077891015 -0.14765345 0.12076076 0.22875191 0.059619796 0.025208343 0.04878666 -0.061160192 0.05930118 0.057818703 -0.012324662 -0.08054877 0.117698155 0.15597974 0.20568848 0.052319914 -0.07196882
100 -0.32512686 0.46314514 0.029907497 0.07788049 -0.2359278 -0.084124506 -0.04933637 -0.24688043 -0.1417852 -0.21232855 -0.27954087 -0.03745234 -0.24945323 -0.11452937 -0.021170577 0.04275574 0.06381031 -0.12634292 -0.10657001 0.09039443 -0.025586782 -0.07805137 -0.049542934 -0.1842762 0.13504052 0.08880766 0.29358187 -0.0829598 0.22115923 0.2400812 0.14291196 -0.092762515 0.026591266 0.20713983 0.08933685 -0.15406 -0.0771273 -0.021899004 -0.11887473 -0.19110711 0.12450723 0.08192864 0.14224052 0.086740166 -0.084534116 -0.20113344 0.003991921 0.19670229 -0.061897848 0.049555495 0.20138556 0.057717312 -0.019274658 0.09745213 -0.04846272 0.016663913 0.088120244 0.01972466 0.00017080651 0.078562535 0.17264473 0.14094149 0.109815024 0.0058036433
47 -0.518482 0.50138223 0.097762235 0.22215079 -0.10976971 -0.16153392 -0.15304042 -0.26086953 -0.08408395 -0.15030761 -0.32856676 -0.077909425 -0.16298081 -0.06155188 0.044086616 0.053476676 -0.110837586 0.020976024 -0.12382583 0.06562394 0.12650305 -0.20657729 -0.23346749 -0.15720925 0.058332168 0.09157207 0.09191766 -0.07989765 0.275266 0.21481341 0.13481244 -0.012236775 -0.054338176 0.22247604 0.10026879 -0.118017055 -0.2500872 -0.074604474 -0.05441386 -0.20299016 0.15527453 0.049871564 0.1669103 0.047671393 -0.044350095 -0.1316668 0.019909639 0.06304731 -0.07381244 0.018565942 0.28354552 0.09482157 0.007153583 0.011577758 -0.0055591045 0.10545279 0.12262093 0.07306422 -0.016170988 0.14727627 0.17323257 0.29559025 0.07044082 -0.08915657
87 -0.3102435 0.47784832 -0.014975135 0.07719874 -0.2635405 -0.12209767 -0.06944009 -0.19350867 -0.14354502 -0.19005297 -0.335828 0.060028255 -0.14126627 -0.080604695 -0.044952895 -0.058720972 0.05183351 -0.029153092 -0.020215312 -0.0056214756 -0.09814342 -0.16982688 -0.09238635 -0.26363236 0.112891026 0.104359195 0.21653704 -0.13005699 0.2472459 0.26689383 0.116958804 -0.026199445 -0.0022748162 0.13957511 0.02961904 -0.06115001 -0.13639574 -0.06625371 -0.04914011 -0.18796675 0.15452732 0.018784009 0.20946315 0.059941813 -0.09473442 -0.1005362 0.0047358423 0.14317885 -0.11626327 0.12821147 0.22350366 0.18435355 -0.05015139 0.04601729 -0.036480892 -0.008439464 0.054245856 0.050548527 0.00908248 0.13087025 0.15513846 0.11860641 0.058143906 -0.06795559
99 -0.24765942 0.43506664 -0.01792091 0.04666023 -0.30912268 -0.14183624 -0.09062481 -0.25110805 -0.10147722 -0.16359797 -0.28648108 0.06055739 -0.21850492 -0.12958713 -0.035553493 -0.035412654 0.02544464 -0.11923363 -0.13966738 0.16568908 -0.03233557 -0.091548085 -0.10714871 -0.21026473 0.02568864 -0.004487547 0.19798763 -0.062420398 0.24575354 0.16055907 0.12697907 0.02777895 -0.108389616 0.15436046 0.029284868 -0.037093088 -0.25407988 -0.057382368 -0.083492756 -0.25672758 0.09630258 0.03446956 0.18059754 0.047739763 -0.0019362437 -0.07034682 0.040662717 0.18677653 -0.12835103 0.06233937 0.094130896 0.06351576 -0.017867047 0.15750168 0.025227915 0.027624208 0.052253284 0.068342105 0.05795839 0.06986743 0.19434948 0.19335324 0.07756058 -0.15927473
66 -0.32128066 0.47741953 0.10253346 0.10612277 -0.26239404 -0.19202858 -0.09070315 -0.287431 0.04079199 -0.18081412 -0.19030231 -0.04701562 -0.103479035 -0.10606328 -0.06875769 0.08128724 0.021920647 0.053318292 -0.23712419 0.17380804 0.06391016 -0.14425811 -0.06774577 -0.15651561 0.06423606 0.14214922 0.19018488 -0.08938409 0.25913882 0.25422236 0.08128964 0.012478317 0.055826522 0.11894457 0.09903655 -0.0773381 -0.20724949 -0.18273343 -0.07276474 -0.31208676 0.07576667 0.03504112 0.13609196 0.11134681 -0.06318753 -0.036070757 -0.026289247 0.12814389 0.0022642345 0.09955382 0.17622918 0.1451253 0.0022231278 0.1392171 -0.053616475 0.08608112 0.042997513 0.07624887 -0.03326916 0.086312935 0.12933022 0.009417591 0.14702208 -0.023419676
90 -0.436874 0.4981589 0.036199212 0.14705421 -0.23031464 -0.107605465 -0.11549021 -0.23112305 -0.11020499 -0.31282797 -0.34766266 -0.08930033 -0.26647982 -0.112882964 0.014722457 0.08087594 -0.03003254 0.008940137 -0.15265411 0.05308002 0.00016260339 -0.0881746 -0.20681028 -0.28236187 0.14378725 0.053806692 0.15487641 -0.08374194 0.17533942 0.24331594 0.100792065 -0.082049645 0.027084094 0.20138723 -0.018548543 -0.13299489 -0.22380832 0.04248777 -0.0548092 -0.20074792 0.13448521 0.007512212 0.15899448 0.07906422 -0.046345774 -0.07611366 0.013091053 0.086308874 -0.11511202 0.106456295 0.17416528 -0.021203408 0.064178295 0.19740552 -0.06520358 0.085503906 0.11843754 0.13669404 0.032291334 0.06397906 0.11801862 0.15935631 0.055447046 -0.08178386
33 -0.5204633 0.49057963 0.12510933 0.23692466 -0.14724192 -0.24372298 -0.18463515 -0.2882341 0.0061091734 -0.011370005 -0.29110307 -0.021521395 -0.16497646 -0.17012782 -0.055932924 -0.052688733 -0.098775126 0.044948395 -0.15150416 0.0946458 0.10996674 -0.20208405 -0.16694684 -0.22776435 0.1507352 0.07161746 0.25448778 -0.12669404 0.29827672 0.24261379 0.123559415 0.023488153 -0.06895906 0.21174233 -0.057210945 -0.15461215 -0.2128826 -0.12218281 -0.015293148 -0.093111314 0.13510509 -0.005796908 0.23740917 -0.027824793 -0.119449005 -0.1486286 0.015025498 0.13180785 -0.034864757 0.06668797 0.20970404 -0.069675036 -0.010586502 0.058236774 -0.015482771 -0.018516902 0.02706487 -0.032589152 -0.042074043 0.08906561 0.21943252 0.09282819 0.17735888 -0.0021532574
26 -0.44367522 0.541297 -0.016553726 0.1942633 -0.1852235 -0.1376209 -0.1058476 -0.254951 0.051825557 -0.10606941 -0.31930706 -0.07538868 -0.26939464 -0.11175103 0.027471462 0.07351953 -0.23759715 -0.021586055 -0.11468474 0.14266415 0.06902105 -0.13587336 -0.196241 -0.24734083 0.04477009 0.045667812 0.22047594 -0.11913964 0.2589143 0.22278212 0.056397896 -0.065611966 -0.10495521 0.11957308 -0.013077973 -0.13688272 -0.23433077 -0.10726125 -0.08147089 -0.09494049 0.21277012 -0.017396638 0.18205987 0.0686612 -0.03976779 -0.11630041 0.060956072 0.078258105 -0.10997016 0.1142975 0.28187284 0.07019196 0.057330992 0.09656044 -0.01954061 0.06204086 0.15247276 0.091230184 0.06688516 0.049327493 0.18825443 0.24769992 0.056687377 -0.044358414
104 -0.41566136 0.5390643 0.041445915 0.12698092 -0.22386871 -0.0036227715 -0.09814592 -0.31077355 0.019201811 -0.15521428 -0.29302424 0.03343732 -0.2649133 -0.14585476 -0.071786076 -0.05597501 -0.02839547 0.020203102 -0.077963255 0.19832903 0.2259654 -0.039379798 -0.17110415 -0.2610525 0.059538912 0.061865713 0.12479576 -0.121649586 0.22122067 0.21522233 0.2250143 -0.033854596 -0.010020518 0.09573625 -0.054283366 -0.12076451 -0.16323741 -0.09242599 -0.17687787 -0.21861127 0.09217436 0.009657667 0.1622971 -0.01174629 -0.029624429 -0.1410276 0.08382059 0.14301026 -0.15052143 0.09220196 0.2562726 0.08334742 -0.04287925 0.03824356 -0.09963807 0.008699291 0.18694378 0.07040508 0.04210089 0.0897958 0.100261904 0.21766394 0.06603711 -0.12089862
107 -0.33628765 0.4936398 0.0032673455 0.059185863 -0.31074208 -0.06196151 -0.09429337 -0.26590326 -0.08115231 -0.23280942 -0.31600535 0.031676266 -0.17307273 -0.06772338 -0.049905807 -0.058586113 -0.028692381 -0.050385345 -0.102335244 0.06216498 0.0644648 -0.122616336 -0.14250283 -0.07564721 0.07775542 0.11240014 0.24072091 -0.1037559 0.16748124 0.27153313 0.091280416 0.0050762645 -0.045253668 0.13092445 0.029205684 0.006821479 -0.2179624 -0.12195884 -0.12390696 -0.15930016 0.10724877 -0.044137828 0.21806845 0.09137896 -0.08869545 -0.1325708 -0.032391507 0.14025697 -0.09884047 0.0058909743 0.14468397 0.014157807 0.058439847 0.10998929 -0.033642545 0.029399777 0.16015294 -0.002198164 0.0657107 0.08581818 0.19138217 0.16997445 0.11665079 -0.038945027
74 -0.44657952 0.5525207 0.040273964 0.13697508 -0.24097167 -0.08399046 -0.06502256 -0.21606004 0.024709936 -0.27194524 -0.3500044 -0.114787 -0.23553416 -0.1081569 0.07665163 -0.07156849 -0.12728375 -0.036940172 -0.18300135 0.23876101 0.055024613 -0.22524123 -0.10751801 -0.11880099 0.08186101 0.04913833 0.2530019 -0.046567973 0.2119548 0.23754007 0.08822803 -0.049363256 -0.07794613 0.27246407 -0.00841039 -0.1779655 -0.072161846 -0.17064786 -0.005684658 -0.13623902 0.12120094 0.05038636 0.22240932 0.07219583 -0.07841997 -0.13420786 -0.08350805 0.08840741 -0.09950927 0.1242942 0.16506477 0.11553421 0.09833318 0.024534032 -0.14338584 -0.012810647 0.107243985 0.0039696577 0.042996883 0.07418358 0.25202337 0.26322687 0.051771943 -0.059922606
54 -0.33886525 0.48728308 0.15715542 0.080853336 -0.2004175 -0.16552593 -0.11462667 -0.25512797 0.11008167 -0.15886985 -0.21370542 0.055183753 -0.16370398 -0.042887535 0.030527037 0.115868956 -0.097016186 -0.038383685 -0.14231072 0.17951432 -0.011431908 -0.10650543 -0.11396243 -0.14251556 0.114053324 0.018348258 0.07848011 -0.11369401 0.10152973 0.2929479 0.042783126 0.115362115 0.045918636 0.1670011 0.10442112 -0.102144234 -0.17654885 -0.08811929 -0.08431256 -0.2594562 0.086413175 0.015441546 0.20835921 0.11938823 -0.163888 -0.12702638 0.054701727 0.25167686 -0.06936415 -0.03976598 0.29013312 0.02477493 0.09616648 0.15149412 0.0012637809 0.09512982 0.13303204 0.14510114 -0.086101346 0.1431297 0.100429125 0.09500517 0.07216825 -0.07638969
81 -0.2791883 0.49700072 -0.0004773053 0.05238019 -0.21548337 -0.11035795 -0.119311295 -0.2500312 0.014521974 -0.19903374 -0.2952409 0.026488801 -0.1986628 -0.13636771 -0.077378474 -0.100358106 -0.064402156 -0.07073331 -0.08506868 0.095897794 -0.12336394 -0.03119107 -0.07901313 -0.26681265 0.17036125 0.047569644 0.20840983 -0.045517977 0.18685748 0.18909992 0.047618415 -0.011478584 0.011835806 0.104311705 -0.033251006 0.05237469 -0.061641444 -0.06912838 -0.118679225 -0.21141337 0.08697914 0.013847843 0.11625835 0.08423426 0.004862673 -0.06991693 0.069164634 0.20516959 -0.083620146 0.06715391 0.2221913 0.038337465 0.052320026 0.11629839 -0.11013818 0.08204831 0.15419665 0.13529243 -0.029841239 0.07668754 0.17633694 0.2213002 0.09959389 -0.15529478
57 -0.3509126 0.43581027 0.14384255 0.03202679 -0.22738025 -0.10350217 -0.13645068 -0.20538107 0.07347929 -0.23273355 -0.27642205 0.10085045 -0.14180651 -0.020889008 -0.03576444 -0.06456168 -0.033542614 -0.016930897 -0.16034788 0.23541476 -0.019212905 -0.03407715 -0.019730497 -0.18909924 0.08281417 0.16204208 0.07323489 -0.10245728 0.25037098 0.1828277 0.032145068 -0.0049742255 -0.043078315 0.23446606 0.079510584 -0.12989861 -0.2598556 -0.15645155 -0.0989027 -0.1558265 0.010049075 0.032803822 0.10004355 0.12773556 -0.0461651 -0.06750969 0.0016705132 0.11396511 -0.18852443 -0.010261446 0.12521678 0.055755816 0.046977885 0.20865807 0.05766561 0.038217366 0.10084746 0.0017428334 -0.024277907 0.107887305 0.1646122 -0.0921603 0.15578827 -0.03855504
77 -0.15529348 0.4606718 -0.033963628 0.010582699 -0.31300914 -0.056194063 -0.16659915 -0.20206495 -0.11664176 -0.11791125 -0.3217675 0.027499944 -0.15186451 -0.13125929 -0.039683763 -0.011431 0.007756769 -0.14686479 0.025733586 0.060801994 -0.09937444 -0.015811758 -0.056420192 -0.21684748 0.04349712 0.11607097 0.19243395 -0.08412521 0.26748404 0.19687937 0.043413296 0.012590409 0.06788682 0.12488433 -0.07076756 -0.022975868 -0.14100349 -0.09367157 -0.17242552 -0.21310318 0.03863252 0.048728853 0.0003599676 0.065753356 -0.080495335 -0.038668722 0.06755608 0.17612714 0.0331118 -0.018685186 0.17160732 -0.081614934 0.07062907 0.17251785 0.0044212765 0.12860356 0.07761595 0.101685524 0.097879775 0.1464625 0.16364375 0.11599117 0.050200574 -0.06690341
39 -0.46391672 0.5278638 0.17816241 0.31175163 -0.12932147 -0.25619742 -0.11581636 -0.21897493 0.037048336 -0.11554616 -0.17248677 -0.08456851 -0.08195388 -0.08042789 0.05093019 0.014259281 -0.14641026 -0.0040990165 -0.18676995 0.16609988 0.107539125 -0.21421322 -0.22478315 -0.23360287 0.13554369 0.21185593 0.20635863 0.007741394 0.26274103 0.36441788 0.083351456 0.111781225 0.030411841 0.23324339 0.030191598 -0.0614116 -0.26316938 -0.120239705 -0.012473781 -0.17272715 0.11984323 0.0034560582 0.21191192 0.08557255 0.077695675 -0.0069107884 0.032116316 0.060198102 -0.080272585 0.15478969 0.26137805 0.0435511 -0.0052854037 -0.01798582 -0.034147892 0.04092852 0.013010021 0.048324406 -0.014377385 0.11429687 0.22826768 0.16847506 0.13668312 0.008590188
37 -0.5225601 0.511916 0.18967636 0.28800476 -0.10001625 -0.22081612 -0.16560382 -0.3452272 0.074904725 -0.020568796 -0.31605145 -0.0819348 -0.14931509 -0.07647317 -0.07297856 0.0696838 -0.15119575 -0.035319824 -0.18516324 0.19746836 0.11402816 -0.11992373 -0.14157131 -0.17873964 0.17125762 0.17782576 0.24218948 -0.042609792 0.2547224 0.33747298 0.027138144 -0.060122542 -0.009321999 0.25386202 0.09091049 -0.06714619 -0.2243691 -0.05523269 -0.028456703 -0.23213528 0.116228096 0.060436163 0.16117711 0.0748682 0.009186815 -0.119154915 0.07522772 0.13394114 -0.028486192 0.020608805 0.21835455 -0.12753448 0.07646669 0.012300192 -0.028108327 -0.009222466 -0.016249832 0.0007885951 -0.039037846 0.0395047 0.07135175 0.23244412 0.14882363 -0.12830457
95 -0.21502882 0.51021487 -0.074672975 0.007892953 -0.31195748 -0.06465979 -0.055186734 -0.17651854 -0.06604027 -0.061177853 -0.24436946 0.015874682 -0.23477814 -0.13994864 -0.02746719 0.012047805 0.07906661 -0.049474947 -0.07949269 0.10618253 -0.11969728 0.006004411 -0.117900476 -0.19298889 0.10205886 0.19908045 0.13392276 -0.16100956 0.26237908 0.21780387 0.037785422 -0.07296922 0.010309684 0.11838122 0.031069256 -0.16195433 -0.20802116 -0.09534081 -0.10612103 -0.25315312 0.077635184 0.017268617 0.13896953 0.17002295 -0.059129115 -0.0100458665 0.03904858 0.21832104 -0.110691935 0.031430166 0.15362425 0.10656447 0.002200964 0.048382234 -0.012857625 0.06946806 0.107876115 0.02713347 0.1029841 0.0968587 0.101669505 0.15993872 0.03984011 -0.07724808
145 -0.2767308 0.44452566 0.12431205 -5.072266e-05 -0.2341695 -0.16469234 -0.14189123 -0.16749927 0.016262446 -0.12496113 -0.21925482 0.15185721 -0.08527213 -0.08886737 -0.032623913 0.020322759 -0.07922054 -0.058123328 -0.08336567 0.15289733 -0.08364002 -0.05835691 -0.06095668 -0.18833573 0.08693591 0.14529039 0.25821015 -0.09216602 0.18429889 0.11478416 0.07293118 0.018648945 -0.025513599 0.23041603 0.10181355 0.091928266 -0.22597545 -0.15861179 -0.059077755 -0.2560808 0.09355375 0.04479699 0.09429796 0.09768501 -0.045701124 -0.1578361 0.014188083 0.087379046 -0.11871159 -0.023751691 0.115053 0.015556067 0.07050516 0.15840857 0.034988213 -0.00644903 0.10934409 0.13017096 -0.0426015 0.078810476 0.1453678 0.05985632 0.17073359 -0.0068009547
85 -0.1630672 0.436871 0.04428234 0.02026558 -0.26997134 -0.07535966 -0.10904358 -0.21080366 -0.1608093 -0.21139716 -0.18991098 0.057059955 -0.17386997 -0.10208038 -0.05724674 -0.09781334 0.032339104 -0.10592586 -0.040141854 0.21530789 -0.13043897 -0.040624157 0.027524097 -0.19767864 0.09985607 0.104390725 0.25902632 -0.11240453 0.25178114 0.17079034 0.041973878 0.02509148 -0.06083415 0.10551589 -0.019964762 -0.05680116 -0.124237575 -0.018742412 -0.094443 -0.2400677 0.039129198 0.047999103 0.006127212 0.07057288 0.032050405 -0.022720609 0.120372295 0.08764143 -0.061471067 -0.037585143 0.13326699 0.1223824 0.011713851 0.22938131 0.06628666 0.015776476 0.14575516 0.12615588 0.055593085 0.13123873 0.09249885 0.22453189 0.1499322 -0.08155312
142 -0.26850843 0.4435102 0.15795358 0.06515868 -0.24605566 -0.10840899 -0.13866837 -0.21498942 -0.01293903 -0.17339823 -0.12232701 0.114385255 -0.100139104 -0.07703379 -0.117841884 0.071947 -0.033715937 -0.07635022 -0.09287156 0.14564969 -0.031108228 -0.11098254 -0.067863174 -0.12295355 0.16128005 0.12262794 0.16819903 -0.09890221 0.191261 0.26487735 0.00034083214 0.03977217 -0.058070328 0.23500048 0.03767845 0.026751066 -0.07759311 -0.116434954 -0.23108837 -0.26994947 0.123744786 0.090968594 0.15616909 0.11380474 -0.057866145 -0.045724742 0.11662822 0.14188124 -0.11654606 0.036494296 0.15199557 0.03688607 0.07844886 0.11498003 0.08755055 0.081423044 0.033012252 0.14083971 -0.024395242 0.076919 0.1394167 0.06524667 0.05322715 -0.09247366
146 -0.27661902 0.40648693 0.08375675 0.06631169 -0.25659493 -0.17284465 -0.11237039 -0.2793847 0.02959422 -0.15573297 -0.22528654 0.07752226 -0.03955129 -0.1338744 0.01735137 0.13982485 0.10812059 -0.042130448 -0.024837114 0.15769441 -0.069823086 0.0026423717 -0.076300375 -0.12980865 0.026295835 0.09907069 0.124346495 -0.14322728 0.2502286 0.22165808 0.12080961 -0.0039034027 0.0391331 0.24144322 0.110354416 -0.04397445 -0.16526502 -0.1779514 -0.077988096 -0.1541785 0.0906546 0.092341885 0.14940266 0.1470806 -0.06325788 -0.15413745 0.086037815 0.12847467 -0.15412173 -0.058156744 0.11197632 0.06993922 0.078581855 0.11781502 -0.004856222 0.04954228 0.022101024 0.06621199 0.029063089 0.08279005 0.15270288 0.063951954 0.18381377 -0.052330986
9 -0.53360516 0.51213163 0.14559178 0.3324072 -0.15256195 -0.124618255 -0.13387144 -0.29471117 0.055195574 -0.055166364 -0.21984182 -0.16070557 -0.03786405 -0.047172535 -0.06493471 -0.037270855 -0.076467216 0.003571188 -0.18500456 0.16331474 0.15338823 -0.20651686 -0.18561503 -0.20987701 0.17394508 0.09364218 0.17096649 -0.14866945 0.31791148 0.37379572 -0.040298324 0.059124023 0.026114624 0.10503572 0.12303688 -0.22999996 -0.33241355 -0.11068029 0.03867785 -0.20488228 0.18603265 0.00037926322 0.13707776 0.039709534 0.007483295 -0.2224477 0.03251617 0.09299777 -0.049237877 -0.0018208559 0.2715461 -0.11416556 0.009013097 0.043897334 -0.033100355 0.06502303 0.02919164 0.0013340875 -0.11865758 0.11302905 0.16270551 0.0796184 0.20490055 -0.07812611
34 -0.4907263 0.5483814 0.16795577 0.32361802 -0.1219291 -0.19066405 -0.079029314 -0.26772746 0.035257485 -0.098769635 -0.16564998 -0.16920944 -0.12159903 -0.12246593 -0.062975876 0.086022526 -0.21494032 -0.07577321 -0.17334814 0.18488412 0.06188362 -0.068714954 -0.22479157 -0.15757307 0.11138274 0.14438547 0.1678519 -0.08523795 0.23328526 0.37410012 0.02590257 0.038427614 0.04253399 0.19024952 0.04317487 -0.1334591 -0.2562344 -0.1742077 -0.08056502 -0.11483648 0.23141624 -0.09277104 0.17578076 0.061761703 -0.030765198 -0.13864915 -0.013725768 0.1120664 -0.042973477 0.06622507 0.2887738 0.062630385 0.06428896 0.036621116 -0.007028794 0.06943547 -0.057805452 0.009411472 -0.081169076 0.11654047 0.21403356 0.106855854 0.16921085 -0.06803127
84 -0.12546034 0.33849472 -0.08302862 0.0237706 -0.3534593 -0.06613656 -0.22638167 -0.056888588 -0.11261471 -0.1547527 -0.19977972 0.14131814 -0.074558035 -0.28277525 0.026849892 -0.022560094 0.08368182 -0.13466418 0.0057140924 0.16696149 -0.15955737 -0.091695674 -0.084840074 -0.12011346 0.19295317 0.10004006 0.15292357 -0.20001125 0.24702135 0.19998063 0.06637771 -0.014519903 0.02245678 0.04863922 0.060836658 0.002522255 -0.037330754 -0.023985034 -0.11300677 -0.111651644 0.0033012545 0.083918445 0.0796907 0.17614558 -0.11896718 -0.039104432 0.027602639 0.12928285 -0.10881376 -0.031606182 0.10435396 0.023450106 -0.00090667186 0.15924679 -0.04449417 0.10684106 0.14071381 0.0012962283 -0.086372495 0.07338524 0.10217606 0.1593832 0.16845116 -0.11106769
6 -0.5567927 0.537738 0.11894806 0.2716833 -0.094229385 -0.21480444 -0.15334508 -0.2523315 -0.0026587516 -0.035924338 -0.27399462 -0.14272545 -0.1852995 -0.06366307 0.047158863 0.040617768 -0.15748951 0.02201078 -0.19919932 0.25844178 0.17480564 -0.22099555 -0.21009326 -0.21064168 0.0150377005 0.16955498 0.111304455 -0.0299168 0.22378549 0.2920146 0.08049076 -0.018909346 0.024516607 0.11078116 0.07417477 -0.18384214 -0.3112929 -0.09388526 -0.058397997 -0.17858697 0.20031987 0.010624878 0.22717926 0.03147544 -0.123677 -0.20009524 -0.009654099 0.020823807 -0.006978576 0.068896234 0.16647956 0.021135772 0.09438745 0.0675166 -0.041443802 0.06748697 0.023889052 -0.028092958 0.011133032 0.13208291 0.17164399 0.28960672 0.21078357 -0.10447205
96 -0.136477 0.40337992 -0.09749178 -0.011296232 -0.30951715 -0.12802388 -0.22988786 -0.16019586 -0.10487811 -0.25113112 -0.21978705 0.088002354 -0.14086287 -0.17156683 -0.00021114571 -0.032760505 0.0058588614 -0.12729907 -0.10278046 0.11553156 -0.1061483 -0.03963483 -0.015339378 -0.12818933 0.14010188 0.09827637 0.23400581 -0.18461472 0.1829848 0.20510751 0.105286755 0.029927908 0.036755122 0.121832475 -0.05779266 -0.030603744 -0.12517488 -0.07728005 -0.16738242 -0.22207792 0.100212626 0.030807579 0.06134333 0.14334121 0.011274846 -0.074181706 0.08316777 0.19362941 -0.008576384 -0.025414007 0.1073268 -0.067087576 0.03516988 0.1311432 0.007728703 -0.0072424794 0.0696081 0.10009351 -0.009823451 0.1750082 0.08222626 0.11469623 0.09115523 0.003681842
31 -0.52113515 0.50501454 0.16462757 0.42396167 -0.07996171 -0.16276924 -0.16078013 -0.28124088 -0.010409999 -0.11081072 -0.2185056 -0.10457206 -0.14075068 -0.07610551 0.021409696 0.10816683 -0.15905572 0.012171169 -0.10209189 0.21387506 0.08912174 -0.20881777 -0.16264753 -0.27518722 0.17307606 0.13040222 0.11486801 -0.17945057 0.21815006 0.29497924 0.022468183 0.045957252 0.007625144 0.2592125 0.0031278227 -0.14108849 -0.29956055 -0.22853306 -0.07360484 -0.19709541 0.12782949 -0.07029974 0.12412033 0.098990515 -0.0034612485 -0.1540983 -0.042551465 0.08473864 -0.06825195 0.027899114 0.2937524 -0.09860904 0.023146883 -0.06742357 0.04092955 -0.0077760485 -0.07078119 -0.06252617 -0.03739869 0.1572157 0.25549796 0.13495979 0.068183474 0.017103387
148 -0.30075088 0.32189724 0.2297114 0.11338814 -0.28121582 -0.16941032 -0.14169161 -0.25806102 0.11489659 -0.17481044 -0.17649826 -0.024355276 0.015102856 -0.13487257 0.073210016 0.0928774 0.07561363 -0.101470925 -0.12368486 0.14824462 0.02144218 0.026287507 -0.03935661 -0.17514321 0.16713141 0.1594015 0.08898126 -0.07168841 0.31809497 0.21188952 -0.05950466 0.059734114 0.038806614 0.30919066 0.1077258 -0.092581056 -0.18505393 -0.12071701 -0.045476116 -0.20768315 0.066365235 0.07574142 0.09551646 0.026944485 -0.045757923 -0.07315079 0.07428419 0.14639379 -0.19166528 0.056681223 0.13955058 0.120145045 0.06169007 0.12330946 0.021109974 0.07772711 0.024841743 -0.050101627 -0.11106046 0.18438666 0.14899407 -0.019966306 0.17834911 0.034972146
91 -0.53738946 0.59440756 0.14599884 0.09365139 -0.23239446 -0.11102799 -0.031462595 -0.20008446 0.018314065 -0.212321 -0.3573872 -0.12033842 -0.20317158 -0.13146727 -0.004007069 -0.005084459 -0.08373545 -0.050608203 -0.12961023 0.18303074 0.18434174 -0.19584744 -0.13924323 -0.14082997 -0.009312866 0.11858494 0.23276438 -0.11664223 0.25151056 0.2757927 0.041723434 -0.064534 -0.010404889 0.17891239 -0.14770868 -0.23481137 -0.11588797 -0.12531263 -0.087563396 -0.17138787 0.24121876 0.076252766 0.10848785 -0.01421544 -0.1466663 -0.07784851 -0.088019855 0.12404196 -0.023391776 0.15279561 0.1940282 -0.086111106 0.07505161 -0.01743402 -0.17302692 0.077787876 0.17275801 0.08308514 -0.046353392 0.009758061 0.2020105 0.32139242 0.026666634 -0.019094797
80 -0.47757772 0.5553483 0.030090548 0.106667936 -0.23543085 -0.045180872 -0.018864837 -0.30998692 -0.022838984 -0.29779884 -0.41027927 -0.18684937 -0.18398465 -0.15309948 0.054370735 0.016051099 -0.15924412 0.066934705 -0.18728368 0.16220416 0.18030818 -0.18970539 -0.17675717 -0.19341268 0.09804632 0.19720285 0.12130836 -0.10051276 0.24116674 0.21420926 0.15830022 0.0114745945 -0.09183002 0.15349062 -0.007866109 -0.29358676 -0.13009205 -0.03224184 -0.05173615 -0.15109167 0.17052245 0.036104638 0.14683832 0.053369332 -0.058466166 -0.05849949 0.06831307 0.072360314 -0.07131886 0.014826906 0.2793103 0.03581163 0.043311775 -0.033892058 -0.20413902 0.1031253 0.057153594 0.02927654 0.10359336 0.05176413 0.21517023 0.33789596 0.018353535 -0.1824818
10 -0.4439315 0.48595652 0.22820964 0.4146687 -0.06893229 -0.15918198 -0.15376937 -0.36667913 0.09705342 0.025755638 -0.258277 -0.10423618 -0.082827866 -0.1133084 -0.09139323 0.07137668 -0.13450967 -0.06723741 -0.22077557 0.14966007 0.02212789 -0.18153927 -0.15795644 -0.26860613 0.121915005 0.17548223 0.11440141 -0.1521328 0.39478365 0.30905426 0.002658706 0.12435507 0.05315634 0.08487158 0.07367228 -0.043901663 -0.26156583 -0.15441374 -0.037753563 -0.17380418 0.0010837466 -0.05768435 0.15528247 0.026340086 -0.002221377 -0.09512661 0.02244238 -0.0071397955 0.0028784769 0.03544307 0.29059163 -0.01408187 0.12238426 0.045891672 0.081378266 0.010080511 -0.004856163 -0.049910042 -0.11745628 0.1486216 0.22932723 0.119395465 0.24793005 -0.0027597607
14 -0.41383466 0.47795674 0.22346997 0.44275922 -0.08538786 -0.21882626 -0.13136606 -0.3290964 -0.005054037 -0.074839965 -0.15559486 -0.16807134 -0.04093705 -0.08031663 -0.0066874237 -0.028530627 -0.15006688 -0.012808575 -0.09325512 0.15726249 0.053839345 -0.11382529 -0.19171306 -0.20519632 0.251149 0.13521321 0.17744654 -0.21377435 0.23823912 0.24774201 -0.031514164 0.0018882548 0.011204171 0.17046922 0.2145696 -0.11443404 -0.22204763 -0.2796257 0.05438847 -0.25481397 0.07700631 -0.001794645 0.14646615 -0.025211722 -0.11486503 -0.17745635 0.03174131 0.052656844 -0.091187604 -0.024641631 0.3929307 0.014651237 0.12219231 -0.07324367 0.0015318722 0.037934244 -0.13918243 0.060320042 -0.15314879 0.092074655 0.19582005 0.119422235 0.2434556 -0.047010534
32 -0.47565544 0.5566456 0.15466374 0.47317067 -0.014327504 -0.23677829 -0.06619793 -0.2816657 0.04960038 -0.1190948 -0.18848166 -0.1087364 -0.12885468 -0.09852757 -0.12430941 0.07114826 -0.23437698 0.056055292 -0.17804775 0.20719221 0.073584765 -0.18689714 -0.2281768 -0.17495629 0.15178493 0.14145184 0.1439618 -0.2028879 0.29358658 0.2048632 0.08003132 0.040403977 0.07813374 0.32620397 0.12124949 -0.09783129 -0.24250305 -0.06511232 0.027135901 -0.07126827 0.16814527 0.000766669 0.11589682 0.09432884 -0.018533373 -0.11969034 0.08961544 0.04616656 -0.035449885 -0.0101630455 0.36580306 -0.07045288 0.11796817 0.09040807 0.04592633 0.045441963 0.00080030295 -0.0207821 -0.13219042 0.15105726 0.20948586 0.10195008 0.19532578 -0.04712347
5 -0.5405309 0.60187984 0.14882892 0.2976993 -0.08011146 -0.20365044 -0.1400171 -0.22896463 -0.07546094 -0.1402669 -0.32766306 -0.113150746 -0.18909205 -0.044381157 -0.03421856 0.015731465 -0.18317705 -0.03409138 -0.20211248 0.1829362 0.17668517 -0.16488951 -0.11944629 -0.16807914 0.043342713 0.106559105 0.21505636 -0.083864614 0.27420613 0.2400006 0.12630205 -0.052125882 -0.09862703 0.2613658 0.09412508 -0.2812928 -0.200209 -0.13207164 -0.22964859 -0.104692444 0.16287121 -0.031631637 0.13065238 0.032588925 -0.0014483577 -0.17972395 -0.022056947 0.014473337 -0.14793539 0.14573611 0.26153496 -0.022432586 0.14020547 -0.02623863 -0.0800804 0.08100335 0.03636043 -0.019944685 -0.043188814 0.030938387 0.1254872 0.26541603 0.16144699 -0.03287239
30 -0.464909 0.5282682 0.1706265 0.40951028 -0.15485153 -0.17853414 -0.1117578 -0.29980284 0.06636716 -0.0077631194 -0.21575294 -0.09258572 -0.09456746 -0.11512973 -0.090508334 0.115358524 -0.15668611 -0.07056775 -0.17617139 0.27682126 0.17408249 -0.24796301 -0.17097275 -0.27290958 0.17310144 0.22827324 0.17293331 -0.11126742 0.2661284 0.298322 -0.08967979 -0.015700005 0.052877717 0.22317916 -0.013200446 -0.08352924 -0.27279633 -0.101664856 -0.06466521 -0.13911967 0.11703571 -0.033119418 0.07285489 0.10382619 -0.10046471 -0.18376173 0.061505444 0.071460925 -0.048989106 0.064993925 0.28617737 -0.06410471 -0.052692536 -0.069078885 -0.002075972 0.1254322 -0.020566413 -0.03831014 -0.12478748 0.03406776 0.21735245 0.1359401 0.172737 -0.038008783
101 -0.49329117 0.57830024 0.06016612 0.19418785 -0.20280169 -0.08366225 -0.100489005 -0.27438074 -0.018717453 -0.24633221 -0.39023396 -0.24741969 -0.1370586 -0.037867922 0.05820265 0.005099324 -0.1768618 -0.049797535 -0.039354913 0.065161884 0.15420727 -0.20174098 -0.17463593 -0.25913826 0.040341713 0.06332295 0.21910733 -0.03394195 0.16043296 0.30399024 0.07892866 -0.043575704 -0.09401193 0.15245233 0.034182776 -0.2898561 -0.2027551 -0.033636045 -0.071307175 -0.18642683 0.2473259 0.064113244 0.22976734 0.059891522 0.08591916 -0.084968545 -0.010910046 0.11116327 -0.1159493 0.056730527 0.12884869 -0.027126044 0.118629456 0.09427648 -0.092969514 0.09254526 0.09037187 0.032158397 0.07070068 -0.02723249 0.20079134 0.3232242 0.14829633 -0.047924392
75 -0.49407718 0.5862159 0.052111663 0.1827999 -0.18283108 -0.08264485 -0.03482134 -0.28325287 -0.040354338 -0.2341871 -0.42909765 -0.1606889 -0.22149523 -0.08171152 -0.015559049 0.012640611 -0.09552648 0.10680848 -0.0801362 0.048981898 0.17504038 -0.18553641 -0.11012903 -0.1725563 0.08630744 0.055790376 0.21172746 -0.08837184 0.2992074 0.3097066 0.10835089 -0.0091157835 -0.14866978 0.27882028 0.030578122 -0.32445568 -0.13446952 -0.06817951 -0.051507715 -0.071119025 0.20014593 -0.017212398 0.06269237 0.009844298 -0.0031614283 0.02210014 -0.008599507 0.19828199 -0.0065320083 0.10626461 0.25757283 0.05043243 0.050764468 0.01720867 -0.0987633 0.077766955 0.10113299 0.07188345 0.041002177 0.036160797 0.18122022 0.25383332 0.04788506 -0.09679093
92 0.06579558 0.33216074 -0.081507 0.06441903 -0.32392246 -0.17136297 -0.22481193 0.002014217 -0.029074838 -0.13122958 -0.12417779 0.20764433 0.04228786 -0.29698554 -0.027167263 -0.18736443 0.019072205 -0.10097308 0.17308666 0.19529516 -0.14258687 -0.052968226 -0.001946214 -0.2516576 0.12959357 0.124709934 0.13572165 -0.21411787 0.18377553 0.23440193 0.011329975 -0.066855736 0.023160296 0.090958044 0.04988221 -0.104659684 0.034181666 -0.017245429 -0.21753488 -0.16522264 0.10732594 -0.012448315 0.021401513 0.09641714 -0.06604026 -0.1091353 0.07754141 0.087016374 -0.02108002 -0.06285843 0.03848255 -0.038547497 -0.089354284 0.152039 0.078624345 0.013931723 0.10629875 0.12871009 -0.009249047 0.07985217 0.025603114 0.14432229 0.1023852 -0.06942446
93 -0.53973395 0.58340174 0.015312668 0.15226103 -0.18534909 -0.041175455 -0.09697548 -0.25784975 0.043124765 -0.122524776 -0.39868978 -0.17408203 -0.23867223 -0.11595343 0.04726741 -0.0072334437 -0.12512766 0.023012454 -0.17360537 0.087924905 0.13341291 -0.1672548 -0.172013 -0.16858606 0.07216087 0.14656511 0.15047668 -0.013941644 0.24201822 0.3076964 0.1597696 -0.006617906 -0.08826823 0.30025417 0.022672914 -0.2865364 -0.27119675 -0.045682788 -0.045703046 -0.11838897 0.14317425 0.010008927 0.18135703 -0.039686553 -0.019723117 -0.06577729 -0.0947687 0.05171433 -0.05760869 0.122347094 0.14859675 -0.042272005 0.024219763 0.07560727 -0.07570688 0.084482394 0.12926552 0.22452985 0.059576992 -0.055427555 0.16605428 0.3573772 0.099075004 -0.11492377
65 -0.13235934 0.37010732 0.2022555 0.017586436 -0.2561967 -0.11430534 -0.14609979 -0.1389521 0.15098734 -0.0633345 -0.11630705 0.10386377 -0.031503204 -0.19015212 -0.03915664 0.10224291 0.026766432 0.007951165 -0.011059414 0.07284811 -0.08607641 0.026874151 0.054424975 -0.19597098 0.18943293 0.14605102 0.0001539206 -0.09455326 0.17347041 0.174494 0.060121294 -0.024952246 0.040959172 0.1981925 0.15633924 0.022641974 -0.20695958 -0.2665779 -0.15522063 -0.22618286 0.12216007 0.117501736 0.01987412 0.119847566 -0.09326517 0.005061305 0.03680102 0.026039267 -0.039160565 -0.003999274 0.19326223 -0.025839012 0.08680597 0.16284023 0.014534979 0.014447388 0.018643688 0.18264326 -0.02095468 0.1746061 0.20731166 0.10398822 0.050544467 0.0041687777
143 -0.26051006 0.30535465 0.27711016 0.17875952 -0.2793672 -0.20104168 -0.18774886 -0.36978054 0.12877713 -0.06664023 -0.1256522 0.10104231 -0.064332016 -0.0958903 -0.060305975 0.032804117 -0.14365216 -0.0415603 -0.15201488 0.121638946 0.103232555 -0.06468602 -0.13432239 -0.22924444 0.28582385 0.21883817 0.044656537 -0.015235594 0.31151828 0.17934291 0.016993864 0.15208972 0.124239855 0.19286814 0.09277007 -0.038609218 -0.21442811 -0.24487874 0.0431539 -0.26023436 0.24538781 0.027574945 0.07322697 0.0361727 -0.05371791 -0.13135542 -0.039784838 0.13393119 -0.19228812 -0.078222126 0.04807323 -0.002180513 0.1088453 0.085600995 0.020532172 0.12466235 -0.062554136 -0.007551807 -0.07679003 0.14271091 0.22534464 -0.015836397 0.0744411 0.0293903
58 -0.11734122 0.35433954 0.13589409 0.060123082 -0.2625121 -0.14462006 -0.20933862 -0.21583691 0.07970482 -0.2173006 -0.14947411 0.075985536 0.023556441 -0.07323004 -0.0017483151 0.06294809 0.0024580066 0.031100145 -0.06679837 0.09578444 -0.15810418 -0.025744343 -0.023793058 -0.18680672 0.23514418 0.07638504 0.07878358 -0.07776838 0.1694179 0.21998675 -0.0860435 0.0061301948 -0.063314274 0.21323973 0.20196164 -0.050081316 -0.16076727 -0.28074154 -0.10127331 -0.12665552 0.11997504 0.04791046 0.13471259 0.084522925 -0.094117455 -0.024015114 0.04012377 0.11101029 -0.052883253 -0.080098666 0.018771507 0.04501088 0.08949758 0.19944982 0.02049103 0.06603405 0.017819345 0.03819076 0.02229078 0.14166637 0.21141204 0.03152107 0.20558393 0.0075471355
46 -0.49379468 0.5153626 0.17186487 0.40705043 -0.06792718 -0.1800545 -0.12713903 -0.30982572 -0.064501785 -0.06736007 -0.130807 -0.21751009 -0.20510921 -0.07808968 -0.051464394 0.1424114 -0.123827286 0.0791724 -0.19939709 0.20026383 0.12223386 -0.17360944 -0.16615279 -0.21573333 0.085327454 0.27062747 0.10401581 -0.19531156 0.30682278 0.28737 0.019120868 0.05715478 0.09271469 0.38660622 0.07795554 -0.09342339 -0.20750338 -0.19452706 -0.061969437 -0.18545817 0.1270927 -0.15010136 0.06315604 0.07414462 -0.06460284 -0.19076851 0.050150707 0.022299461 -0.11621293 0.024739858 0.28682777 -0.025500538 -0.03300136 -0.0027978297 -0.062279955 0.11938241 -0.018238217 0.0608241 -0.12477771 0.098206915 0.10549549 0.058927514 0.24866201 -0.15715508
97 -0.53943694 0.5571889 0.05704244 0.13602456 -0.21209383 -0.11478256 -0.15304244 -0.2256768 0.077889405 -0.23064594 -0.3390812 -0.09692919 -0.24046953 -0.11743853 -0.06355457 -0.023189003 -0.10863471 0.055164374 -0.12229087 0.11077363 0.22277582 -0.042252142 -0.14616592 -0.20856355 0.010933359 0.037554953 0.23326594 -0.086514585 0.27379468 0.31293574 0.04241389 -0.047853842 -0.021326575 0.25317946 -0.028030116 -0.20522687 -0.159232 -0.15829757 0.0031010907 -0.06334944 0.24686246 -0.15277779 0.23283611 0.015696751 -0.019242309 -0.035464987 0.028761286 0.10237892 -0.056109577 0.259957 0.2176029 -0.06194096 0.075019225 0.03050721 -0.1897022 0.08673696 0.17998771 0.06115774 0.021932915 -0.015911637 0.17721723 0.29794624 0.086222224 -0.15817921
76 -0.5321907 0.5873471 0.05425952 0.20420407 -0.18544939 -0.033958502 -0.113520704 -0.18787609 -0.029366435 -0.24158214 -0.36199954 -0.16435872 -0.17962228 -0.13176839 -0.053636644 0.122838765 -0.15293317 0.09849099 -0.13771205 0.06727266 0.23656537 -0.09667896 -0.16633952 -0.05445665 0.049945217 0.051974844 0.28824574 -0.15362726 0.27400208 0.28395745 0.14956222 -0.08720521 -0.03584433 0.12949045 0.010199899 -0.23382455 -0.12962003 -0.14993267 0.027570069 -0.1688543 0.20531853 0.011195177 0.30282253 0.032580473 -0.079350546 -0.0023721782 -0.055518422 -0.025932115 -0.08724272 0.098102964 0.23865423 -0.04409255 0.00196949 0.010806161 -0.046485044 0.06476013 0.18679251 0.08913022 0.13828994 0.018635303 0.20683904 0.34862944 0.16903861 -0.074435905
94 0.1296978 0.3074821 -0.0632947 0.045970455 -0.32539022 -0.16454759 -0.25118724 0.06250624 -0.08982216 -0.09428011 -0.15681966 0.1590938 0.0072495625 -0.2610738 -0.06322199 -0.18672094 0.18686658 -0.17842366 0.059506766 0.21348415 -0.055795897 -0.0458991 0.16698852 -0.12919687 0.14825958 0.12129848 0.116862856 -0.18211088 0.12647231 0.2908964 0.007507386 -0.055565167 0.068201855 0.13345061 0.14973906 -0.0668746 0.009150413 -0.04785089 -0.20573618 -0.1612457 -0.0014996507 -0.116302334 0.051854506 0.104915895 -0.06656962 0.09325679 0.0008058334 0.07945438 0.056174498 -0.050361816 0.080533445 -0.05095992 -0.049128205 0.24842888 0.031122714 0.07052034 0.12249694 0.058757346 0.018455245 0.14216879 0.081701405 0.11788751 0.1218707 -0.111727394
218 0.11030375 0.26355582 0.04304382 0.09220887 -0.34405106 -0.11387218 -0.18605852 0.13612297 -0.035821576 -0.05415817 -0.09928306 0.1050334 0.13173962 -0.3508553 0.056819618 -0.10415072 0.16312289 -0.062460147 0.06829199 0.1576825 -0.039486915 -0.008623304 0.068358995 -0.17933977 0.22429252 0.12470847 0.11773006 -0.07924997 0.05184307 0.26836583 -0.013586572 -0.08248502 -0.010003954 0.051421747 0.085034184 -0.034545332 -0.05959407 -0.08606667 -0.26944572 -0.17606682 0.058482353 -0.059277233 -0.13930996 -0.022907468 0.08456774 0.037195995 -0.021375364 0.11389218 0.038089395 -0.18908098 0.0547236 0.046357464 -0.035076424 0.3291434 0.05895022 0.057650108 0.08521608 0.094917245 -0.055002157 0.13297445 0.1397183 0.20785591 0.11644134 -0.24537943
20 -0.51325613 0.5314388 0.25556642 0.49861637 -0.069295816 -0.098038085 -0.07040963 -0.25886157 0.012328107 -0.02761569 -0.157228 -0.0967503 -0.086379535 -0.06926103 -0.015041495 0.07754647 -0.12207005 -0.002790262 -0.17124905 0.27074045 0.09214696 -0.22277191 -0.16510482 -0.16408128 0.10061238 0.16791584 0.16583222 -0.19637506 0.35583997 0.37736726 -0.019874271 0.06517326 0.10100186 0.2025413 0.15579727 -0.16736402 -0.13936275 -0.16456293 0.011144862 -0.12865718 0.079988055 -0.027641071 0.01770136 0.07559988 -0.11684241 -0.22243853 0.055868305 0.040756892 -0.09576052 0.016493782 0.3783816 -0.015328676 -0.017081352 -0.007309658 0.022773877 0.09512713 -0.0063411086 -0.08787961 -0.13095723 0.03297455 0.2277756 0.13698927 0.11858019 -0.10705279
3 -0.37691984 0.38326052 0.1879318 0.48265803 -0.08871658 -0.22719209 -0.10038266 -0.36943313 0.10870795 -0.038427845 -0.28620735 -0.1384119 -0.09612235 -0.08326232 -0.066120274 0.15697485 -0.13032328 0.0014154376 -0.28706002 0.25897282 -0.0060614846 -0.11129878 -0.18284033 -0.28267014 0.05953975 0.26981217 0.11203377 -0.2187397 0.22769734 0.19866648 -0.08082429 0.051006444 0.022337632 0.2557368 0.25890705 -0.069406234 -0.19759469 -0.2259374 -0.03035451 -0.28898165 0.11675303 -0.11988015 0.04536751 0.0020683582 -0.08545187 -0.117449485 0.071450874 0.037303217 -0.04752158 0.03704287 0.26729187 0.005901242 -0.06912478 0.019467106 0.00807005 0.038621396 -0.08481137 -0.02032485 -0.25753486 0.13635834 0.17392237 0.010606981 0.22683744 0.049149405
29 -0.53622407 0.4860422 0.22121106 0.48827374 -0.041566968 -0.17907865 -0.073671445 -0.36008954 0.11548822 0.0021495798 -0.24835715 -0.20708907 -0.1914361 -0.062332604 0.017229816 0.022408204 -0.0573809 -0.014468606 -0.24044222 0.1851612 0.09358438 -0.21002197 -0.1675356 -0.18301658 0.25263816 0.1722605 0.10255016 -0.11644686 0.28288382 0.2086735 0.09137807 -0.026864847 0.073119335 0.19891602 0.14683966 -0.04819307 -0.21660589 -0.17711748 -0.10749757 -0.1734415 0.15818402 -0.111288965 -0.017277692 0.15053806 -0.061703954 -0.13513589 0.04059099 -0.04945049 -0.043647747 0.091318384 0.37550983 -0.05384337 -0.08309839 0.10339056 -0.031421643 0.030057292 -0.03181407 -0.024745123 -0.15284522 0.077599816 0.17834319 0.12585893 0.29836565 -0.13594703
52 0.14162995 0.23353654 0.26945117 0.08247177 -0.28083605 -0.08715524 -0.23753825 0.19812517 0.014491525 -0.058066305 -0.101719536 0.12465802 0.17689432 -0.25982884 0.12761891 0.034216635 0.16731606 -0.09906235 0.023643337 0.13412146 -0.04697532 -0.0108401235 0.06156362 -0.14582227 0.23591807 0.18987826 0.018497935 -0.12381181 0.21136956 0.20116492 0.04131274 -0.023925157 -0.0011682073 0.05389763 0.18555889 0.055291068 0.041144457 -0.2753201 -0.16859221 -0.09549913 0.3114237 -0.076511316 -0.011349191 0.060649592 -0.105851255 0.12935705 0.10383174 0.009316979 -0.16231512 -0.14140807 -0.009003325 0.025147934 -0.044998895 0.31976473 0.039323255 -0.009937049 0.088326246 0.042138387 0.027039854 0.12737055 0.12830213 0.117445596 0.11941662 -0.03273091
72 0.1826231 0.17665246 0.24492802 0.116627984 -0.2923287 -0.07665393 -0.25861266 0.19160709 0.112743825 -0.13561477 -0.06992645 0.092894934 0.12325841 -0.345842 0.15067697 -0.03558586 0.12509054 0.054993182 -0.044240464 0.179518 0.011956207 -0.092648976 0.15290613 -0.18006921 0.24955064 0.22046806 0.019177418 -0.088634625 0.21352974 0.20293514 0.011156093 -0.077182345 -0.041078497 -0.010765921 0.27143285 -0.0052660215 0.032831892 -0.2153049 -0.20559499 -0.066785954 0.16274182 -0.0511375 -0.051277086 -0.052468844 0.069310434 -0.045099307 0.14911911 0.1843614 -0.06536802 -0.05533389 -0.055876225 -0.008926705 0.08747616 0.19759925 0.16723096 0.04583945 0.087733164 0.21236703 0.011785236 0.03655016 0.21162178 0.07480183 0.13060337 0.0027082392
86 0.09893238 0.26428324 -0.017542463 0.07936338 -0.33278862 -0.10394148 -0.27161565 0.16238442 0.007747449 0.009546033 -0.25437012 0.14073198 0.017897004 -0.29006633 0.103458494 -0.16557594 0.07957799 -0.054542914 0.11401988 0.14623393 -0.13698176 -0.10050138 -0.0895302 -0.15257916 0.1451529 0.14602031 0.043040615 -0.22490995 0.016833773 0.20356567 -0.12305314 -0.09798742 0.025841163 0.16982366 0.04033612 -0.017931702 0.07079118 -0.16475351 -0.3867258 -0.12126643 0.15435943 -0.11733044 -0.019711455 0.0071307076 -0.026920194 -0.049435772 0.043463707 0.1601315 0.032446668 -0.07961328 -0.06706604 0.0230067 -0.10673794 0.2570142 0.121383496 0.13370617 0.0914536 0.14275095 0.05614283 0.072039366 0.040079966 0.120507784 0.07008794 -0.22177914
51 0.20586684 0.24642205 0.21686658 0.08932547 -0.30713 -0.09571606 -0.22583553 0.27638394 0.0017045747 -0.062085163 -0.21148245 0.1862504 0.15187778 -0.24248153 0.12205883 -0.008410989 0.045627367 0.039355617 -0.0063992115 0.11781791 0.023167064 -0.056635402 0.111048095 -0.15643336 0.08280078 0.26742208 0.06994235 -0.09069697 0.17440733 0.15168299 0.05858047 -0.017118482 0.06554884 0.13050309 0.25711036 0.048909016 0.07963023 -0.26940787 -0.20517905 -0.07684806 0.19027977 -0.16667278 0.0015182634 0.014108589 -0.04682355 0.11325707 0.12801278 0.061388217 0.01832811 -0.1811145 -0.06843499 0.043641638 0.059774317 0.3245107 0.12211768 -0.040075306 0.090541735 0.03810345 -0.006787042 0.13782227 0.14452142 0.09517057 0.15065938 0.0414464
59 0.08332222 0.2977329 0.22368895 0.11710561 -0.25264224 0.02741196 -0.26561874 0.18099976 0.09115785 -0.10486831 -0.13632767 0.20539072 0.096127205 -0.3173154 0.177762 0.07561347 0.13283701 -0.05269128 -0.024267446 0.10511803 -0.08814077 0.041592363 0.053166147 -0.11381255 0.2597582 0.2882264 -0.098516434 -0.13161093 0.14560577 0.16997825 0.029430686 -0.03716557 0.1366298 0.15353818 0.22335942 0.05590441 0.08838863 -0.19278522 -0.23004824 -0.029553814 0.12416959 0.04721898 0.04394123 -0.022232836 0.022694997 0.0732593 0.1574445 0.036564127 -0.022158418 -0.16580753 0.0025932177 -0.0577357 0.11128213 0.20044245 0.023329793 0.018042292 0.092642754 0.24598655 0.1604877 0.18178555 0.10431148 0.06157161 0.22797118 -0.058376916
215 0.17507203 0.28032842 0.24591087 0.020614192 -0.3632082 -0.09656499 -0.19984809 0.17618364 0.06360379 -0.1535401 -0.012155989 0.05290836 0.08872887 -0.28446433 0.09817686 0.0056593744 0.12551111 -0.009861203 0.06609678 0.16343865 -0.041290715 -0.05963816 0.14209273 -0.10245962 0.17057474 0.23056707 -0.03829449 -0.25481117 0.1728325 0.11492509 0.07368072 -0.07075088 -0.12740229 0.11388506 0.15001608 0.05950599 -0.056194004 -0.18760844 -0.243342 -0.068533406 0.11580312 -0.0069943694 -0.07572156 -0.021772586 -0.12315878 0.0054933936 0.10564382 -0.007445681 0.018366419 -0.23046769 0.097867556 -0.05139974 -0.028261667 0.3128051 0.067962065 0.0011705599 0.07469155 0.1731858 -0.0049012555 0.14975207 0.2040814 0.17890523 0.1783113 0.055372298
60 0.21098356 0.26193345 0.22259298 0.023014782 -0.3160724 -0.16973558 -0.259115 0.16871293 0.057823893 -0.0020956509 -0.16238907 0.1707323 0.17650773 -0.32544625 0.049610287 0.14733167 -0.0029124035 -0.056317158 0.029868824 0.14096694 0.041899245 -0.0075459247 0.050743766 -0.12027828 0.2662711 0.14746128 0.02629013 -0.07603828 0.34406275 0.146387 0.040230174 -0.12388602 -0.044076145 0.104762554 0.15907738 0.034361806 0.04168277 -0.15988351 -0.12925142 -0.035069007 0.1988727 -0.06908063 -0.066241436 -0.04087959 -0.009122222 0.02337701 0.13571525 0.09982723 -0.15488556 -0.17120546 0.007793532 0.08877222 0.027586205 0.1881062 0.16369683 0.012787756 0.01142906 0.2671606 -0.02911855 0.11233869 0.22497065 0.0962723 0.03720077 -0.04366229
89 0.10357012 0.24046484 0.0032359038 0.06579409 -0.38698465 -0.17419992 -0.20846698 0.24701066 -0.121202424 -0.14785479 -0.098063506 0.14693849 0.0023723051 -0.24761946 0.051444937 -0.1630608 0.054176807 -0.0065678465 0.1473263 0.15219854 0.06492509 -0.003161833 0.08917302 -0.19455402 0.016318738 0.115093626 0.081052475 -0.20545612 0.1123171 0.176681 -0.030044157 -0.087935805 0.059874434 0.20483886 0.09683021 0.0136119155 0.03137443 -0.10791151 -0.07784288 -0.22651497 0.1375085 -0.00049851096 -0.0324317 0.12293712 -0.050375596 0.008533252 -0.01520375 0.1386889 -0.08921357 -0.14730781 0.082286485 -0.06459402 -0.09915545 0.34519857 0.17797263 0.09384664 0.073287904 0.04906964 0.06147896 0.20247895 0.06275463 0.15658283 0.16087614 -0.20231383
61 0.13377729 0.28960013 0.21888866 -0.018696737 -0.3611959 -0.05045854 -0.24094243 0.11535991 0.1680485 -0.053535983 -0.048364196 0.23913203 0.09293395 -0.33094332 -0.005058944 0.12122174 -0.07034222 -0.065615095 0.004775839 0.093947895 -0.06130611 -0.009342132 0.0005704471 -0.16448636 0.102653705 0.13605435 -0.097658694 -0.15352084 0.22503969 0.22775449 -0.026746828 -0.04647788 -0.043172125 0.12501691 0.17129971 0.021275498 -0.06394318 -0.20929055 -0.16958086 0.03431468 0.09559952 -0.114921555 0.012493503 -0.0075683948 -0.006267783 -0.0054492275 0.06704731 0.08546402 -0.15607585 -0.14072575 0.005872327 -0.027279325 0.015043654 0.28198743 0.06010853 0.1395635 -0.00076108053 0.0652562 0.05935181 0.18224795 0.26640043 0.06953728 0.26083288 -0.073934555
64 0.12772089 0.24982218 0.25320154 0.0872895 -0.29370168 -0.07716181 -0.24413693 0.17976041 -0.030570457 -0.14331603 -0.3160343 0.28001425 0.10047431 -0.16699374 -0.010620141 0.17877887 0.20021105 -0.06550947 -0.031538647 0.112808764 -0.000326412 -0.12881085 0.06470972 -0.09897128 0.18518752 0.17137422 -0.023088085 -0.13954304 0.2111273 0.10674645 -0.023635773 -0.115030564 0.07132635 0.119768776 0.28184125 0.10244595 0.0052043204 -0.17105892 -0.16074698 -0.042118594 0.26146057 0.08011114 -0.053570032 -0.04548444 0.10788149 0.041248005 0.12703972 0.0043393103 0.0058488725 -0.15234652 -0.02708954 0.05161293 -0.022260595 0.26217145 0.16251464 0.015743896 -0.021924056 0.13460107 0.097746104 0.15815037 0.1663106 0.09121315 0.18807897 -0.0046617338
68 -0.15642196 0.38426647 0.20542723 -0.040860478 -0.31677648 -0.118538864 -0.12876113 -0.097635575 0.037117105 -0.0952407 -0.18494752 0.14800602 0.150651 -0.15344635 -0.024336267 0.06577824 -0.04723786 -0.039958116 0.062448144 0.224075 -0.047326263 -0.10470615 0.014125601 -0.2749684 0.2014346 0.085956246 0.004567099 -0.12193625 0.13538967 0.17122777 -0.160477 0.0038163965 0.07724731 0.19451895 0.23884824 -0.0082618 -0.0988084 -0.16962011 -0.083764374 -0.07990763 0.15226837 0.06072991 0.079535 -0.041227844 -0.12053768 -0.019360585 0.048221573 0.039576933 -0.035660665 -0.104931645 0.12714425 0.088404596 0.038219225 0.08837359 0.13733217 -0.12068662 0.02704279 0.171808 -0.015175574 0.18678091 0.1968316 0.0065571577 0.2092485 -0.0033882828
78 -0.40750372 0.5783084 0.026881335 0.23207918 -0.16470891 -0.16190131 -0.0999349 -0.35138094 -0.107520014 -0.17629947 -0.39941704 -0.15053223 -0.24403393 -0.1530533 0.05247738 0.10784849 -0.19928025 0.033881016 -0.18944637 0.16076171 0.21166347 -0.123698495 -0.09649391 -0.10568859 0.025290517 0.08359162 0.26412058 -0.0153203895 0.34773564 0.2883726 0.110661134 -0.03764029 -0.050362337 0.15263072 -0.062902234 -0.25352186 -0.06316568 -0.06554185 -0.048262652 -0.072283976 0.21857458 0.067134425 0.15687242 -0.0023909512 -0.1267745 0.00939389 -0.052207578 0.07572899 -0.046420515 0.05089769 0.37136972 0.028647926 0.0066749807 0.068492375 -0.2063071 0.05644611 0.12926379 0.11820973 0.18535562 0.066528216 0.17652343 0.2866741 0.03348394 -0.08394864
70 0.3190101 0.19657342 0.33836 0.14670528 -0.34674004 -0.12291591 -0.19587883 0.28433228 0.038553145 0.01605115 -0.22055954 0.14471422 0.2074378 -0.3258347 0.122437865 -0.025165308 0.055325046 -0.06878911 -0.008466983 0.07484679 0.0013201035 -0.08702429 0.25874892 -0.06977849 0.18830134 0.120431066 -0.08508788 -0.09717244 0.2353972 0.022622034 0.084001265 -0.13644888 0.038370628 0.13033326 0.17639093 -0.05401967 0.066934116 -0.21538946 -0.19687492 -0.060819834 0.22523722 -0.10807842 0.10562003 -0.06878915 -0.0696717 0.024706548 0.08538243 0.111515805 0.04588699 -0.027593216 0.03688693 -0.018938826 -0.067176096 0.2815975 0.22956957 0.030284403 0.17176819 0.14139447 0.107714094 0.25449088 0.18677352 0.14049028 0.15890557 -0.1346749
35 -0.43643057 0.5172555 0.16623835 0.53000134 -0.036064394 -0.2518481 -0.10895823 -0.26611558 0.041304007 -0.047513932 -0.16686964 -0.1936626 -0.082695484 -0.11922003 -0.1395509 -0.008017417 -0.11522977 -0.07597094 -0.2907673 0.25897118 0.07910258 -0.15303785 -0.23231672 -0.23126358 0.19216046 0.26335755 0.07368186 -0.13935608 0.38511965 0.30724034 -0.0885026 6.705987e-05 0.12422736 0.22752595 0.030611819 -0.07215685 -0.20225483 -0.21689628 -0.044992737 -0.17353727 0.15465015 -0.1734971 0.13699737 -0.0039577545 -0.09462937 -0.17733428 0.006621073 0.005009993 0.014145142 0.17459008 0.24480107 -0.06506888 0.1255838 -0.00014843386 -0.031839695 -0.013559389 -0.15054607 -0.07414103 -0.06723286 0.2305797 0.1275229 0.0736513 0.2510216 -0.10455657
49 -0.42407504 0.5320276 0.029455008 0.113571644 -0.27196112 0.0041938927 0.033368453 -0.3805831 0.012154069 -0.303857 -0.41806936 -0.1231505 -0.177049 -0.16523309 0.016531695 -0.008753664 -0.16338956 -0.075358815 -0.04966096 0.1268269 0.21849668 -0.20803337 -0.100087605 -0.17775029 0.02393335 -0.015724776 0.24033889 -0.13309354 0.294701 0.22036259 0.15923342 -0.20158508 0.04261122 0.24865322 -0.07367512 -0.27812046 -0.06370705 0.030040346 0.034043588 -0.17549981 0.08930326 0.0874364 0.2720821 0.025864044 -0.11298102 0.0035071766 -0.08249904 0.04624396 -0.104306966 0.059326466 0.10420109 0.014738163 -0.019613266 0.114074744 -0.1181729 -0.019455886 0.16358997 0.040292326 0.038637474 0.095038645 0.11781031 0.43083307 0.117944665 -0.070037
106 -0.4868433 0.53431606 0.0038833339 0.21947858 -0.14166205 -0.06743157 -0.18825984 -0.3476445 -0.07341278 -0.229912 -0.3874497 -0.06173697 -0.21833287 -0.2014464 -0.05780864 0.014238155 -0.09224469 -0.014140365 -0.10612967 0.122831516 0.25845817 -0.105450794 0.00341173 -0.15964279 0.014878135 0.09566118 0.31103343 -0.017991185 0.27624983 0.19549985 0.028265772 -0.0114235915 -0.065911025 0.1777149 -0.017538283 -0.3253342 -0.199581 -0.04312559 -0.0819165 -0.0055609127 0.24670841 0.046971273 0.3211531 0.038013194 -0.082989775 -0.11063769 0.0429305 0.05450674 -0.0050897673 0.02589815 0.22972417 -0.08028458 0.08660169 -0.034893718 -0.19048408 0.09215362 0.08584731 0.13708523 -0.010452096 0.084883444 0.27042595 0.37824628 0.0035174899 -0.07044035
141 -0.33127907 0.29138705 0.23903228 0.3332293 -0.1871392 -0.07596282 -0.20406106 -0.3363813 0.16601883 -0.021676483 -0.22028454 -0.07987281 -0.036895398 -0.1408942 -0.061970025 0.10578192 -0.047192305 -0.042073876 -0.2782012 0.23867781 0.029927678 -0.16297963 -0.13676155 -0.13544567 0.2992493 0.20575756 -0.055304106 -0.13174479 0.25862074 0.06285732 0.028161138 0.014052908 0.031691797 0.25729796 0.26848993 0.05263911 -0.20254624 -0.2490162 0.01332432 -0.1767781 0.077798106 0.08418548 0.00448535 0.009579475 -0.09941438 -0.03637008 -0.060390502 0.1489932 -0.073954135 -0.06724184 0.22829498 0.064130306 0.09346037 0.11828799 0.013822529 0.051836967 -0.03533537 0.11912654 -0.12002758 0.164128 0.18614624 -0.021334102 0.14430666 0.1301365
53 0.36196962 0.23111568 0.30970895 0.15736537 -0.31878754 -0.14304575 -0.21349978 0.3166585 0.03528102 -0.07679392 -0.12915042 0.043949842 0.23621352 -0.4532107 0.15035036 0.03787112 0.06648812 0.0790817 -0.0076918215 0.07033905 0.023842216 0.015045061 0.040653817 -0.21300311 0.09852191 0.1963068 0.015006785 -0.07860395 0.101965256 0.16530253 0.07435777 -0.15320368 0.19094656 0.06994193 0.23638102 0.010978918 -0.010941064 -0.17772856 -0.29106322 -0.13782956 0.2403333 -0.12023689 -0.0142254075 0.06503406 0.09844806 0.07802769 0.053490374 0.1423727 0.073544435 -0.18500824 -0.063565046 0.028432151 -0.06886764 0.26103073 0.06537108 -0.057235707 0.12080414 0.08114299 -0.015949043 0.04708117 0.2048893 0.14662506 0.111321345 -0.088919535
56 0.28959772 0.17542103 0.22979984 0.15854649 -0.32265204 0.012574372 -0.3081753 0.3329101 0.047085512 -0.07623306 -0.13083279 0.07256822 0.22808382 -0.3767069 0.10363407 0.10604852 0.07617673 0.016487382 -0.11668216 0.1409322 -0.09076775 -0.024135867 0.16926003 -0.11707319 0.12805529 0.12181483 0.03882506 -0.15684831 0.26978678 0.13640824 0.13640426 -0.091701865 0.12005513 0.1535365 0.19648017 -0.023646306 0.0042102276 -0.18340082 -0.24213396 -0.046863068 0.17377126 -0.21055412 0.05871565 -0.047319647 -0.048201323 -0.011951391 0.10353927 0.069573306 0.09027005 -0.3033816 -0.045135964 -0.0007181952 -0.059820063 0.26073894 0.12857676 0.08217544 0.19783668 -0.03196219 0.009649716 0.10091569 0.13247074 0.15253614 0.10668031 -0.11580608
62 0.37598035 0.19304611 0.3218059 0.089895114 -0.38776782 -0.100042425 -0.21591938 0.35483336 -0.05436047 0.037915975 -0.21940416 0.009167546 0.12047759 -0.3113163 0.18156591 -0.074922584 0.04691219 0.02737823 0.0037789147 0.08779311 0.06491907 -0.015569936 0.097575985 -0.19289969 0.11064433 0.22574055 -0.030045029 -0.16530092 0.3052615 0.10749113 0.012115941 -0.099820495 0.11246742 0.063839026 0.18185194 0.06112851 0.025112884 -0.24347861 -0.18540825 -0.14605132 0.11160555 -0.1952302 0.03199098 -0.068549305 0.059884455 0.12256428 0.08243153 0.042342067 0.05193591 -0.20020005 -0.05368723 0.08641915 0.09908528 0.20437479 0.20006305 0.098705135 0.19331077 0.031084433 -0.028145755 0.058571994 0.22790214 0.18400885 0.16272444 -0.09665767
208 0.10290372 0.21493906 -0.10604204 0.0876591 -0.44982234 -0.17531475 -0.23558205 0.2191882 -0.06207828 -0.057668187 -0.27994448 0.07627779 0.022907859 -0.16065156 -0.030125959 -0.25754645 0.16160917 -0.09065451 0.048864488 0.23954953 -0.10252704 -0.008059803 -0.01642853 -0.10947889 0.06575234 0.25389537 0.100476556 -0.24998845 0.10091105 0.17752706 0.06095678 -0.15744771 0.06703492 0.08111234 0.07122889 -0.012513786 -0.010776772 0.012069282 -0.18491252 -0.022367628 0.19762325 -0.1352397 0.018160459 0.1666894 0.13742912 0.103898846 0.04799261 0.2114684 -0.024253402 -0.17421119 0.08071829 -0.08835865 -0.08731287 0.1556026 0.20860885 0.10205085 0.10634195 0.028669838 -0.052061357 0.1311226 0.12418758 0.16900896 0.13079613 -0.1375524
82 -0.5618156 0.6017071 0.029065702 0.24020532 -0.12813908 -0.040090956 -0.11881912 -0.30402005 -0.044990752 -0.26206532 -0.3789657 -0.10054552 -0.23553848 -0.07552076 0.03200088 0.05498794 -0.09932055 0.031185474 -0.088151395 0.11031397 0.17041448 -0.22459175 -0.10886021 -0.25711074 -0.017016722 0.04626602 0.27001664 -0.08252523 0.26787385 0.18451329 0.08524207 -0.03169509 0.036773928 0.19573317 -0.04676766 -0.3374433 -0.24573888 -0.16847587 -0.09095439 -0.036635056 0.30494452 0.030653149 0.095569454 0.01567663 0.019586688 -0.059707984 -0.057580408 0.116105855 -0.080368415 0.052815393 0.15337485 -0.0057549975 0.078040995 0.045215454 -0.20946576 0.03672215 0.037779152 0.13133033 0.03681762 -0.0015026657 0.15125938 0.43339944 0.008732977 -0.16221124
197 0.098290086 0.19170098 -0.061697077 0.13293147 -0.3996062 -0.086696416 -0.2759641 0.14107731 -0.09487494 0.0005974948 -0.23886648 0.15460008 -0.07080002 -0.4298401 0.11399637 -0.24635012 0.13391808 -0.032808132 0.07938196 0.2594057 -0.108911626 -0.05288669 -0.0028187113 -0.1129169 -0.03358557 0.1908425 0.1613079 -0.19179977 0.08951113 0.19526714 0.051476203 -0.056339003 0.022696689 0.10633898 -0.019131545 -0.0946763 0.0066629746 -0.061472338 -0.1640624 -0.10070725 0.01876986 -0.032533646 -0.017908819 -0.038485616 0.1447417 -0.018578436 -0.02263809 0.04942579 0.057792667 -0.17710856 0.06394971 -0.09681132 -0.068152525 0.27055356 0.15109974 0.0981838 -0.0620668 0.111839466 0.045609023 0.23565626 0.17548095 0.111250736 0.15725501 -0.12299287
153 0.14254321 0.2511954 -0.2214668 0.119823895 -0.27630556 -0.25016955 -0.2905862 0.046144143 -0.015927842 -0.11336916 -0.2063535 0.06918659 -0.008163871 -0.30231857 0.07988666 -0.31273696 0.16282812 0.037258685 0.05942098 0.102497935 -0.09457311 -0.15531692 0.07044734 -0.11093935 0.03656703 0.15298495 0.10451927 -0.1984509 0.14866285 0.2720321 -0.026652135 -0.13583685 0.0653844 0.16416475 0.036103237 0.01440235 0.109558895 -0.1076529 -0.15482724 -0.31152764 -0.004438614 -0.0012825934 -0.05625344 0.017723652 0.045392416 0.017687233 0.032725252 0.11841762 -0.018679176 -0.14475788 -0.02297331 0.0051264623 -0.1301792 0.20361441 0.14912306 0.12394186 0.14671688 0.06330349 0.10878319 0.066913426 0.18433785 0.23260315 0.08707908 -0.12225368
88 -0.47779626 0.55780756 0.1042501 0.20022522 -0.15951212 -0.062331222 -0.12950249 -0.29746798 -0.018753681 -0.26427615 -0.43116182 -0.20199805 -0.35685816 -0.16375668 0.013072553 -0.022190876 -0.10513378 0.15615495 -0.16519615 0.16854386 0.24158956 -0.15026906 -0.1652307 -0.15678564 -0.08252658 0.1878128 0.21224603 -0.08744724 0.29212087 0.31371453 0.06983345 -0.029968657 -0.095083624 0.17928913 0.029963298 -0.16330308 -0.14848803 -0.07605625 -0.09276699 -0.01454959 0.30374774 -0.006457745 0.20344786 -0.01993482 -0.0608136 -0.20681508 -0.102050565 -0.016458016 -0.08367505 0.049254406 0.15512832 0.009489669 -0.020035656 0.054747976 -0.22759359 -0.017101157 0.043319028 0.1072858 0.10917532 0.04201102 0.08180104 0.33507344 0.078753 -0.08001338
217 0.23009993 0.16102602 0.29230273 0.18779486 -0.27603155 0.10589571 -0.2653155 0.1840504 0.04828936 -0.039081138 -0.05571043 0.15088741 0.22124289 -0.3285087 -0.010257877 0.053181484 0.024027867 0.030504037 -0.073194504 0.12649156 -0.028979605 -0.005031029 0.103540316 -0.1682947 0.2716019 0.1928923 -0.08786809 -0.052504815 0.254249 0.14092903 0.05536383 0.08776033 0.07132739 0.029991038 0.20901094 -0.047223136 -0.1363771 -0.25842065 -0.1243867 -0.12025617 0.3396914 -0.07265059 -0.049921505 -0.023518821 -0.12411084 -0.05605984 0.17496948 0.11352656 -0.021302773 -0.073083915 0.040873967 -0.03735462 0.094545886 0.38072315 0.21767952 0.022588039 0.05918996 0.21480629 0.084694274 0.09900862 0.19983467 0.017939314 0.08840024 0.03291298
79 -0.5415533 0.6151104 0.04340781 0.15888874 -0.1247827 0.013927564 -0.09384148 -0.30807352 -0.043794557 -0.17197134 -0.4949092 -0.19646259 -0.17337094 -0.16947326 0.03213104 0.12660554 -0.06971742 0.05892082 -0.16640341 0.07809183 0.18894878 -0.0586193 -0.08323007 -0.20512564 0.13993773 0.15911908 0.33211675 -0.026971867 0.11933255 0.2128682 0.0025389576 -0.1560072 0.0571867 0.29803488 -0.068650916 -0.25100282 -0.09416297 -0.07348083 -0.061153412 -0.041178543 0.28603727 0.05000704 0.20912164 0.107635796 -0.075017266 -0.10369717 -0.10066209 3.6807083e-05 -0.021607675 0.10398621 0.25887293 0.010671342 -0.060753133 0.14461656 -0.21488898 0.031710476 0.03354533 0.091319114 0.13809341 -0.09512478 0.25965217 0.343073 0.11599436 -0.059827305
223 0.15085848 0.2488387 -0.114317775 0.07932479 -0.406925 -0.13984439 -0.27499315 0.17620862 -0.18330468 -0.018967547 -0.28743085 0.1634441 -0.027823858 -0.23008038 0.041682012 -0.16980462 0.09694359 -0.011804902 0.028826823 0.27053925 0.01692976 0.046120577 0.10795562 -0.12030733 0.11608358 0.10579591 0.10575143 -0.26332796 0.080907896 0.25758448 0.024947166 -0.15858132 0.07555751 0.14510006 -0.13936792 0.068563186 -0.030328862 -0.089797966 -0.16878511 -0.11966487 0.034998033 -0.010117738 -0.06700792 0.14704333 0.023999052 -0.036935218 0.08096562 0.10823394 0.02859384 -0.15955822 0.029051399 -0.06334692 -0.111021474 0.24348156 0.10197371 0.04725204 0.07525873 0.16176146 -0.109656475 0.09082857 0.18009438 0.26464862 0.019384637 -0.07680243
36 -0.43606797 0.51930237 0.15052314 0.58819324 -0.06625339 -0.19416365 -0.035122503 -0.29391533 -0.041965086 0.09092113 -0.15481636 -0.09583499 -0.17613854 -0.01572349 -0.044441126 0.05670996 -0.15780446 -0.06417462 -0.31312293 0.05279384 0.16181423 -0.23361474 -0.1202301 -0.1145379 0.32659358 0.3044908 0.113395065 -0.2849915 0.23889376 0.3125777 -0.05754836 0.116324194 0.027733238 0.31135678 0.14701772 -0.13186596 -0.24488463 -0.20161551 0.0008856443 -0.19639958 0.12077449 -0.066699944 0.053555187 0.017520767 -0.08638457 -0.070232116 0.04916349 0.09820957 -0.026135923 0.065817654 0.23639809 -0.0964312 0.053100385 -0.047746193 0.018202018 0.046833936 -0.13006729 -0.03698565 -0.14795546 0.2608172 0.2666777 0.08981611 0.3572952 -0.15093258
219 0.18436252 0.11774293 0.31146854 0.15876348 -0.3386463 0.13218081 -0.3405247 0.18602748 0.12795185 -0.14263903 -0.06875944 0.17044069 0.15350728 -0.23820534 0.06729794 0.08155642 0.058675088 0.055716567 0.014069752 0.08239766 -0.0046177884 -0.058622856 0.22183207 -0.2573676 0.13922626 0.2604388 -0.047043122 -0.07228974 0.3169763 0.09734877 0.11691451 -0.03926034 0.03512997 0.12357934 0.2915204 -0.011086115 -0.007949868 -0.24811271 -0.15134667 -0.09865711 0.2098254 -0.14538907 -0.010556818 -0.06354199 -0.02892357 -0.009709479 0.23500332 0.095943235 -0.045160435 -0.10810143 -0.008434354 0.027177999 0.06774568 0.16723809 0.1085759 -0.030154902 0.032929663 0.088858016 -0.047766935 0.15144622 0.2779346 0.031555943 0.24206437 0.060713332
164 0.15750366 0.2228108 -0.15225418 0.1122785 -0.42932564 -0.08736616 -0.28242758 0.27312648 -0.023298293 -0.01662449 -0.25336707 0.1480866 0.084172264 -0.34434274 0.13228093 -0.2821454 0.08390465 -0.06782052 0.05283177 0.12053786 0.07066936 0.016492475 -0.06119963 -0.1696756 0.062484123 0.09851535 0.13024397 -0.2898439 0.11337506 0.21549027 0.076393805 -0.0512462 0.0106422715 0.14981624 0.16817388 0.061390184 0.12793186 -0.0008281936 -0.28085873 -0.2132272 0.0017573925 -0.01569051 -0.03581671 0.11140594 0.06682245 0.009649124 0.09177864 0.042765133 0.021905642 -0.12994222 0.09221126 0.0055489605 -0.009152894 0.20707348 0.16737857 0.066501856 0.0785931 0.033926386 -0.056749683 0.048425466 0.074292295 0.23268074 0.13248083 -0.16366865
12 -0.30838165 0.27765444 0.28833818 0.6210944 -0.21805039 -0.019816525 -0.093240455 -0.42052767 0.21544676 -0.049081463 -0.15935913 -0.074681096 0.060751803 -0.057511996 -0.030825388 0.024368893 -0.15921344 -0.13517231 -0.23590223 0.23162591 0.065153204 -0.071862005 -0.09086619 -0.22303571 0.06805576 0.22491264 0.0010878128 -0.12166522 0.24065994 0.2285951 -0.109259516 0.026403034 0.032240376 0.34160107 0.16586076 0.05215486 -0.2840969 -0.20968209 -0.052670475 -0.27177292 0.14277655 -0.10721148 0.11495465 0.04760319 -0.13271248 -0.07980844 0.09074407 -0.04198294 -0.19707105 -0.016467817 0.342706 0.03635753 0.09326629 -0.06431743 0.079468206 -0.033207748 -0.15040295 0.11672718 -0.23791471 0.18307352 0.2969686 0.03487056 0.22074014 0.10296245
207 0.116469875 0.254104 -0.23225297 0.11569249 -0.40548506 -0.12030468 -0.24924777 0.019498123 -0.18879482 -0.07340249 -0.22129446 0.14663962 -0.10909017 -0.24779376 0.059170507 -0.2440072 0.09097621 -0.060106233 -0.014072366 0.26501897 -0.14296313 -0.058231648 -0.0071677235 -0.089691736 0.109872974 0.17546965 0.028274328 -0.25444734 0.12962133 0.19044673 -0.032027397 -0.15552364 0.031528883 0.08964049 -0.097430676 -0.0699052 0.012501048 0.008422049 -0.15877444 -0.12536111 0.1884864 -0.0017511876 -0.039396904 0.11001534 0.0052687284 0.019085417 0.099175915 0.18816778 -0.013516703 0.006952858 0.0878268 0.0009294958 0.017916458 0.2855227 0.10609699 0.02123667 0.11785774 -0.043906245 0.013452444 0.16202779 0.06955506 0.26343024 0.011400861 -0.14000568
222 0.22193953 0.22497302 0.27540532 0.139473 -0.26344723 0.073045895 -0.2689243 0.20091765 -0.022131415 -0.053236287 -0.05410108 0.21346599 0.22411211 -0.2984791 -0.006037858 0.015752751 0.046437383 -0.045413002 -0.12890886 0.05656716 0.034091454 -0.047623318 0.021489998 -0.1333017 0.1812288 0.18347257 -0.13189816 -0.12794673 0.32023722 0.04388791 0.11635868 -0.06785279 0.089606434 0.08929856 0.35670045 0.024036562 -0.0025957832 -0.3006783 -0.20078342 -0.08583123 0.24869078 -0.08044581 -0.08202776 0.045661554 -0.115011394 0.100334555 0.041462157 -0.018030673 -0.0739498 -0.21676408 0.09212374 0.017997723 0.258194 0.28378367 -0.003287396 0.1192601 -0.018203562 0.18273832 0.0071838894 0.17749734 0.2964246 0.02931393 0.10640707 0.13043922
151 -0.03880274 0.45482785 -0.26782146 0.107427165 -0.37528524 -0.0119571285 0.079132326 -0.24107368 -0.20062725 -0.14619096 -0.3430488 0.08286654 -0.13685684 -0.22606829 0.022105949 -0.14878355 -0.031737264 -0.0136947045 0.17423703 0.24494655 -0.17803882 -0.11059947 -0.16066895 -0.079137124 -0.004264926 0.08314635 0.23414493 -0.21012053 0.15505348 0.2262712 0.16208874 -0.14008987 0.06268893 0.25166765 -0.028032344 -0.08710402 -0.15357976 -0.026087645 -0.13021536 -0.22275627 0.17157343 -0.022716643 0.012821102 0.016026564 0.0022895557 -0.046474345 -0.0019856705 0.16810411 -0.08054188 0.17642142 0.046053577 0.028174361 -0.016897753 0.10323359 0.010491221 0.0049360474 0.12039452 -0.037541475 0.09524456 0.2150886 0.05624391 0.2561322 0.013477735 -0.09141556
71 0.45234782 0.19138509 0.36233988 0.21003728 -0.33534878 -0.10387532 -0.23808666 0.313907 -0.06286805 -0.00020788303 -0.23954605 0.11061537 0.23864463 -0.39972672 0.22886848 0.032568093 0.0630516 0.06704325 -0.14516923 0.04689088 0.042885855 -0.11598252 0.087705016 -0.17505126 0.11569627 0.11748498 0.052042622 -0.23840058 0.07010807 -0.038161166 0.029724982 -0.20025001 0.051327 0.10095155 0.18391208 0.013233002 -0.031260975 -0.16902605 -0.30303678 -0.12327375 0.2645284 -0.23122522 -0.019673092 0.043339886 -0.0416702 0.040025786 0.19922948 0.15677018 0.062105324 -0.23475707 -0.13334408 0.021009991 0.03537161 0.19131425 0.09479914 -0.03725454 0.24741477 0.07724952 0.048477486 0.11066137 0.29102775 0.1486738 0.12695931 -0.13672018
155 0.20765287 0.18697828 -0.0141477045 0.16228704 -0.40416846 -0.14426681 -0.30180454 0.2515257 -0.08678772 -0.067580536 -0.22995614 0.096186824 0.121726185 -0.27035654 0.036378026 -0.21406782 0.10164909 -0.03967521 0.0654379 0.19146168 0.01821026 0.10569132 -0.038794678 -0.12357691 0.023631252 0.085730664 0.10414176 -0.16216893 0.16745996 0.19663677 -0.07751891 -0.14738503 0.11616359 0.20476985 0.1335232 0.0064119035 0.036822215 -0.016088258 -0.3148462 -0.16851468 0.09730131 -0.03639622 -0.009779408 0.15441026 0.07759227 -0.045203418 0.006055049 0.007982232 0.06780076 -0.06233421 -0.033432834 0.046565883 -0.11593054 0.32236084 0.17289957 0.13160472 0.09920346 0.115029454 -0.011672914 0.12686683 0.109249376 0.21225436 0.057315093 -0.22217603
2 -0.2496641 0.30353773 0.20845428 0.5560984 -0.115193985 -0.064738125 -0.120105065 -0.43380845 0.17229725 -0.0007953954 -0.14658198 -0.026528941 0.058115654 -0.050815765 -0.10690795 0.15682675 -0.24795659 -0.02369204 -0.28133425 0.21634625 0.10255762 -0.07468784 -0.10234923 -0.18816857 0.25160694 0.29202732 0.029345611 -0.29545397 0.20084597 0.23711102 -0.078240566 0.021426637 0.10304263 0.24584478 0.1747706 -0.073049046 -0.12717631 -0.29752198 0.063925974 -0.18868288 0.15910171 -0.045451485 0.09745843 -0.045284115 -0.12266936 -0.12372013 0.02492731 0.17057037 -0.09427995 -0.0014803096 0.30978212 0.16095553 0.12710051 0.12089506 0.0975478 -0.040982887 -0.20673774 0.038063765 -0.21591546 0.09302271 0.2716326 0.0056919386 0.26801592 -0.002121321
168 -0.049996883 0.3690545 -0.3319489 0.18552971 -0.42641664 -0.010983417 0.03431929 -0.2697323 -0.21930557 -0.10548543 -0.36973786 0.12249322 -0.3530991 -0.16650146 0.01765649 -0.045492128 0.1711356 -0.07904219 0.089749254 0.11933787 -0.030776527 -0.23224829 -0.11563562 -0.122938745 -0.0014733096 0.14033419 0.19518068 -0.15665206 0.19527376 0.27934682 0.11720186 -0.18141852 -0.010851883 -0.023025164 0.03913373 -0.038274758 -0.11389112 -0.031756446 -0.16296346 -0.26599643 -0.051884327 -0.13488777 0.080628864 -0.02980413 0.020725166 -0.122936726 -0.04240546 0.23988526 -0.1415712 0.11278968 0.1457623 -0.037633136 0.06294526 0.17148043 -0.0898797 0.08078563 0.2499806 0.08048201 0.03833521 0.043219544 0.14785741 0.20479964 0.11677179 -0.081880085
154 -0.05972344 0.33560854 -0.23157886 0.14659378 -0.34870312 -0.0043580276 -0.04951053 -0.30134407 -0.20771626 -0.27471864 -0.32110372 0.14299798 -0.22572063 -0.23143668 -0.04426465 -0.17760547 -0.14839756 -0.04723629 0.09977136 0.14713222 0.014956656 -0.15231445 -0.06962695 -0.025220037 0.11043923 0.26120004 0.25348032 -0.16497135 0.18253571 0.14955842 0.1254697 -0.11823235 0.04606361 0.20884123 -0.11300514 -0.022506189 -0.06401888 0.07515147 -0.33007497 -0.30041042 0.08104082 -0.016053336 0.07135009 0.011243931 0.06539652 -0.052187283 -0.011814606 0.18192233 -0.13882647 0.20795543 0.087150745 -0.0004013251 0.01692253 0.11986684 0.082400806 -0.055716917 0.1829159 -0.00922013 0.12987629 0.07108224 0.022084348 0.1868088 0.12419577 -0.13437104
195 0.18981607 0.21724275 -0.008529967 0.10908656 -0.31700793 -0.18326233 -0.24044113 0.18995303 -0.17343882 -0.112405896 -0.26848948 0.063095644 0.052311737 -0.33168828 -0.010994672 -0.2768398 0.10798219 -0.1270502 0.12913899 0.3253187 0.027197747 0.014486718 0.028856337 -0.096277125 0.05816769 0.13375455 0.020049945 -0.23205453 0.027865903 0.1473853 -0.04810889 -0.17511109 0.011534766 0.1189568 0.053517647 -0.11750585 0.020537915 -0.13384259 -0.29028693 -0.12177536 -0.041849814 -0.08245909 0.09896339 0.057527468 -0.014673016 -0.0024704626 0.059798088 0.09239023 0.0276905 -0.21945323 0.03639293 0.017883219 -0.035246372 0.3871386 0.15626734 0.018992553 0.034111902 0.12905595 -0.07456393 0.0629535 0.07736772 0.1797674 0.11646035 -0.2116094
170 0.04055113 0.26633844 -0.25634342 0.123512365 -0.39558783 -0.10047821 -0.2410957 0.13089064 -0.19927645 -0.06121984 -0.25077683 0.10450456 -0.0018893119 -0.20006448 0.037630577 -0.29580218 0.055708304 -0.0986111 0.04262941 0.22861986 -0.08753189 -0.07028101 -0.056916732 -0.018178234 -0.058963858 0.073428795 0.16076249 -0.108945765 0.15813915 0.21395294 0.043893274 -0.2006699 0.1743732 0.16056187 -0.04666262 0.05734807 -0.09320414 -0.02292333 -0.20071569 -0.19539133 0.08845238 0.005010548 0.011876443 0.14691065 -0.10001675 -0.15214455 -0.052982483 0.17883204 -0.0073302668 -0.09066542 0.05571872 -0.006160301 -0.10469634 0.21169892 0.13132948 0.00087499095 0.07055222 0.12819196 0.03737574 0.18266566 0.19568574 0.27737156 0.05865672 -0.007171415
178 0.06703805 0.2973435 -0.28044108 0.15699862 -0.3710966 -0.08884468 -0.14233321 -0.06630524 -0.16534306 -0.12962747 -0.15571016 0.23932442 -0.21756575 -0.29155022 -0.07860106 -0.17714036 0.052256983 0.007491189 0.1475517 0.30149928 -0.07628094 -0.13235891 -0.018392099 -0.16188021 0.024288384 0.17564806 0.1983575 -0.14410165 -0.02912154 0.38170955 0.13530011 -0.17511553 0.09585865 0.1344286 0.1976843 -0.058541097 -0.112519175 0.059907753 -0.11703398 -0.21918471 0.033286624 0.05528245 0.01578374 0.061261773 0.040172905 -0.039276328 -0.017572455 0.14011803 -0.1396961 0.09082554 0.18740593 -0.0582697 -0.10041249 0.15514189 -0.006843079 -0.03828755 0.13255766 -0.073708415 0.10673101 0.06186287 0.12678778 0.19661939 0.06802481 -0.20817634
169 0.06906356 0.35914648 -0.258193 0.10322432 -0.41833723 -0.021804191 -0.13098356 -0.12187943 -0.27185565 -0.05155974 -0.18165554 0.102346815 -0.2073995 -0.20164157 -0.016620534 -0.21987373 0.04187112 0.05275953 0.020668328 0.20502564 -0.13651624 -0.19980973 -0.21455006 -0.14492099 0.12838213 0.08888287 0.28934467 -0.123055056 0.110338196 0.24675566 0.05265992 -0.11755557 0.066348955 0.14981349 0.07014098 -0.103646114 0.02104207 0.026196681 -0.18270633 -0.19449663 0.075278156 0.03338396 -0.08461681 -0.009556643 -0.001035722 -0.0724144 -0.00709269 0.1737952 -0.12989667 -0.013540129 0.18957467 -0.08194588 -0.093972065 0.118913986 0.050146785 -0.020164624 0.169904 -0.007125677 0.09707381 0.20156756 0.09679309 0.25950795 0.06145819 -0.095319346
172 0.018107392 0.35715657 -0.2630742 0.09555346 -0.34604105 -0.06861057 -0.20342404 -0.18220796 -0.1427542 -0.14122662 -0.301424 0.04767065 -0.3029321 -0.28362885 0.1094178 -0.24034624 0.032650996 -0.14360514 0.121200554 0.22389135 -0.091630094 0.02457453 -0.14092901 -0.11591413 -0.015586312 0.038762666 0.22823665 -0.14496621 0.17661585 0.16343933 0.12561606 -0.16105284 0.10006493 0.14499755 0.029172048 0.07527924 0.04476289 0.039030172 -0.26022068 -0.15896718 0.023316259 -0.0120067615 -0.06859532 -0.028991662 0.057439137 -0.08900644 -0.01384069 0.1499341 -0.20791434 0.0045209886 0.11898458 0.060837388 0.043673396 0.15539418 0.0067946115 -0.059723917 0.10062358 -0.029498577 0.008920982 0.16831367 0.14954534 0.26633152 0.097596884 -0.22304496
225 0.12277906 0.24898843 -0.20117985 0.093331724 -0.34905538 -0.106026895 -0.3333773 0.091006935 -0.20543356 -0.06643916 -0.2722038 0.075587764 -0.11445464 -0.21206556 0.09445449 -0.25576973 0.035904244 -0.04340966 0.033261653 0.25916627 -0.18354538 -0.00048911845 0.004120209 -0.044207945 0.1862697 0.051450033 0.09535498 -0.22423846 0.15865552 0.26830485 0.0262803 -0.18218769 0.09202277 0.097360216 0.03482491 -0.11952353 0.016538044 -0.07129887 -0.1945818 -0.085106574 0.09109792 -0.011180023 -0.08667567 0.034729045 -0.023491478 0.0069220252 -0.08811484 0.09521067 0.053464893 -0.034609966 -0.04724925 0.023824 -0.15201673 0.23438184 0.25885335 0.045885436 0.097297125 0.16760007 -0.1416056 0.09698013 0.16411862 0.19709593 0.030400354 -0.25375932
166 -0.06668144 0.37087741 -0.20197509 0.08293499 -0.32204965 -0.108665936 -0.15621279 -0.112480715 -0.27882412 -0.13913155 -0.2546326 0.11763489 -0.1936844 -0.28388745 0.008787319 -0.19989479 0.057812683 -0.13699158 0.17696603 0.19490689 -0.046853878 -0.054271653 -0.1276517 -0.18586323 -0.04051794 0.09770007 0.24480334 -0.17548047 0.13966894 0.24976294 0.15599984 -0.14875105 0.09214917 0.07926003 -0.020752903 -0.016779205 -0.08142116 0.06291652 -0.056163162 -0.21247178 0.054600596 -0.08000634 -0.083941475 -0.088578425 -0.017140297 0.009762537 -0.0036510685 0.20118108 -0.22420022 0.026861152 0.07739495 -0.073312 -0.056436498 0.16948062 0.05482788 -0.061645433 0.14377552 0.03681421 0.0021027296 0.15103573 0.112723455 0.2847872 0.11454307 -0.05796386
204 0.083450235 0.2487336 -0.20904444 0.08934287 -0.43646124 -0.09319332 -0.19318685 0.034655537 -0.16753195 -0.08591638 -0.2336757 0.119094744 -0.13186468 -0.20763078 0.072751276 -0.27701178 0.052600674 -0.023810541 0.038235914 0.26437658 -0.040750157 -0.074553765 0.04846306 0.06126625 0.094120264 0.10123127 0.2739857 -0.22769582 0.15084328 0.29197168 -0.052317724 -0.12997036 -0.03249252 0.15425538 -0.024864474 0.062177844 0.012112335 -0.0007363347 -0.19489738 -0.24413535 0.18833768 -0.007850275 -0.042111795 0.035482123 -0.0016691451 -0.037118122 -0.067606084 0.21418202 -0.10613157 -0.07814098 0.029640637 -0.09364782 -0.056606367 0.1553011 0.16833094 0.09428219 0.083868206 0.09375067 -0.06789189 0.102883205 0.013444764 0.24739148 0.078272924 -0.19821885
194 0.013898317 0.36724982 -0.26197106 0.1736833 -0.48734948 0.004861942 0.11671436 -0.27423614 -0.2300981 -0.23158163 -0.25221384 0.08138782 -0.19475208 -0.14101975 0.05099412 -0.14733051 -0.06687651 -0.062363192 0.077150606 0.24513887 -0.05941417 0.03983809 -0.09007617 -0.1917507 0.0581204 0.18017176 0.24961285 -0.08221955 0.18129691 0.29823384 0.09611261 -0.30543822 0.0936544 0.11861647 -0.07698735 -0.050494496 -0.07751902 0.09930921 -0.08566022 -0.20157784 0.02727047 -0.034006897 0.17348368 0.012547233 0.045792807 -0.14569937 -0.073140204 0.18458767 -0.18595962 0.06521896 0.17479312 -0.025697237 0.08624032 0.1343207 -0.087050185 0.013419783 0.12397567 0.04137845 0.008422552 0.16651356 0.16935273 0.32042786 0.021273654 -0.075597316
55 0.39416173 0.2541282 0.51712304 0.12669691 -0.2508032 -0.047152307 -0.2550266 0.3680868 -0.044757564 0.085686035 -0.3416655 0.036337536 0.21641196 -0.3824933 0.27519915 -0.1222286 -0.031735215 -0.08012456 0.053942397 0.1423941 0.017115377 -0.04307992 0.14896803 -0.16408005 0.16777344 0.30321616 0.06142544 -0.2090073 0.22268994 0.06686271 0.08642794 -0.18113472 0.08068137 0.18620738 0.25502422 0.003253355 -0.044589244 -0.10310617 -0.18579322 -0.058282387 0.11148682 -0.20233761 0.05246976 -0.066647984 -0.06906427 -0.03434361 0.037284687 0.1924237 0.049220894 -0.17752892 -0.1527406 0.051315162 0.06571025 0.2901624 0.10642867 0.045508854 0.20908985 0.09457815 0.016226275 0.051608954 0.12084225 -0.014132755 -0.068184145 -0.044341236
227 0.25650433 0.19207877 0.3107388 0.18442619 -0.28996253 0.16703956 -0.32032818 0.15990235 0.07692977 0.020993786 -0.082426995 0.17676687 0.2864221 -0.3074424 0.020069093 0.19679315 -0.015004295 0.0748444 -0.017436618 0.063788496 -0.06871004 -0.086802155 0.14273587 -0.10353889 0.1985031 0.28028342 -0.061541237 -0.07944142 0.31925678 0.072479844 -0.05001459 0.019020243 0.0027075906 0.19662581 0.41730663 -0.05291062 -0.12853435 -0.048805397 -0.054854374 -0.18929778 0.34828097 -0.084414504 -0.041954152 -0.03711962 -0.10189388 -0.0065254536 0.09650849 0.09010584 -0.004927679 -0.18695654 0.024855854 0.12458171 0.09955437 0.14856838 -0.0215047 -0.009334136 0.08744338 0.16882265 -0.051124945 0.11507436 0.22318493 0.09890144 0.2620445 0.088386536
189 -0.112639815 0.43295434 -0.2430935 0.07928612 -0.35497513 -0.013554513 0.00056441996 -0.32673275 -0.20511101 -0.16906567 -0.2537889 0.04310021 -0.33073828 -0.10538172 -0.053777594 -0.106441386 0.0112914285 -0.12004313 -0.050473787 0.23479275 -0.028604444 -0.21623722 -0.09011091 -0.17919768 0.09140931 0.07044701 0.15379214 -0.103291236 0.22007343 0.24993856 0.11975518 -0.15830725 0.10365883 0.16337296 -0.055714317 -0.05393578 0.010359688 0.10825811 -0.09378525 -0.34505916 0.099896766 -0.117377155 0.026392436 -0.10009155 0.10206807 -0.11873881 -0.074685745 0.21339153 -0.05900376 0.09455527 0.14877826 0.016133009 0.059130583 0.12337256 -0.058547363 -0.14738943 0.31151253 0.060784258 0.09146025 0.088779844 0.16915938 0.3661387 0.00062811765 -0.14491458
200 0.019034432 0.32388005 -0.21850392 0.08752735 -0.33118957 -0.11594912 -0.19129835 -0.020650879 -0.16522819 -0.061098624 -0.15763746 0.16748036 -0.08933484 -0.34121063 0.13062185 -0.25002155 0.059065927 -0.042803034 0.103169896 0.23856056 -0.116156034 -0.11538231 -0.049664512 0.052737687 -0.029984431 0.08005596 0.24256343 -0.21509963 0.005462653 0.3147326 -0.024228102 -0.13433754 0.15095706 0.20259388 -0.006496051 -0.004863224 -0.009659139 0.040161137 -0.112446524 -0.20160745 0.16018485 0.06054865 -0.041395705 0.077925704 0.1388367 0.011368776 -0.060520813 0.1316384 -0.15403378 -0.03854967 0.03365844 -0.028443381 -0.098941706 0.22856009 0.09552666 0.14428797 0.14733274 0.05518136 -0.07106706 0.11359984 0.19750187 0.25196722 0.13924551 -0.09146021
152 -0.044853657 0.3727963 -0.17811221 0.113535605 -0.41821152 0.07368467 0.05478145 -0.29823726 -0.21259129 -0.15470892 -0.3774965 0.10608412 -0.27377298 -0.20819645 0.017121173 -0.080287494 -0.028850472 -0.0577255 0.08317467 0.27856553 -0.096807644 -0.04696865 -0.071260974 -0.043296065 0.07032437 0.09931284 0.25323763 -0.18193498 0.13470751 0.20754766 0.14339577 -0.09984409 0.1591796 0.0861224 -0.09478114 -0.12235464 -0.08671406 0.055876445 -0.053977232 -0.27847064 0.05809295 -0.04139651 0.011195682 -0.032797467 0.2084642 -0.06760682 -0.032846685 0.21749453 -0.09473707 0.13001636 0.19734022 0.09174056 -0.067749515 0.12505713 -0.0105104325 -0.04432975 0.24409448 0.004045191 0.027621258 0.2692416 0.16354752 0.22059786 0.103465974 -0.06389099
224 0.25488415 0.23262596 0.3776946 0.22339241 -0.20845953 0.12686661 -0.26000804 0.16265543 0.18437412 0.00012336357 -0.15810072 0.11840869 0.062605865 -0.33101106 -0.013172067 0.09670449 -0.05367638 -0.06424814 0.006699559 0.10904678 -0.0570712 -0.07631841 0.21255678 -0.111868136 0.10142776 0.22748779 -0.026658522 -0.15502097 0.15082046 0.17830567 -0.009511142 -0.015773121 0.11257559 0.017650556 0.36888373 0.05051903 -0.12226474 -0.24768654 -0.16064797 -0.07221675 0.33623284 -0.11875106 -0.012043293 -0.10009618 -0.08869026 0.17009537 0.16030234 -0.0013949262 -0.00084587414 -0.12364808 0.01777257 0.08289423 0.25434643 0.22481848 0.13862304 -0.06134686 0.023430228 0.15320411 0.022300916 0.13423198 0.27824783 0.042495444 0.2691821 0.13711534
206 0.16743357 0.1744643 -0.01611281 0.14212134 -0.35812455 -0.15858024 -0.308482 0.26946098 -0.06591989 -0.011996355 -0.28028584 0.11697451 0.04374322 -0.36274746 0.12217638 -0.18761165 0.12771872 -0.1535964 0.030957282 0.087021194 -0.018777188 -0.087301284 0.056740906 -0.09583487 0.1460517 0.15928087 0.16342546 -0.29077023 0.07292063 0.27957383 -0.01163804 -0.18209276 0.09678054 0.1272323 0.07113964 -0.13051221 0.05615092 -0.111513406 -0.25019234 -0.049953263 0.026245037 -0.078278184 -0.11476865 0.2227338 0.11897409 0.10047984 0.07240203 0.0883289 0.108232625 -0.1099831 0.025903607 -0.0067224945 -0.19511403 0.15797503 0.13837592 0.030551245 0.12888835 0.07466406 -0.04183143 0.1675408 0.11500491 0.2336937 -0.003441432 -0.12880668
23 -0.42132694 0.61844236 0.16745898 0.6944675 -0.019195966 -0.17255749 0.083815575 -0.27710193 -0.03351784 0.004389745 -0.16841829 -0.05239805 -0.11903113 -0.12266581 -0.020909028 0.12985747 -0.2969014 -0.06731288 -0.26990312 0.25825474 0.13264525 -0.13822562 -0.15179673 -0.15661117 0.20343494 0.19602908 0.092057414 -0.18389784 0.36973855 0.2797065 -0.053502973 0.07402102 0.009611684 0.23084927 0.20042467 -0.06953426 -0.21662152 -0.15578446 -0.024735698 -0.20950896 0.12703817 -0.17388436 0.04677938 0.15269163 -0.060088743 -0.098920226 -0.001937661 0.02112995 -0.16412207 -0.01472262 0.36597157 -0.029763142 -0.029076355 -0.07574683 0.059454 0.111153685 -0.22267109 -0.038539913 -0.22022013 0.17094623 0.2784131 0.07618824 0.31755903 -0.1252461
4 -0.26428494 0.15973309 0.27635652 0.6150737 -0.22661358 -0.021485271 -0.1024604 -0.3682907 0.17265107 -0.010051429 -0.17289545 0.028169494 0.07499185 -0.18487497 -0.18026754 0.026813297 -0.27412918 -0.07083339 -0.32938874 0.13671884 0.09076731 -0.09722961 -0.11200652 -0.3860837 0.29001796 0.2920304 -0.0108014 -0.34339803 0.23644358 0.25019354 -0.16963568 0.1313864 0.1254327 0.22732575 0.199262 0.0729537 -0.20340484 -0.31279036 0.07772968 -0.15863208 0.060726717 -0.015241247 0.13574141 -0.032417256 -0.17625558 -0.076584525 0.018828431 -0.022431014 -0.09686883 0.05813933 0.2119963 0.04215172 0.11221102 -0.06611516 0.033496838 0.08943663 -0.0798089 0.028903252 -0.12064693 0.042137563 0.31026155 0.06496303 0.29859343 0.07349774
182 -0.08495985 0.45995757 -0.2675686 0.12471684 -0.42847383 0.0095027415 0.056287743 -0.25979045 -0.18723464 -0.15826252 -0.3137491 0.10379384 -0.32566226 -0.10019817 0.06150229 -0.07224116 -0.047557794 -0.088077284 0.08353957 0.17225145 -0.10260618 -0.054372013 -0.096432775 -0.18839642 0.09428322 0.09820629 0.18137302 -0.19993475 0.12201439 0.2685566 0.14962383 -0.103458665 0.20083724 0.24423108 -0.024516216 -0.00966953 0.034295034 0.10337985 0.058968574 -0.19826311 0.13271676 -0.0035251512 0.07383863 -0.048632473 0.054019272 -0.09455029 0.009668461 0.2028957 -0.056474477 0.18547525 0.15268879 -0.025795572 -0.02211123 0.24077441 -0.031075832 0.07869337 0.3143606 -0.0003861372 0.045068134 0.100560576 0.10623434 0.33491522 0.12172047 0.050302215
73 0.41718385 0.18307716 0.4562979 0.23050955 -0.28895935 -0.18595612 -0.23121352 0.37005296 -0.058708064 -0.08047284 -0.15616928 0.13495845 0.16623166 -0.48822585 0.21568072 -0.028125077 0.096479885 -0.06414916 -0.006549645 0.04726314 0.082963005 -0.06621902 0.16812962 -0.1517774 0.05627554 0.20656663 -0.12263042 -0.1477827 0.15666322 0.1594116 0.17471638 -0.15673001 0.07497207 0.13338466 0.077219665 -0.05322865 -0.053926915 -0.15163825 -0.17159694 -0.0027752493 0.14917703 -0.3139092 0.073277764 -0.01606308 0.07673021 0.013067223 -0.025786322 0.14300652 0.002462545 -0.26101705 -0.031107863 -0.019475952 0.12144419 0.23916689 0.11014881 -0.073178425 0.31026217 0.19451801 -0.02819389 0.11642711 0.24938959 0.06831818 0.09491818 -0.1831549
50 -0.4210052 0.570189 0.14271446 0.69192165 -0.06279515 -0.14657937 -0.036094025 -0.21318874 0.082765825 -0.033716444 -0.21434548 -0.18200843 -0.0933413 -0.029142562 -0.03707817 0.10199606 -0.21782573 -0.123728916 -0.18879786 0.23756659 0.121251635 -0.24247721 -0.08634751 -0.2858479 0.16260271 0.2786115 0.027984606 -0.18074828 0.431627 0.37497112 -0.13059506 0.110840864 0.18755504 0.17694774 0.08309473 -0.17388345 -0.1491592 -0.20249096 0.029013133 -0.21468788 0.06360706 -0.14463069 0.016077414 0.08153223 -0.060488205 -0.2895662 -0.061056163 -0.00083024486 -0.094687745 -0.001579141 0.270684 -0.09048401 0.017716078 -0.1139673 0.09955964 0.011073507 -0.10061031 0.06503742 -0.18051122 0.14886123 0.28736198 -0.0137232905 0.29284427 -0.18560329
163 0.16420864 0.20205468 0.025449894 0.18609518 -0.37494907 -0.18742165 -0.28839245 0.3015618 -0.08466958 -0.21119146 -0.1682447 0.1264939 0.09762962 -0.32252374 0.0733126 -0.19036223 0.17166749 -0.0074535143 -0.021527082 0.18686508 0.043252483 -0.0132838525 0.047072574 -0.064856045 0.14188083 0.10099462 0.039467175 -0.22324087 -0.0041274256 0.23850904 0.073080786 -0.21830049 0.08730359 0.14766374 -0.02219573 -0.07527422 0.035143398 -0.15285829 -0.2525852 -0.10806742 0.050088037 -0.19971514 -0.096962675 0.06545843 0.08900504 0.029098777 0.002531246 0.045710884 0.12964615 -0.18826607 -0.054929975 0.06273253 -0.09765366 0.27423584 0.14805879 0.116616726 0.100855045 0.13894865 -0.12544674 0.15720674 0.1636367 0.25310832 0.010344496 -0.18101098
220 0.2310974 0.19232346 0.36844963 0.2803898 -0.22440858 0.26524714 -0.27650678 0.06255039 0.11004758 -0.07724485 -0.13084128 0.15076587 0.1126442 -0.3406763 0.1233734 -0.01650882 -0.0996675 -0.023686022 -0.044215072 0.10319296 0.060267884 -0.08691166 0.1981158 -0.16985732 0.2757081 0.19037616 -0.09772735 -0.108144574 0.27909365 0.059684254 0.13029331 -0.036994226 0.012734506 0.12351436 0.37932816 0.08931493 0.004837604 -0.36341384 -0.13244987 -0.044059236 0.3107405 -0.017590882 -0.01879905 -0.029233951 -0.06005203 0.070335045 0.2161217 0.11561132 -0.033681814 -0.1548417 -0.06848933 0.10241912 0.20026927 0.22294982 0.16726474 -0.039525047 -0.085265145 0.15983081 -0.066391625 0.11468838 0.16032909 -0.023824409 0.20332208 0.10799564
175 0.24015284 0.17611314 0.11211977 0.13085735 -0.40774655 -0.22696291 -0.23679416 0.3791287 -0.032998327 0.0007433724 -0.34470147 0.23282167 0.18324986 -0.3023539 0.08335727 -0.21896161 0.055826653 -0.11389195 0.09010276 0.18391643 0.00049510744 0.08737989 -0.026648305 -0.08224897 0.10561879 0.22564027 0.12812051 -0.14467607 0.01393188 0.12611866 0.12243646 -0.14855334 -0.013525127 0.16398594 0.04562592 -0.1221379 0.091694385 -0.046659257 -0.2684138 -0.14091453 0.09860565 -0.08825332 -0.03078775 -0.08279903 0.10226143 -0.11275739 0.0029012582 0.11021228 0.055711996 -0.08368886 0.18119533 0.04674369 -0.24658942 0.1888358 0.24195224 0.21251102 0.012876737 0.14538465 -0.07389763 0.11575931 0.09510173 0.27269322 0.047379337 -0.17117988
167 0.5500885 0.24689521 0.5405514 0.18248945 -0.3029888 -0.0996215 -0.14652883 0.34667984 -0.047014266 -0.09607589 -0.3045052 0.08953595 0.16967572 -0.4346581 0.24317206 -0.051384717 0.15920526 -0.01866128 -0.008405609 0.13246746 0.06827787 -0.15123309 0.057369817 -0.092975006 0.10708516 0.22226368 -0.07454888 -0.20623747 0.2981583 0.14736365 0.21882297 -0.24681982 0.17074963 0.09060336 0.14832635 0.0928982 -0.10487662 -0.2532654 -0.16501898 0.023092885 0.26607767 -0.10339179 0.0024764969 -0.09616672 0.025714884 0.1459401 0.059729207 0.21530224 0.11707438 -0.2785661 -0.026170678 -0.03191017 0.04468169 0.21919294 0.06321677 -0.07824641 0.2093985 0.080604084 -0.10405541 -0.05204865 0.23054653 -0.15776591 0.12468804 -0.14940523
158 0.29204598 0.09328891 0.16330805 0.20341969 -0.40903977 -0.27850956 -0.22769353 0.3108508 -0.046004403 -0.08174712 -0.1965431 0.12492144 0.07448096 -0.35485953 0.11557814 -0.24493276 0.16312636 0.09225458 -0.07943131 0.17759317 -0.010705671 -0.03183048 0.070070036 -0.10040968 0.09562853 0.18289964 -0.035335444 -0.30198705 0.19047387 0.11713203 0.023946047 -0.06279412 0.081013024 0.12284214 0.19230665 0.06655471 -0.0014597999 0.026053434 -0.31909055 -0.07479646 0.10968956 -0.18855247 0.038895976 0.06214153 0.027893387 0.10212921 0.012408015 0.034935873 0.21331908 -0.17150597 0.047070403 -0.05424864 -0.0801523 0.24799891 0.16679028 0.1291746 0.06720595 0.16173546 -0.018073527 0.040458843 0.17564757 0.3278796 -0.08169001 -0.23557897
28 -0.4282282 0.61536354 0.14541005 0.747151 -0.037191033 -0.10887479 -0.007449279 -0.1838554 0.11673005 0.014530584 -0.10113813 -0.1501411 -0.123097405 -0.0035040448 -0.123273715 0.10543365 -0.24079292 -0.13194343 -0.23106538 0.29284757 0.008698149 -0.23631097 -0.13708526 -0.26426616 0.21276385 0.16127095 0.056727715 -0.30119902 0.3456457 0.24631512 -0.17488684 0.040475674 -0.008450116 0.28692943 0.16233438 -0.05945164 -0.23841237 -0.21487351 0.04997192 -0.20446004 0.15549038 -0.18183932 -0.00038294392 0.088977106 -0.12474803 -0.09769557 0.060409527 0.061782148 -0.12064015 0.06168682 0.33781958 -0.11255158 0.017416185 0.024434831 0.037338503 -0.025581233 -0.07542761 -0.10742579 -0.17085059 0.11808038 0.28851455 0.092602886 0.26616862 -0.18585221
98 -0.49523252 0.6498326 -0.0029424606 0.12266149 -0.12589821 -0.0024886925 -0.15125915 -0.27486068 -0.12137393 -0.20793715 -0.45234898 -0.17061728 -0.26386458 -0.053030632 -0.00487364 0.00066660834 -0.16302869 0.09422127 -0.09102059 0.16370982 0.30936357 -0.1251096 -0.08177781 -0.26528937 0.0113221435 0.07076174 0.10450469 -0.087865 0.2614322 0.24176858 0.017670177 0.009312362 -0.0783663 0.20511837 -0.07259949 -0.27220717 -0.14694875 -0.21728198 -0.035793662 -0.03086906 0.25688335 0.07732429 0.20231992 -0.014116386 -0.012436502 -0.027355209 -0.15598717 0.12385394 0.023063306 0.15116653 0.16450973 -0.02063575 -0.026739538 0.08818694 -0.12619478 -0.07217496 0.20372814 0.07826076 -0.03222911 0.10452366 0.25178698 0.40653977 0.03148661 -0.12972969
201 -0.07361483 0.4151777 -0.16347782 0.085138656 -0.4230253 0.10700368 0.06276502 -0.39572954 -0.17690402 -0.2488758 -0.3508075 0.15123555 -0.31485203 -0.22393867 -0.029733177 -0.16030519 0.028139649 -0.0348226 0.033007115 0.14237934 -0.030625215 -0.08612734 -0.11908805 -0.12395222 0.1472276 0.06703373 0.24817148 -0.069154 0.22928597 0.27770674 0.10517535 -0.15485954 0.023290023 0.18974856 -0.022920005 -0.08271617 -0.15051457 0.07072614 -0.00858446 -0.16634525 0.04965391 -0.13727584 0.004976193 0.0018990965 0.06999205 -0.2041977 -0.09676612 0.16135837 -0.1421 0.18559985 0.14560638 -0.014203693 -0.08754174 0.17341475 -0.08258841 -0.10378424 0.25801837 -0.065492675 0.0069039147 0.11009789 0.06052636 0.4061956 0.15449756 0.016218843
185 0.71709794 0.25661573 0.5571484 0.20048834 -0.2503421 0.007487183 -0.29639104 0.21096842 -0.03468199 -0.09425845 -0.21818884 -0.0009228275 0.3055902 -0.3008458 0.1913482 -0.13440129 -0.013352056 0.008664509 -0.15390313 0.011241885 0.0645655 -0.09298017 0.035879314 -0.19614683 0.13605382 0.29196823 -0.018232515 -0.098192334 0.20568234 0.04994492 0.18283542 -0.20387807 -0.014088627 0.25761512 0.081757456 0.058523245 -0.05411635 -0.13003632 -0.20680614 -0.035217103 0.26269752 -0.12755111 -0.03201393 -0.023018176 -0.052325543 0.076401345 0.15623043 0.15676613 0.055436675 -0.3062681 -0.024616204 0.0016479142 0.095220886 0.27253026 0.13886069 0.0014029302 0.38049123 0.020693695 0.011919879 0.08922296 0.32678878 0.0544478 0.12238922 -0.13326615
214 0.2920631 0.12202438 0.3663425 0.26198733 -0.3086122 0.13988198 -0.30694067 0.12139464 0.16832139 -0.018927796 -0.0691357 0.19576374 0.100832805 -0.24267861 -0.0773209 0.044968344 -0.0006054029 0.002754025 -0.12217716 0.050927117 0.054865513 -0.030799545 0.09101964 -0.17566042 0.12946507 0.21394068 -0.09356081 -0.038492333 0.36608306 0.08841122 0.015747266 -0.119826876 0.052663684 0.17475323 0.31465507 0.02196593 -0.05861142 -0.33468646 -0.022544418 -0.08548718 0.40186742 -0.026965724 -0.02429143 -0.09430605 -0.020408742 0.09471235 0.16251604 0.124004625 0.061932646 -0.23880847 -0.0123356385 0.06245889 0.100631535 0.15093997 0.058106158 -0.021221036 -0.063889876 0.11889947 0.017834002 0.21114236 0.25238913 0.081719615 0.30329072 0.101470955
