207 64
203 1.8417606 -1.1515402 -0.16856778 -0.32560354 -0.98962337 0.7899322 0.85932326 0.4524922 -1.420494 -1.6487591 1.0420995 0.5109149 0.59099644 1.3214854 -1.0783828 -0.38519004 -0.090977326 -1.5539684 0.8220208 -0.6336695 0.8205489 -0.8809078 0.9954256 0.1128586 -1.2586378 1.3732231 0.50424916 0.7601987 -1.0293931 1.3824543 0.9066376 -2.0748549 0.39634496 -1.5209529 0.69099975 1.4070435 0.33747685 -0.569675 -1.3976783 -0.72559506 0.09841551 1.5621113 -0.04678242 -0.5682246 1.178507 1.3430933 -1.3057998 0.4201323 -0.16064654 0.6532841 -0.55803835 0.3955079 -0.21566835 0.9959892 -1.4955608 -0.21417427 0.28864044 -0.7140423 1.3199862 0.6449659 -0.6078981 -0.91643715 0.63557947 2.2345076
181 1.3714813 -1.872212 1.9033715 -1.0591111 -0.65487885 0.7828801 1.1618615 0.41690704 -0.6131752 0.13724385 -0.13003686 -1.2090547 -0.45579928 -1.2718205 -0.038817417 -0.57825786 -0.4603991 -1.3477302 -0.33478567 -2.844581 0.42141804 1.1328443 -0.58967566 -0.6472094 -0.6639392 0.87973696 0.22554222 -0.18998416 1.3859726 0.24756108 0.85975856 0.49904364 -0.6791004 1.0455153 -0.6670309 -0.52091837 -0.8370355 -0.11913534 -0.44836515 -0.17907827 -0.09170458 0.36298466 0.66053003 0.045981713 -0.53169566 2.479574 -1.4470426 -0.79287666 -0.29583517 -0.13573803 1.0884975 -0.41054335 0.67446554 0.45242974 -0.93354005 -1.4849879 -1.2471888 -2.2133396 -1.611407 0.34606516 -0.7804812 0.20950125 -0.46124986 1.381276
126 2.2182808 -2.2504923 1.1115279 0.57241577 -1.7468996 2.243468 0.95300204 1.2285615 -0.53120595 -1.2377439 1.6843587 -0.95624894 -1.0392827 0.98730826 -0.32696256 2.3374858 1.2178082 -0.2527249 0.085108764 -1.6963053 1.5153447 -2.425814 0.5629712 0.19675282 -0.65529746 1.9450976 0.84515226 0.9311805 0.4151186 2.087487 0.8335989 -1.7669736 -0.06572764 -0.53165114 0.38968664 -0.0971636 0.6292247 -0.71119934 -1.7682825 -1.276399 1.6040541 0.18087779 -1.0438265 0.19926557 0.0715109 0.64743435 -1.1502299 0.22314942 -1.159967 1.3695803 -1.152493 -1.20232 0.107814424 2.0825398 -1.6305504 -1.1054668 -0.9826976 -2.8079324 1.2613045 1.794437 -0.82440764 -0.47509617 -1.6403999 2.5505052
182 1.2880621 -0.33110932 0.19764693 0.17309262 -1.7949964 0.6347992 1.4503667 0.9950296 -1.0734261 -0.550857 -1.0922792 -1.1259584 0.034392644 -0.19471057 -0.7672245 0.12494861 0.17035282 -1.0548924 -1.349296 -2.5702417 0.9347893 0.5855206 -0.18687978 0.31335056 -1.1949328 -0.11793461 -1.1799644 1.6612659 -0.15523516 0.87091964 0.8225085 0.298778 -0.46384937 -0.029161103 -1.4809046 0.11597651 -0.73479897 -0.54686254 0.040380336 -0.21965605 0.36450368 0.521343 -0.1568581 0.19782688 0.2272843 0.45402706 -0.18141831 -0.05199429 -1.5819733 -0.03402346 1.0354352 -0.56295925 1.1462268 1.1684377 -1.2919346 -2.6510665 -2.187135 -2.3330345 -0.7255757 1.4278681 -0.23472764 -1.4527097 -0.49981 1.0666746
146 0.40107626 -0.30879328 0.16486639 -0.40789777 -0.1684254 0.49540046 0.49576384 0.26933897 -0.4151349 0.05962914 -0.16379826 -0.21816921 -0.03653338 -0.19052343 -0.03038729 -0.3098014 -0.27868167 -0.39977902 -0.23809245 -0.8619849 0.4088287 0.41751596 -0.059412003 0.19882917 -0.23857836 0.14236401 0.051778786 0.243423 0.42024297 0.27776545 0.270021 0.03248021 -0.028758567 0.3551213 -0.18867972 -0.15666392 -0.19499233 -0.12684248 -0.1692081 0.21000041 0.04385158 0.2497837 -0.068524346 -0.2641637 -0.2708306 0.30526152 -0.44350865 -0.103776805 -0.16662389 0.019034347 0.52271146 -0.26675895 0.36560398 0.03758201 -0.27399904 -0.57782525 -0.64062846 -0.91667646 -0.26732713 0.4363538 -0.11232119 -0.1000858 -0.2245267 0.52225685
183 0.72063136 -0.46028718 -0.09538657 0.52785033 -0.16304965 0.5576578 0.14541768 -0.17866142 -0.33831945 0.19636412 0.27881962 0.07518134 -0.06524435 1.1474768 -0.17839947 -0.111427866 0.034788188 -0.1975734 0.025210457 -0.656825 0.093398534 -0.5036716 -0.19287655 0.089544974 -0.33958936 0.6617462 0.4084478 -0.53401303 -0.2955813 0.35152277 0.28093472 -0.20433426 -0.16482343 -0.3375896 -0.07127762 0.14437191 0.19659859 0.25759622 -0.4896729 -0.45746234 -0.537411 0.09419668 0.2568944 -0.11697504 0.556746 0.35698783 -0.12475426 -0.47001162 -0.62761444 0.3940078 -0.2261387 0.001946204 -0.041745562 0.1478022 -0.8576611 -0.26898968 -0.33358905 -0.34445274 0.1616919 0.11314979 0.45301437 -0.5632523 0.014400579 0.78832066
65 0.5545283 -0.6389734 -0.105430834 -0.000475912 -0.76567835 0.18024571 0.1446332 0.33870637 -0.563967 0.13745451 0.08486312 0.41234186 -0.14988346 0.41621453 -0.076257795 -0.007753063 0.030549254 0.120568976 -0.008373526 -0.42353055 0.00705342 -0.8823731 0.6855857 0.26998255 -0.11343621 0.47647002 -0.36264837 0.44168523 0.5631981 0.22560759 0.7448571 -0.40666685 -0.09150957 -0.27969882 0.4328745 0.45304817 -0.05913127 -0.33865538 -0.34078622 0.027752068 -0.79980737 0.12694173 -0.17539418 -0.0816247 0.34027708 0.37485147 -0.13948 -0.061376292 -0.24081865 -0.024390658 -0.031440638 -0.0007947226 -0.024661448 -0.30103937 -0.98943365 -0.118227236 -0.5852639 0.10711303 -0.35596588 0.17051174 -0.28246516 -0.5892034 0.14605916 0.27879542
60 0.36145365 -0.13916034 0.31121483 -0.3086397 -0.11491399 0.2651045 0.39001974 0.42466733 -0.13587886 0.13134322 -0.17156243 -0.15590228 -0.07947157 -0.16499658 0.05547044 -0.20282003 -0.2080196 -0.5271182 -0.3100924 -0.9962114 0.17382975 0.40430197 -0.1981327 -0.058536176 -0.2944793 0.143705 0.0830151 0.185587 0.1744672 0.4504672 0.28351933 0.14375263 -0.03436543 0.3481305 -0.2374074 -0.35146517 -0.07325354 -0.19958328 -0.025100406 0.16381842 0.06275017 0.5056355 -0.10758966 -0.20632832 0.10797052 0.5237805 -0.17377733 0.00079298374 -0.2928212 -0.3029994 0.37112525 -0.14882867 0.4945174 0.24600758 -0.26926798 -0.45784226 -0.48008624 -0.5914458 -0.26264313 0.58123165 -9.9555065e-05 -0.041909512 -0.23468329 0.3912893
147 -0.026725765 -0.30408886 -0.38659677 0.42393094 -0.4442044 0.677031 -0.12722051 0.26247498 -0.15486097 -0.1957279 -0.21052405 0.3580073 0.38749588 0.88570243 -0.13947484 -0.13895988 -0.24164802 -0.40864757 0.32827848 -0.48057467 -0.17021874 0.0021807188 -0.060124677 0.0044070897 -0.49233413 0.07347417 -0.2911463 0.16619009 -0.090353005 0.43328303 0.8666061 -0.5192642 -0.32865432 -0.2928526 0.1745575 0.22128463 -0.3586575 -0.26158902 -0.5663095 0.15055174 -0.14342779 0.3992301 -0.26220837 0.15329555 0.31598002 0.8264829 -0.26532134 -0.52525395 -0.28611133 0.56159943 -0.08735971 0.20494032 -0.0544986 0.5192513 -0.9140344 0.29540256 -0.41900477 -0.032304324 0.33009738 0.18974781 -0.14732733 0.15080233 -0.16446614 0.15119497
81 0.42724007 -0.092667654 0.27764058 -0.46402347 -0.18300302 0.21158618 0.38857514 0.37117547 -0.32352504 0.040481452 -0.22170985 -0.20718321 0.00826181 -0.1817119 -0.015306263 -0.17277855 -0.1592548 -0.48849612 -0.299435 -1.0209017 0.2471308 0.4574182 -0.07414165 -0.12663373 -0.28611705 0.16607024 0.07448614 0.27387288 0.23072472 0.38864702 0.25986263 0.0062642056 -0.16470516 0.340717 -0.27238047 -0.24886021 0.08540733 0.0019464843 0.08413979 0.11235548 0.18203844 0.27023712 -0.120998 -0.27867088 0.18687306 0.36682868 -0.18621351 -0.16524337 -0.3106706 -0.07803834 0.4135575 -0.28974196 0.32368514 0.21763775 -0.5225312 -0.5345399 -0.709945 -0.6487698 -0.36971474 0.41618237 0.07951293 -0.20074375 -0.23723012 0.1873215
82 0.37755385 -0.2748391 0.118792266 -0.032267515 -0.14234333 0.06541282 0.2530784 0.45690316 -0.2772808 0.16846572 -0.19133033 -0.2617773 -0.056036517 -0.2677912 -0.07621071 -0.10123243 -0.37596115 -0.45748612 -0.23319331 -0.9338594 0.3766943 0.44636485 0.03575534 0.020044584 -0.266741 0.29680452 0.09301804 0.07405738 0.4323895 0.3959495 0.31576845 -0.14818038 0.03364935 0.27559078 -0.05240674 -0.35508236 0.012424769 -0.036608078 -0.1002157 0.028273493 -0.17269409 0.26066777 -0.13505122 -0.60931504 0.10780517 0.23229277 -0.25606084 -0.19297715 -0.30861476 -0.045543484 0.5136128 -0.38780478 0.13046952 0.30134952 -0.19068685 -0.6214105 -0.48570466 -0.963891 -0.32978228 0.63372815 0.066282734 -0.16535853 -0.062029228 0.31180733
45 0.99773604 -0.1695195 -0.37401092 -0.23850693 -0.761568 0.52383685 0.06308205 -0.2579151 -0.38558435 -0.39062664 0.47841227 0.21961185 -0.2997866 0.050606158 -0.39241767 -0.15024522 0.0041020997 -1.0532215 0.5750911 -0.36562762 0.57864547 -0.2829339 0.76954126 -0.19042347 -0.2459314 0.52279156 0.101392284 0.041282523 -0.36160177 0.6374423 0.5819975 -0.7855927 -0.32952717 -0.033445977 0.4339392 0.712362 0.61636895 0.30550203 -0.7230126 -0.07335389 -0.053736337 0.51968336 0.31956694 -0.3813639 -0.09541423 0.16633289 -0.821597 -0.13528587 -0.14209418 0.3878598 -0.60865206 -0.043461457 -0.36371863 0.67782557 -0.61298454 -0.433 0.22877795 -0.2683045 0.6149255 0.86363244 -0.037276804 -0.6009849 0.2949875 0.85428476
76 0.24410285 -0.22937326 0.093360186 0.062255118 -0.04549342 0.024475634 0.2937287 0.4706343 -0.10972862 0.1482758 -0.2381886 -0.4500293 0.16086672 -0.33352137 -0.032380566 -0.03796311 -0.53730744 -0.50309134 -0.31164312 -1.0763392 0.4091208 0.25758022 -0.12319228 -0.09010664 -0.1650088 0.2768037 0.21197912 -0.099135265 0.52560145 0.44507715 0.35843632 -0.367432 0.30299002 0.33402932 -0.06990366 -0.18015538 0.078658976 -0.28199345 -0.1232069 -0.020746846 -0.18447831 0.14314228 -0.26090285 -0.60083723 0.3220269 0.3238963 0.018432613 -0.07950741 -0.39760023 0.07477901 0.41935655 -0.38136256 0.20963375 0.18796267 -0.011029578 -0.5250258 -0.4390116 -0.8733932 -0.19193618 0.6463641 0.034423202 -0.17318681 -0.008706335 0.33232653
64 0.4759767 -0.37044308 -0.024684737 0.06338033 -0.39483815 0.20105499 0.2905357 0.29072937 -0.36192217 0.037304487 0.48268044 0.5546472 -0.13481495 0.5452087 0.026293507 -0.012111698 0.0240389 0.13693067 0.031311776 -0.5227853 -0.003135987 -0.69470984 0.6802078 0.2724014 -0.19995578 0.38622752 -0.34945142 0.39893723 0.4692995 0.19162239 0.72562355 -0.27788135 -0.20300537 -0.3605305 0.3951304 0.3148786 -0.11315213 -0.16631109 -0.3634774 -0.112335674 -0.6766904 0.058300816 -0.15074304 0.04128868 0.37876832 0.43496847 -0.24468292 0.04228559 -0.113204375 0.018257996 0.1284865 -0.0022645683 -0.05912337 -0.21839492 -1.0538732 -0.13702878 -0.44422236 0.14528826 -0.28872183 0.17924546 -0.44807494 -0.46080706 0.115218595 0.5149452
63 0.51566744 -0.15764046 0.39489022 -0.30409992 -0.22954458 0.2194173 0.23696454 0.4061562 -0.31375945 0.16231923 -0.23554148 -0.23744893 -0.121493444 -0.21410815 0.033387505 -0.12496799 -0.07281308 -0.36356115 -0.23490144 -0.9524125 0.29856998 0.5069601 -0.17426838 -0.18430401 -0.31197983 0.11951862 0.06309199 0.114523046 0.20518321 0.3677421 0.32454926 0.06894017 -0.042255785 0.37190682 -0.1125954 -0.40515736 0.02385543 -0.2493452 -0.020324606 0.11935251 0.10024552 0.4204435 -0.2594809 -0.20044193 0.09172285 0.43516156 -0.2216179 0.02080453 -0.40132266 -0.2870081 0.46572214 -0.13705842 0.6380856 0.21921386 -0.33722273 -0.28935486 -0.4519732 -0.6117148 -0.27160293 0.44504103 0.018557554 -0.037743196 -0.11076508 0.38654238
43 0.2990055 -0.36020532 0.08331102 -0.09961246 -0.15148143 -0.046243984 0.33827078 0.38699538 -0.18730924 0.26352498 -0.17007978 -0.26031753 -0.12477363 -0.40872636 -0.049613543 -0.025413731 -0.46133783 -0.44661292 -0.27209783 -0.9944029 0.41032925 0.39410505 0.06207981 0.02342139 -0.28526944 0.15967542 0.005796526 0.20315808 0.5016104 0.3871012 0.41713792 -0.37990683 0.005041518 0.3659865 -0.07182791 -0.31986523 0.13671884 -0.12852885 -0.09478865 0.035140652 -0.093573585 0.10418403 -0.05767 -0.6934578 0.19393547 0.15393238 -0.29290396 -0.050963975 -0.38542378 0.074513 0.5285031 -0.38471344 0.023718426 0.34229124 -0.13229881 -0.5796031 -0.5255336 -0.92724305 -0.19182135 0.56932235 -0.07170636 -0.2378836 0.057250712 0.39586887
30 0.46280852 -0.55787313 -0.3466641 0.18856476 -0.43781945 0.3376458 0.341666 0.40153953 -0.4124263 0.08089451 0.40204164 0.41454738 -0.026105363 0.3671445 0.12215754 -0.17106861 0.06468878 0.11510507 -0.1549537 -0.54416996 0.080317006 -0.79401124 0.8198095 0.15285574 -0.24120447 0.25093898 -0.26871815 0.32333317 0.5288752 0.112515345 0.6871981 -0.38101444 0.071238436 -0.33943042 0.5148653 0.28419933 -0.022592684 -0.47960404 -0.3426637 -0.015960345 -0.5486337 0.10471856 -0.34866002 -0.038008507 0.44596708 0.6594677 -0.1500664 0.013904912 -0.28009412 0.0939703 0.13131991 -0.055651583 -0.15207209 -0.26470637 -0.93653333 -0.115134224 -0.49288505 0.2112742 -0.33761698 0.26316077 -0.20337851 -0.5923172 0.1755584 0.29754716
131 0.373782 -0.2234183 0.40084916 -0.37079185 -0.30006537 0.32577598 0.40800706 0.32408032 -0.33569112 0.16142312 -0.12576073 -0.15980057 -0.18376313 -0.17386328 -0.016080579 -0.19126864 -0.2339511 -0.5383841 -0.19878234 -1.0518062 0.27584243 0.40409145 -0.011237917 0.108826354 0.008086401 0.05151081 -0.017793562 0.1983901 0.20133354 0.26656157 0.24753848 0.08053267 -0.15345238 0.2017068 -0.17963111 -0.3035451 -0.14360675 -0.10547765 -0.11630804 0.21382049 0.053138476 0.21873423 -0.034649424 -0.3612663 0.04562963 0.4088101 -0.5488876 0.012337858 -0.4140683 0.013166615 0.3486016 -0.3484501 0.51070124 0.077831954 -0.24078737 -0.4343617 -0.53761554 -0.8683654 -0.3919004 0.5816444 -0.1278145 0.060520235 -0.21981357 0.35392332
158 0.35952044 -0.20772777 0.39313748 -0.43464476 -0.22258994 0.49218866 0.4276635 0.233713 -0.31046587 0.09278206 -0.17220582 -0.1580622 -0.1870672 -0.20884717 -0.034420956 -0.32640934 -0.18719558 -0.4787092 -0.2675395 -0.92105705 0.22961083 0.41233572 -0.01569703 -0.0072821416 -0.076827504 0.105254956 -0.08487224 0.23892011 0.16786909 0.33282396 0.26626912 -0.07025348 0.029635217 0.2995267 -0.19241305 -0.19543116 -0.18985905 -0.0857524 -0.19432665 0.1506509 0.16397126 0.16610962 -0.039837684 -0.27952117 -0.04442085 0.45470184 -0.615504 0.059312187 -0.3080865 0.06943006 0.43638957 -0.35322046 0.48422885 0.06524445 -0.2954055 -0.60107905 -0.6661411 -0.7003501 -0.43483546 0.62473196 -0.05862777 0.038237073 -0.08738262 0.34202757
139 0.5362376 -0.4749382 -0.23078984 0.16016757 -0.117577456 0.4031768 0.42046 -0.06260176 -0.4822426 0.008176131 0.09931098 0.024025321 0.41799805 0.8092543 -0.050425794 0.22060768 0.013387021 -0.09615456 -0.21203054 -0.46828666 -0.100981496 -0.058412988 -0.14209689 0.013813984 -0.17117625 0.23949338 -0.33702996 0.123051204 0.08752926 0.8893451 0.4018566 -0.33528388 -0.32817942 -0.49788323 0.4460834 0.23018976 0.18508576 -0.107820734 -0.36516407 -0.26978907 -0.18565056 0.46075982 -0.0051845512 -0.05485242 0.20788008 0.5994936 -0.09463231 0.06083228 -0.3454903 0.50686365 -0.36953288 0.049094964 0.031604815 0.43101197 -0.66076213 0.13683848 -0.121095516 0.014249798 -0.025142418 0.05631235 -0.3787701 -0.43415454 0.4888158 0.4640578
141 0.3709214 -0.12573244 0.29893878 0.0312692 -0.2967436 0.03471926 0.088275194 0.32377657 -0.04155977 -0.052194253 -0.5378873 -0.16003641 0.060883094 -0.26495236 0.2906409 -0.24011761 -0.12863852 -0.5303026 0.28588548 -0.92928183 -0.014114251 0.3825274 -0.30001414 -0.3527798 -0.020711254 0.1371587 0.030168962 0.12209272 0.3919817 0.5862126 0.27377534 0.21426843 0.04379157 0.622391 0.04811409 -0.054382388 -0.107884 -0.15402822 -0.024552107 -0.070963986 0.1922202 0.4047755 0.05547503 0.068281054 0.09762331 0.42302233 -0.17571943 0.021740885 -0.22884086 -0.29790878 0.25548506 0.16283101 0.5045929 -0.025806028 -0.33493215 -0.0016095845 -0.42458418 -0.5869896 -0.34726915 0.48711857 -0.20810466 -0.24381973 0.0003043994 0.41025752
177 0.6835267 -0.5673073 -0.17253728 0.18749055 -0.32308668 0.62661135 0.20897135 0.08001463 -0.26063448 -0.33841363 0.100265756 0.5679777 -0.2193534 0.7555432 -0.09089606 0.18758693 -0.02726075 -0.15600125 -0.29752856 -0.5038706 -0.058074966 -0.36906683 0.042988192 0.2255252 -0.33737466 0.5776042 0.11136982 -0.15417866 0.085162535 0.55026764 0.16682178 -0.5280583 -0.2545278 -0.4692555 0.1909204 0.17919458 0.042463794 -0.055711534 -0.35354796 -0.4488691 -0.13916099 0.23628893 0.020052014 -0.18349145 -0.059625626 0.15729436 -0.37289044 0.15390174 -0.36834285 0.460683 -0.41412255 0.079928756 0.099147715 0.56705004 -0.56023914 -0.3733317 0.11858796 -0.02936473 0.043797836 0.119634084 0.10323024 -0.4780189 -0.048847184 0.70678324
72 0.26358882 -0.040533923 0.5553675 0.2633011 -0.11266632 0.15977223 0.19116132 0.3003914 -0.2789331 0.15947393 -0.468665 -0.082414865 -0.0150342975 -0.12674034 0.69041353 -0.36120716 0.027202817 -0.48143947 0.51970965 -0.8129821 -0.025668245 0.4299797 -0.23360589 -0.3868888 -0.060743872 -0.16970369 0.05664698 0.06277396 0.30925685 0.5110682 0.27178332 0.52262473 0.03473822 0.7688197 -0.033260833 -0.03561703 -0.17653567 -0.2124243 -0.25877953 -0.07726196 0.31827813 0.48994488 0.1498793 0.23562238 0.11550745 0.3882726 -0.23119934 -0.044902727 -0.11875361 -0.07090038 0.24908926 0.22614199 0.3194192 0.30294442 -0.4976711 0.115702234 -0.39179432 -0.5016914 -0.5066428 0.40853703 -0.24068764 -0.19058207 0.06679002 0.45554256
26 6.859779 3.2586243 8.4133215 -4.6806808 -3.3276618 -3.4283843 2.5444946 3.9650323 1.6197873 2.873741 -0.009822403 3.576832 1.8094581 3.5455248 -9.550621 6.608907 6.0371146 -4.3256 -2.8245053 -7.143657 -1.4159929 4.1079364 -1.7957562 1.7838596 -1.6951427 5.2069826 -5.5177927 -1.1886743 -0.41859064 7.4130807 0.87495655 -0.9160839 0.6715318 5.063587 3.991396 -5.390529 2.2868254 0.6507498 2.526682 -8.573753 1.3740184 -2.5218186 4.174033 -5.3486295 1.1554682 2.3882997 -2.2275705 -6.0377893 0.16507475 -3.4337864 1.5786805 -2.6233692 -5.4194994 3.6733122 7.340148 -0.6187432 -2.0998101 1.9124919 10.112585 -4.1675086 -4.2263875 -4.700223 -0.69639194 6.5690427
129 0.05732039 -0.3996451 -0.08521536 0.36114132 -0.48884884 0.5550067 0.18265042 0.15781048 -0.3764036 -0.002881268 0.0521781 0.33790046 0.3447315 0.78181475 0.036195163 -0.12963422 -0.31075656 -0.18745944 0.21634918 -0.5519683 -0.10295177 -0.033921074 -0.08690435 0.040092915 -0.29363593 0.37107024 -0.29363167 0.16111319 -0.13623129 0.604453 0.7481391 -0.41224405 -0.35174307 -0.37667388 0.44225156 0.16039693 -0.07484079 -0.22088005 -0.37126905 0.12963413 -0.1746119 0.39320222 -0.26468506 0.05045522 0.30834413 0.5819404 -0.22872664 -0.47399625 -0.30289146 0.4619932 -0.23794322 0.103224255 -0.121250786 0.42941746 -0.82791036 0.031214299 -0.22671841 0.18529275 0.20573731 0.1056988 0.066253126 0.053284787 0.15073891 0.37954882
109 -0.08078053 -0.2494761 -0.0053997203 0.46657515 -0.5923801 0.7523736 -0.18758789 0.04201 -0.14526415 -0.29976988 -0.022419186 0.49944055 0.47140652 0.64585936 -0.19090173 -0.17285538 -0.47458804 -0.22567579 0.2214109 -0.43860224 -0.16801286 0.12245835 -0.104869165 -0.27421767 -0.39747816 0.037770007 -0.4408841 0.21039118 -0.08436592 0.67112833 0.9413628 -0.57428765 -0.29052916 -0.40726662 -0.13528414 0.2892315 -0.12767443 -0.2361262 -0.49032077 -0.11808399 -0.28142715 0.31668198 -0.22395891 0.17086023 0.2866502 0.6470346 -0.35478798 -0.26284477 -0.3774939 0.7483657 -0.14072765 0.20946412 0.02351107 0.25409773 -0.89357823 0.4097371 -0.2699716 -0.24372834 0.23088567 0.21188463 -0.09005509 0.11436811 -0.047830664 0.11713923
1 0.5980846 -0.65823805 -0.0037934408 0.36731723 -0.2935514 0.6432642 0.26601648 0.2185236 -0.40258315 -0.20447297 0.10479721 0.43948242 -0.11376365 0.78316385 -0.14892258 0.03981085 0.13027148 -0.13946146 -0.26339462 -0.40049183 -0.08347223 -0.34965074 0.11312048 0.23439124 -0.14993812 0.54866666 0.04605836 -0.21686105 -0.015304706 0.4776014 0.2325495 -0.55217487 -0.24465413 -0.44825476 0.2581916 0.09256782 0.105784826 0.12639388 -0.35725752 -0.3821514 -0.123388186 0.2100989 0.08026088 -0.24075931 0.12909713 0.45207945 -0.3686286 -0.04978904 -0.42958024 0.58564425 -0.319695 0.046531886 -0.10928517 0.48295653 -0.37100333 -0.17708461 0.011433384 -0.022771133 0.06506313 0.19140644 0.24067324 -0.48190412 -0.040638294 0.6596822
160 0.5751472 0.041863643 0.30909318 0.22927241 -0.4488115 0.7416377 0.6780963 0.35502246 0.04959154 -0.3384524 0.110693224 -0.033556852 -0.6197217 0.2136908 0.20462117 -0.2360738 -0.06546842 0.027734045 0.4736348 -0.5866834 0.037513 -0.84067994 0.31709555 0.29252255 -0.5393472 0.23376325 -0.6130117 -0.07184007 0.36661503 -0.009757038 0.25978798 -0.32864806 0.42948553 0.54937375 0.3484055 0.56664896 -0.14605871 -0.24701051 0.1332687 -0.28600922 -0.29444823 0.12826179 -0.1327655 -0.13709098 0.5991541 0.5884822 0.124547 -0.23861103 0.088442415 -0.21113695 -0.07024165 0.11588078 -0.041025527 0.15684612 -0.6314881 -0.3227379 0.29468256 -0.4809575 -0.494406 0.2546056 -0.30332506 -0.71109647 -0.06626237 0.083443165
137 0.25822413 -0.13759486 0.15972504 0.10086645 -0.15364577 0.12057195 0.030834693 0.4723658 -0.009138328 0.01929114 -0.4082747 -0.063815705 0.27265322 -0.33437282 0.018116627 -0.11665209 -0.23544315 -0.4885237 -0.029080035 -1.0434028 0.2592007 0.32014614 -0.1517098 -0.22886328 0.0031114751 0.40262246 -0.008144861 -0.18361145 0.440809 0.68845046 0.23054686 -0.29760972 0.18989988 0.49023306 -0.19501576 -0.20866649 0.05713816 -0.28000173 0.07100637 -0.042366717 -0.0396297 0.37553424 0.07323069 -0.48607504 0.08805026 0.4942646 0.18195564 -0.020035235 -0.34135312 -0.0096001765 0.45041528 -0.12917098 0.5118733 0.026564501 -0.20571081 -0.41160926 -0.26663977 -0.84106535 -0.19254401 0.51617503 0.01531654 -0.25415334 -0.22330682 0.12121275
180 0.783854 -0.8703183 0.35086522 -0.58027583 -0.18011329 0.43875584 0.22074279 0.33458525 -0.025786785 0.27585995 0.05621556 -0.48154706 -0.20467007 -0.46483958 -0.041203685 -0.54492134 -0.03259672 -0.44804233 0.011497653 -0.9877814 0.23774733 0.261203 -0.29018155 0.121311195 -0.119238734 0.45614308 0.1087513 0.23327291 0.3649048 0.10171365 0.21147904 -0.22128712 -0.010790039 0.10164972 -0.07949834 -0.583073 -0.36570582 -0.24931291 -0.1314723 0.0923954 -0.15855709 0.14617191 0.21619703 0.04214427 -0.29467404 1.019829 -0.6214555 -0.37974352 -0.574136 0.1866679 0.4614102 -0.23888686 0.095793925 -0.06082749 -0.04819857 -0.55703515 -0.82831556 -0.91342604 -0.44023892 0.27825168 -0.16212219 -0.12056494 -0.3059844 0.47330558
22 0.460809 0.1957941 0.31630987 0.22041279 -0.42328274 0.70376754 0.33907494 0.21637559 -0.2576081 -0.6739595 -0.47548404 0.037279274 -0.59820676 -0.10148254 0.43615493 -0.026586596 -0.34344327 -0.1972274 0.09868079 -0.76524866 -0.019128336 -0.23570296 0.19203067 -0.22327836 -0.44778246 0.50485 -0.4400865 -0.10268549 0.37572807 0.65552133 0.08959634 -0.24547385 0.34873185 0.9685074 0.30460432 0.060565613 0.14359525 -0.04675726 0.07572537 0.010158286 0.006540779 0.32262328 0.01535105 -0.46307665 0.6320195 0.739254 0.05041575 -0.13019176 0.23401895 -0.15287282 0.07097936 -0.08933707 0.46225467 0.0859152 -0.37222224 0.17153257 0.36121622 -0.37464425 -0.18382537 0.3449545 -0.029267007 -0.21420197 -0.10093646 0.07787059
86 0.50342566 -0.6159927 0.22540493 -0.45060745 -0.3208091 0.49301046 0.3659996 0.15101895 -0.1191466 0.2866383 0.013545616 -0.32630274 -0.0066058347 -0.47390828 -0.12240543 -0.35018778 -0.3143631 -0.30118075 -0.036178075 -0.82789093 0.11897686 0.39313105 -0.0477317 0.13511194 -0.14357843 0.44139665 0.14525312 0.13718244 0.39145955 0.2119607 0.21240085 -0.19089308 0.01213227 0.3046995 -0.26765314 -0.52639204 -0.39623526 -0.22525081 -0.27297178 0.23451734 -0.0046406537 0.16906075 0.03625493 -0.019680489 -0.20025758 0.6728764 -0.7210407 0.12495349 -0.4113983 -0.03201582 0.4300843 -0.6076603 0.30550858 0.21144268 -0.41046533 -0.5475967 -0.71707606 -0.86224604 -0.4610701 0.14130078 -0.109123364 -0.11853714 -0.09834165 0.4445249
120 0.5759658 -0.5816783 -0.41494545 0.30913812 -0.021161629 0.20106637 0.5949716 0.14683142 -0.90842056 0.090539195 -0.011033288 0.070774786 0.36729375 0.8704777 -0.23257986 0.2689535 0.31121075 -0.26539332 0.31612933 -0.41082394 -0.19347632 0.016428001 -0.0072288197 -0.20965879 -0.14056633 0.24043612 -0.28923693 0.004023641 0.084546894 0.8956368 0.4024928 -0.33597413 -0.3047922 -0.23474802 0.31621316 0.15408134 0.058970902 -0.019459765 -0.10392659 -0.19236018 -0.173054 0.52737087 -0.07137106 -0.04191297 0.08308853 0.6802374 -0.04027027 0.14943694 -0.3731578 0.52165157 -0.4037875 0.10758765 0.14464445 0.40559995 -0.8181595 0.00830804 -0.13117276 -0.09066196 -0.04287388 0.105484076 -0.46673417 -0.23646003 0.7367348 0.30493465
159 0.5601742 0.038574766 0.39700744 0.3550578 -0.4682535 0.70403636 0.6151609 0.38397548 0.10417144 -0.48628393 0.076238625 0.18552646 -0.6049863 0.10385156 0.15597807 -0.16524819 -0.12771776 0.123283766 0.5778636 -0.68722034 -0.04574777 -0.73161405 0.5012417 0.10245948 -0.43784246 0.2311915 -0.543819 0.22345307 0.55305964 0.20885402 0.32003722 -0.29951465 0.28749955 0.5632906 0.27859926 0.43492275 -0.10973166 -0.1546316 0.29886955 -0.27282506 -0.32176295 0.31709987 -0.07772492 -0.19581704 0.5212187 0.64151704 0.15299048 -0.20423003 -0.078156434 -0.43082374 -0.06993469 -0.09844255 0.16256803 0.32722402 -0.51860565 -0.16310106 0.33171937 -0.38674867 -0.36659324 0.19363791 -0.41571108 -0.63076144 -0.06765014 -0.02879761
7 0.56267637 -0.6281991 0.054078583 0.3244126 -0.21793914 0.51526636 0.087465964 -0.016708909 -0.17179726 -0.39931422 0.25232905 0.557751 -0.28277802 0.6532971 -0.2273173 0.15263022 0.16038665 -0.13456078 -0.18106972 -0.56415635 0.1681458 -0.3807202 0.035242613 0.15127294 -0.24914624 0.47065464 0.1778641 0.11179148 0.18359971 0.5736159 0.078771256 -0.60994935 -0.30790395 -0.32737562 0.056648593 0.15907194 0.11895213 0.23905435 -0.42474282 -0.36392352 -0.051493756 0.29543677 -0.10573882 -0.052448202 0.03133555 0.34070534 -0.35450798 0.02072389 -0.41334906 0.36903238 -0.5098421 0.29442334 0.13113898 0.5686452 -0.5913489 -0.19581965 -0.007920134 -0.13825166 0.20738074 0.0018949829 0.05275524 -0.53838426 -0.06375944 0.6532135
73 0.11520037 -0.41604388 -0.24666807 0.65369964 -0.029421894 0.16494824 -0.26583326 0.3664874 -0.09494906 0.053621687 -0.43644124 -0.234547 0.22483559 -0.39159808 0.10151532 -0.2827426 -0.21605824 -0.40973362 0.32255143 -1.2219186 -0.050819717 0.15888038 -0.14571384 -0.6583412 -0.104119994 0.23155418 -0.37225547 -0.22492254 0.5054616 0.47844633 0.5393127 -0.31347078 0.4096995 0.59821707 -0.02325761 -0.2538354 -0.01663395 -0.048514776 -0.11466926 -0.017491395 0.20270284 0.14990515 0.19935976 -0.7587707 0.12634888 0.44095212 0.22575954 -0.1349561 0.05683095 0.008090146 0.07612985 -0.23537159 0.35302192 -0.13152802 -0.3900227 -0.19161591 0.13159491 -0.45108768 -0.16258572 0.4091275 -0.25788805 -0.1252357 -0.46968696 0.34294084
128 0.6876362 -0.06929304 0.3201301 0.22231637 -0.16163126 0.37647384 0.6433557 0.16647936 0.0052806046 -0.49402395 0.049846474 -0.07239747 -0.16495472 0.20049967 0.5370081 -0.13819912 -0.088511065 -0.06407328 0.64621264 -0.8673246 -0.37039694 -0.4364687 0.95701414 0.05616733 -0.43937367 0.22909 -0.8283002 -0.076914474 0.19282214 0.3663709 0.27283838 -0.18804565 0.46824133 0.67975605 0.101855874 0.15541574 -0.048581555 -0.18886186 0.020073492 -0.1806679 -0.34766188 0.3030354 -0.13827743 0.006952567 0.45739466 0.90059817 0.07734092 -0.17869091 -0.009027476 -0.24857563 -0.134396 -0.05972907 0.13510856 0.15561841 -0.17387071 0.12806952 0.065027386 -0.5429033 -0.1744529 0.42271465 -0.067583986 -0.65455127 -0.4204428 0.015364411
163 0.6309039 -0.13504925 0.30561367 0.32782912 -0.41709226 0.65677196 0.6586218 0.31505987 0.09893021 -0.5528195 0.03569951 0.17955816 -0.3791042 0.17302273 0.2831503 -0.1068095 -0.13035072 0.04804228 0.57480377 -0.73042333 -0.0038920315 -0.6983142 0.49918044 0.14274997 -0.43173105 0.14908428 -0.53614837 0.069837116 0.48968834 0.022641025 0.24886042 -0.41846904 0.37641895 0.5435518 0.40050972 0.39671728 -0.10549931 -0.14015666 0.20701595 -0.36059982 -0.2357757 0.2268226 -0.1596351 -0.0043645045 0.5992518 0.74919987 -0.00013402037 -0.3229408 0.075236514 -0.45344406 -0.10936501 -0.052041925 0.23395377 0.21983287 -0.41917348 -0.08724561 0.31049946 -0.5164469 -0.42799336 0.23851587 -0.12530512 -0.5744186 -0.040087033 -0.08170823
154 0.50984746 -0.06985518 0.4749757 0.23563993 -0.21306106 0.5106702 0.71864694 0.19039589 0.09463566 -0.3750635 0.073842585 -0.006004886 -0.35993594 0.24924967 0.34030378 -0.19843838 -0.05446499 0.013119353 0.59786355 -0.84719056 -0.33671167 -0.48118725 0.8037876 -0.0009591399 -0.4802091 0.11923095 -0.77104306 0.011481638 0.34085205 0.33298424 0.23615138 -0.39511415 0.48701835 0.5269906 0.17743984 0.35010797 0.06757883 -0.36015275 0.05370332 -0.13246587 -0.29376444 0.33800077 0.0140037425 -0.040960934 0.53925157 0.7917942 0.25711584 -0.026017759 -0.1119461 -0.2286193 0.04070031 -0.18978181 0.04979816 0.21104889 -0.32796776 0.1185286 0.11093587 -0.5974568 -0.3234457 0.1866802 -0.10585413 -0.65360045 -0.25423846 -0.035844557
155 0.5831943 -0.0014804407 0.33551815 0.30749282 -0.42287108 0.8004085 0.5675534 0.21656275 0.11308372 -0.43437067 0.03025254 0.053502224 -0.49621153 0.21811071 0.18340251 -0.25448826 -0.13483697 0.059533346 0.4207672 -0.7025367 -0.21311979 -0.595777 0.4196853 0.118030295 -0.43825078 0.24890143 -0.49402377 0.15438169 0.43898007 0.2612024 0.24723625 -0.3150252 0.40163004 0.69674695 0.24084742 0.504276 0.016014643 -0.1383326 0.30087823 -0.29588658 -0.35733226 0.38623485 -0.11765424 -0.034880195 0.52718526 0.8050934 0.22247788 -0.1979528 -0.0515124 -0.375602 -0.014616208 -0.050583307 0.20752837 0.24312301 -0.2312109 0.055388097 0.13976265 -0.41592598 -0.33209425 0.22307232 -0.30808058 -0.7260576 -0.088812396 0.045251638
95 0.4211411 -0.40711778 -0.24981815 0.47159275 0.027879976 0.34104884 0.69319135 0.3462002 -0.8071087 0.061636742 -0.21311803 -0.097218506 0.43259275 0.9513567 -0.10093939 0.16385847 0.36329177 -0.18776236 0.2867251 -0.31874228 -0.039436713 -0.05381645 -0.11124255 -0.08621617 -0.12730609 0.43756086 -0.18400763 -0.03748353 0.23057282 0.8246905 0.46097213 -0.19416611 -0.26738602 -0.23361373 0.4265738 0.3133431 -0.10450836 -0.11510421 -0.352481 -0.12978867 -0.17582801 0.65217066 -0.026820404 -0.30164757 0.17317456 0.5567684 0.0619276 0.28362545 -0.45859966 0.4702184 -0.52771825 0.28112704 0.17942974 0.29722425 -0.6870001 -0.18220675 -0.10179613 -0.09044982 0.0035490636 0.114389084 -0.46177512 -0.3289965 0.7233151 0.34530112
107 0.47765553 -0.4605352 0.055510037 0.23826084 0.04294438 0.4774621 0.22053659 0.12595896 -0.6437523 -0.68058324 -0.12839396 0.65382695 -0.17116101 0.51911914 -0.044999912 0.08417588 0.2532828 -0.3652585 -0.4735851 -0.6539305 -0.013865967 -0.35322404 0.08902675 -0.087288536 -0.012986476 0.15521911 0.22461191 0.06628747 -0.21472248 0.73600423 0.37645513 -0.74682695 -0.3633746 -0.22299473 0.12714706 0.11489711 -0.12467791 0.034015518 -0.5977401 -0.49327505 -0.3177339 0.17749646 -0.3668685 -0.019880442 0.28355426 -0.0060150926 -0.4582413 -0.2260299 -0.38846356 0.31871095 -0.7494367 -0.1539241 0.09743955 0.40471378 -0.6891396 -0.5148731 0.24891634 0.075818226 -0.033734925 0.111583 0.09943516 -0.50259924 -0.48257878 0.7929841
187 0.5973303 0.04543952 0.26712766 0.30648348 -0.4445767 0.7672743 0.7251765 0.35819757 0.039064467 -0.4317107 0.20653667 0.00029842442 -0.5092554 0.15661226 0.14676484 -0.18693973 -0.1416073 0.06112149 0.5467211 -0.5114047 -0.034230743 -0.762984 0.54884833 0.26856354 -0.44132408 0.035920758 -0.53166497 0.0034283397 0.51989096 -0.006719047 0.18762809 -0.27346084 0.33517918 0.4833042 0.46762174 0.4120606 -0.057579286 -0.095694095 0.107227996 -0.2914431 -0.3136394 0.114445895 -0.073610514 -0.045858048 0.78213495 0.67540205 -0.043688398 -0.24677387 0.09798473 -0.089491025 0.080957934 0.14112131 0.10411269 0.12572286 -0.53947204 -0.19309407 0.2032959 -0.50980914 -0.44963142 0.19321008 -0.2084726 -0.7776891 -0.07349613 0.14710826
172 0.52259904 -0.6450568 0.15724523 -0.62844896 -0.31837752 0.559306 0.35220084 0.19748503 -0.03426286 0.120015204 0.03151812 -0.307876 -0.070363835 -0.39472166 0.11602635 -0.43697968 -0.18749137 -0.34385663 -0.08799933 -1.0498008 0.27212852 0.3625091 -0.14446473 0.07701657 -0.18518691 0.38562533 0.11058801 0.103219174 0.4188726 0.2375535 0.18864945 -0.14228778 0.1050935 0.27607805 -0.18995096 -0.52335685 -0.4270754 -0.17967512 -0.19335371 0.1179523 -0.054299902 0.19611049 0.06383604 -0.072991595 -0.27253133 0.5567723 -0.8356589 0.059451222 -0.3594482 -0.00018723894 0.33905107 -0.3111001 0.4185121 0.36126608 -0.24719466 -0.49181262 -0.7240924 -0.7393712 -0.38024753 0.18730931 -0.05959017 -0.014305068 -0.068244666 0.31895512
28 0.78362477 -0.5309239 -0.11474509 0.31203932 -0.29099196 0.51640546 0.16741598 0.025227752 -0.23924306 -0.32351488 0.17014857 0.7546522 -0.3421273 0.5186488 -0.12032438 0.23831958 0.0816652 -0.26546362 -0.3429205 -0.5732089 -0.048356906 -0.30772415 -0.12877199 0.19268021 -0.2813983 0.4810689 0.07306437 -0.061790753 0.0484309 0.4524881 0.13776001 -0.71130985 -0.14828 -0.42837706 0.1805588 0.18535843 0.07415033 0.15943114 -0.37729582 -0.45337275 -0.13340019 0.1804899 0.010672789 -0.14440176 0.04842956 0.23088482 -0.37108305 0.024741344 -0.44235027 0.5009242 -0.38904983 0.13972208 0.08732875 0.5776813 -0.54933876 -0.23908266 -0.0327606 -0.06773483 0.20761995 0.06629692 0.043935508 -0.38492215 -0.06511118 0.73731565
49 0.16002099 -0.13193512 -0.037830412 0.3898555 -0.69446814 0.5273942 -0.0056787687 0.14611019 -0.13288422 -0.24073835 0.17566662 0.40673319 0.47951618 0.8343819 0.030567685 0.12235923 -0.2512555 -0.05397248 0.16001523 -0.66083354 -0.16227022 -0.23551251 -0.1744359 0.18184283 -0.16291532 0.2589038 -0.33449867 0.39745313 -0.2673872 0.27824655 0.6608007 -0.28362626 -0.61319745 -0.43066534 0.41380113 0.103774995 -0.10496855 -0.24094078 -0.5935803 0.29574162 -0.2731543 0.21150735 -0.20367736 -0.05779801 0.41515195 0.81259465 -0.27476433 -0.53147936 -0.09834265 0.39339438 0.010759564 0.22027238 -0.31062815 0.22898746 -0.87801963 0.0057791807 -0.14681654 0.09249203 0.15225333 0.2981481 0.24557318 -0.14942089 -0.2011434 0.41546
112 -0.110125564 -0.08479689 -0.19122636 0.48105565 -0.41111413 0.8228087 -0.5607058 0.26158938 -0.6724073 -0.38830924 -0.48571473 0.11107635 0.17321879 0.5617514 0.33792156 0.19637872 -0.16961859 -0.14130592 0.7658658 -0.1299565 0.3358344 0.2658424 0.01876757 -0.21182437 0.02195441 -0.052439976 -0.30356273 0.15996665 -0.04647954 0.9765111 0.89903784 -0.69880486 -0.15108047 -0.6746433 0.22348039 0.029659614 -0.46737996 -0.18198922 -0.21967609 -0.3285881 -0.07593195 0.13660039 -0.05731516 -0.13228866 0.12245536 1.2009026 -0.48607886 -0.5520697 -0.46768594 0.309793 -0.07424743 0.17258544 -0.06489507 0.6236842 -1.1489077 -0.36042085 -0.77815145 -0.40568897 0.032777064 -0.06373701 -0.21784873 -0.49075902 0.37304208 0.64571255
162 0.8250681 -0.008050491 0.25902075 0.1549561 -0.2700297 0.28694716 0.63481015 0.12061651 0.013279354 -0.5799838 0.0719086 0.032410555 -0.34823412 0.10303569 0.31547955 -0.1762373 -0.1594048 0.0036509002 0.66342425 -0.86455137 -0.30059072 -0.653048 0.76184636 0.009204521 -0.52132195 -0.041321605 -0.9014526 -0.13193968 0.31892163 0.3171862 0.31686234 -0.22786276 0.32627597 0.3864297 0.2626963 0.23198383 0.05681326 -0.4115633 0.2119486 -0.23212776 -0.1993936 0.538532 -0.03454055 -0.035936978 0.45378047 0.85784686 0.036443487 -0.1732485 -0.025879381 -0.17709754 -0.04593166 -0.33287898 0.13816974 0.20286025 -0.2774496 0.05239704 0.123215266 -0.544127 -0.2833624 0.2726393 -0.14888822 -0.6913984 -0.4058628 -0.030573417
113 0.42258474 -0.0034302531 0.45357573 0.17007658 -0.2629561 0.12025441 0.27724585 0.2865297 -0.07829044 0.13081624 -0.3981965 -0.13311186 0.03181083 -0.3153854 0.583352 -0.20723578 0.11197072 -0.5603133 0.4793913 -0.8836532 -0.10679084 0.3792173 -0.4702058 -0.35325485 -0.016878191 -0.049737155 -0.044464137 -0.020728424 0.29874352 0.5302049 0.39966807 0.33685908 -0.055588204 0.5571611 0.061988804 -0.08113377 -0.14813364 -0.1361029 -0.1831311 -0.05690889 0.42921147 0.3875921 0.10824325 0.10027656 -0.024955437 0.3467704 -0.11128927 -0.08924269 -0.13459434 -0.2541129 0.3072126 0.24005778 0.49762014 0.19744214 -0.5356389 0.17445615 -0.36273658 -0.62113684 -0.48095238 0.49840444 -0.23081885 -0.2737897 0.084591925 0.34260547
69 0.47122014 0.102351695 0.57874507 -0.048789874 -0.34208933 0.11954356 0.084442005 0.35143268 -0.04092282 0.0660399 -0.5840314 -0.22256234 0.011431168 -0.1437234 0.27274293 -0.36320433 -0.020104269 -0.5550064 0.23447107 -0.86608005 0.027710488 0.4871606 -0.32483998 -0.29721895 -0.13689351 0.15368141 -0.034192763 0.21788321 0.30984455 0.46029538 0.2264945 0.40963277 0.07296314 0.66034967 -0.07233962 -0.053705283 -0.15191318 -0.07232966 -0.19137037 -0.028740786 0.26144195 0.24815542 -0.1546585 0.06012495 0.123789474 0.5735744 -0.16580345 0.08925819 -0.35461637 -0.25124368 0.11443178 0.07373553 0.38328892 0.23460275 -0.23580407 -0.06306615 -0.5339679 -0.59749234 -0.35231426 0.51984537 -0.21164358 -0.25780368 0.008801954 0.48650464
164 0.21557672 -0.23954844 0.030976793 0.31972674 -0.12809058 0.050802752 -0.06860818 0.34106183 -0.16582283 -0.062159576 -0.60883737 -0.07214707 0.22682028 -0.24198471 0.19550687 -0.27523932 -0.2421413 -0.3919411 0.18631257 -0.99133945 0.13001627 0.09065096 -0.32361615 -0.43539467 0.050780766 0.32568172 -0.21867651 0.009971179 0.57990825 0.45209527 0.28069037 -0.2017305 0.3061403 0.5552184 -0.22438608 -0.3325194 0.14041728 -0.11206436 0.09283944 -0.15302412 0.10793637 0.3502365 0.28679252 -0.34279543 0.10291432 0.4941358 0.051003035 0.07387083 -0.18467483 -0.1876882 0.27167156 -0.07997621 0.28262764 -0.002661243 -0.3823017 -0.17856655 -0.04011955 -0.6954815 -0.27830693 0.49753255 -0.15089045 -0.18137348 -0.35895917 0.3824678
130 0.3183619 -0.4047281 0.009650871 -0.004775805 -0.13834314 0.23531102 0.24204053 0.42982385 -0.34852725 0.2805958 -0.06955669 -0.43757573 -0.021411492 -0.29516014 0.113368206 -0.020739771 -0.5265547 -0.44500554 -0.21379255 -0.9901592 0.3712663 0.39950088 0.051258214 0.07015635 -0.14895678 0.18397148 0.25943595 0.09952389 0.5041245 0.34678245 0.4967507 -0.44142002 0.12765557 0.24594055 -0.18141063 -0.059633777 -0.033690836 -0.012601002 0.07099603 0.29113355 -0.17342287 0.03890559 -0.21769994 -0.53193474 0.14163539 0.25386056 -0.3919968 0.056430176 -0.47130823 -0.15486732 0.54057145 -0.23525336 0.13957739 0.27694258 -0.14030354 -0.75786716 -0.4227524 -1.0076622 -0.10342949 0.71779 0.034789108 -0.23313694 -0.0383196 0.20776735
97 0.6056196 0.19181377 0.31740695 0.15161592 -0.034503598 0.36410373 0.56986773 0.10780435 0.09950318 -0.51688564 -0.059144076 -0.09097981 -0.32535115 0.2987987 0.4106722 -0.12689497 -0.14535995 -0.21656828 0.31550825 -0.9368 -0.53892684 -0.28166062 0.74278945 0.22027339 -0.45735314 0.29316065 -0.8332448 -0.02517515 0.44269553 0.45894906 0.28416634 -0.2761975 0.4907626 0.6877998 0.122989886 0.12835588 -0.12164534 -0.39635617 0.0425118 -0.39430052 -0.23938863 0.36640704 0.110025264 -0.063700795 0.52847475 0.78701115 0.17021108 -0.18678062 -0.044084817 -0.28439558 -0.14641589 -0.14872997 0.13997783 0.19053596 -0.05486691 0.1772242 0.069517724 -0.51464635 -0.16645996 0.36606306 -0.045612074 -0.34595835 -0.41305876 0.11955936
188 0.85259324 -0.011973086 0.2200987 0.16478351 -0.3692072 0.46125352 0.67774016 0.23973894 -0.16655803 -0.4577322 0.096399225 0.09324831 -0.44529432 0.049341545 0.35591075 -0.07668735 -0.020321984 0.09128754 0.5887656 -0.8323589 -0.12373777 -0.6360153 0.6334544 0.20083849 -0.583985 -0.070043236 -0.9509551 0.004178999 0.2679111 0.30063137 0.28406057 -0.16696851 0.27781287 0.2286691 0.3004174 0.3081065 -0.027759476 -0.41906777 0.12014755 -0.05067455 -0.22689155 0.48351377 -0.12217411 -0.19750473 0.34329587 0.7811688 0.14342397 -0.2914097 0.066426076 -0.29740426 0.040551275 0.05300178 -0.1419746 0.10886093 -0.41508922 0.10991191 0.17894101 -0.52508307 -0.33485088 0.20300005 -0.21001767 -0.6806025 -0.41972885 0.07022185
47 0.4503476 0.066246316 0.48006004 -0.01993525 -0.24385393 0.025736846 0.02759278 0.39828047 -0.06386456 0.077879876 -0.41271868 -0.19829562 0.10098339 -0.1741961 0.04260404 -0.31765696 -0.015462785 -0.4205799 0.052430417 -0.9304579 -0.036914352 0.49807858 -0.31523287 -0.22751985 -0.2849299 0.23518626 -0.070912935 0.18851095 0.49255702 0.42658386 0.12691717 0.16185316 0.11262494 0.40095556 -0.06494816 -0.08773809 -0.07782746 -0.015494508 0.056448758 -0.014849673 0.23820625 0.45190006 0.0084531605 0.07363851 0.11758202 0.4578958 -0.1645717 0.08799132 -0.3706119 -0.20132609 0.31378824 -0.012479702 0.5664088 0.17856143 -0.35933435 -0.220885 -0.28665015 -0.7201629 -0.3898429 0.58312684 -0.13728048 -0.2541911 -0.10816137 0.432951
198 0.8161281 -0.060557846 0.29137444 0.30489442 -0.04358708 0.52080166 0.49983594 0.0969637 -0.018389583 -0.41936678 -0.08416287 -0.20296338 -0.22027935 0.20418318 0.44617197 -0.13786514 -0.10733842 -0.02175848 0.5597718 -0.7887878 -0.34176075 -0.4992581 1.0107664 0.10765371 -0.474255 0.28701556 -0.7995726 -0.021252248 0.27071115 0.34706897 0.42468596 -0.26091972 0.524625 0.5470311 0.036528055 0.1913007 -0.11133535 -0.35356802 0.018708292 -0.22492144 -0.40468115 0.39373013 -0.09295815 0.008994143 0.42016354 0.8313687 0.22948496 -0.14676549 -0.009015263 -0.29513025 -0.07877304 -0.090117075 0.23798679 0.15600058 -0.08623397 0.10844335 0.026308866 -0.47591904 -0.32057637 0.48876396 0.028547257 -0.5401089 -0.43533304 0.031693507
25 0.64604974 -0.55095685 -0.2920856 0.40321183 -0.060072754 0.116008215 0.57133925 0.14765282 -0.75296736 0.037744697 0.11591785 -0.058531307 0.37535447 0.92436576 -0.18402666 0.19956827 0.23616607 -0.31537077 0.15680386 -0.40243745 -0.20285542 0.056495246 -0.032719553 -0.20312355 0.077245936 0.13293949 -0.3582698 0.026882973 0.1616109 0.8911857 0.5076167 -0.35997513 -0.33468714 -0.39193895 0.3118004 0.32607162 -0.118927084 -0.0950575 -0.1752387 -0.1365145 -0.19134237 0.5081093 0.013932244 -0.09182606 0.07334159 0.7569065 -0.096364595 0.15821025 -0.41657034 0.37198734 -0.5077842 0.018209364 0.24933995 0.30385706 -0.6460776 -0.031243091 -0.22281039 -0.10341714 0.102492176 0.0809218 -0.54974836 -0.18525742 0.70332867 0.41011423
174 0.6335909 -0.45684215 0.0909979 0.014626941 -0.61745703 0.25862345 0.7284311 0.09235227 -0.20922458 -0.08024016 0.48544794 0.5707477 -0.4477625 0.50408643 0.33870104 -0.3027599 -0.32319546 -0.27621856 0.07094231 -0.51796114 0.13769469 -0.6343101 0.18046713 0.3653577 0.059039425 0.24747545 -0.6978368 0.008349966 0.24282885 -0.27546683 1.0105743 -0.5280798 -0.12406928 -0.36841416 0.423357 -0.30549055 0.22842918 -0.042295076 -0.44118345 0.046691794 -0.54673064 -0.116038986 -0.46748966 0.20693949 0.47884253 0.75060135 0.42083356 0.040477913 -0.2935173 0.1691727 -0.15013273 0.075681664 -0.2592532 0.4494855 -0.6516165 -0.30979013 -0.30514625 -0.049988214 -0.5534952 0.48493114 -0.41225123 -0.5635927 0.2074453 0.09492154
123 0.7272352 -0.5859935 -0.13172917 0.18956305 -0.10626361 0.72532237 0.12284451 0.18709819 -0.24000473 -0.32941103 0.12634635 0.5098539 -0.1314569 0.7829045 -0.04397657 0.1632576 0.14123796 -0.19928472 -0.17007221 -0.41695878 -0.23914242 -0.19166055 0.017896112 0.2385542 -0.275655 0.5505005 -0.06241256 -0.20704378 0.03425109 0.5450508 0.27219763 -0.5073988 -0.18700589 -0.5133147 0.24770221 0.17122348 0.32148248 -0.082658954 -0.44572538 -0.15445754 -0.2558847 0.30479592 0.18679228 -0.20502393 0.2370515 0.38787666 -0.30491608 0.11621307 -0.36933208 0.5509442 -0.42395517 -0.14152394 -0.025845604 0.49820644 -0.4591776 -0.35835394 -0.14489518 0.100335054 -0.0001951321 -0.015373216 0.16518861 -0.5979856 -0.007624391 0.54651046
12 0.5944993 -0.033651903 0.34626177 0.25760666 -0.35186937 0.63405955 0.83915585 0.3067431 0.015934858 -0.289784 0.15910679 0.107346244 -0.52069825 0.19307004 0.16321142 -0.09547852 -0.0880972 0.031198494 0.35493642 -0.3970892 -0.063545175 -0.88284576 0.37511957 0.43131858 -0.66424155 0.19061776 -0.54690176 -0.013641401 0.2437442 0.031791385 0.4773472 -0.32302535 0.26831022 0.6985355 0.5148603 0.32703462 0.016208546 -0.22181411 0.026388839 -0.076884605 -0.47502518 -0.07348854 -0.14506619 -0.13037004 0.6970744 0.5470661 8.073264e-05 -0.17703316 0.11885291 -0.14178891 0.002941679 -0.11626884 0.0104308305 0.37496156 -0.5204088 -0.08423933 0.09928613 -0.3450579 -0.47032985 0.10379567 -0.29497945 -0.8136364 0.097343266 0.24271844
6 0.5851337 -0.08709436 -0.13972849 0.067632146 -0.6004369 0.39746845 0.7559646 0.24195887 -0.50440973 -0.22268207 0.4463687 0.53427315 -0.5074819 0.543485 0.45625082 -0.15241045 -0.2153334 -0.040033158 0.066339314 -0.4963013 0.15248118 -0.6941176 0.30130592 0.33346495 -0.18914086 0.09450657 -0.47533464 0.07214682 0.3959113 0.14860381 0.99920493 -0.38089982 0.29512715 -0.29899246 0.33607316 0.0064855977 0.21065265 -0.01697555 -0.47191408 0.1347217 -0.61295784 -0.1975398 -0.28106984 0.20772032 0.62247276 0.7700394 0.31097624 -0.18092674 -0.16094664 -0.021657512 -0.0032238567 -0.07079677 -0.2596239 0.24547024 -0.20041172 -0.29899466 -0.21031643 -0.20442776 -0.5996619 0.22473541 -0.3427177 -0.44188312 0.21617155 0.19564925
171 0.57526475 -0.49304023 -0.05601252 0.07781408 -0.16391876 0.5858978 0.11665696 0.35057932 -0.21039553 -0.5874827 0.2394461 0.057289355 -0.14408417 0.36541933 0.07096821 0.42706433 0.43575785 -0.27181262 0.22058387 -0.5693265 0.28040105 -0.063990295 0.12847945 -0.16705796 -0.19849457 0.56810725 0.39877877 0.22572285 -0.051208165 0.82118016 0.55050355 -0.21468301 -0.3517619 -0.4093719 0.18315917 0.3411659 0.10653435 0.17219344 -0.22238098 -0.20015603 0.15140705 0.17148906 0.23301293 -0.13159809 0.6257845 0.32755077 -0.44970417 0.036948875 -0.43066913 0.24471506 -0.7543318 0.30730936 -0.19170313 0.87978035 -0.59893936 -0.07732763 0.1568402 -0.389009 0.58810735 0.3498602 0.029112803 -0.20850183 -0.09168335 0.44285777
93 0.64279675 -0.0023997605 -0.09652574 -0.06312776 -0.6122093 0.4904659 0.6218666 0.1885531 -0.37801248 -0.23051254 0.5601599 0.48720437 -0.39820877 0.6360062 0.20260519 -0.06432985 -0.120313615 0.041636974 -0.09335719 -0.6530287 0.18700053 -0.8047561 0.3502752 0.348241 -0.35935193 0.2766093 -0.4050297 -0.16355106 0.36312616 0.23918028 0.71158797 -0.28488782 0.29637212 -0.13330074 0.50040317 0.03639414 0.008090813 -0.028756274 -0.18870619 0.23194829 -0.6728608 -0.064514846 -0.10846435 0.23620743 0.5769353 0.71138614 0.19360802 -0.27942953 -0.111842 -0.086775966 -0.13365734 -0.11346825 -0.030417074 0.07436167 -0.2813891 -0.14973634 -0.17747597 -0.16409862 -0.3745701 0.20270376 -0.34877232 -0.47993883 0.24195701 0.16772993
197 0.4022768 -0.26593503 0.13514055 -0.23918687 -0.22069459 0.19634692 0.45567796 0.21720389 -0.3983317 0.27630165 -0.13860191 -0.29055688 0.04363581 -0.2739896 0.006960996 -0.1623433 -0.41219193 -0.2727275 -0.09117458 -1.2103935 0.4598251 0.2871994 -0.12108405 0.035573162 -0.29027587 0.19146541 0.08939848 0.35119396 0.3733293 0.59232193 0.22519441 -0.02557617 0.020432765 0.22919668 -0.27852422 -0.22227591 0.018849276 -0.03722995 -0.012297449 0.15666118 -0.07998035 -0.026680851 -0.1539467 -0.47043538 0.078805916 0.20586091 -0.53167874 -0.11978122 -0.5159689 -0.0354082 0.5460438 -0.36235356 0.20688054 0.24784018 -0.20342363 -0.649135 -0.5424336 -0.69672126 -0.09013756 0.6857105 -0.15363266 -0.29802716 0.018637095 0.16215336
179 0.8976649 -0.024974361 -0.06757438 0.077807434 -0.0015592582 0.3936453 0.061358783 0.122364186 -0.9251016 -0.54208493 -0.029012129 0.0898452 0.51425374 0.3831096 -0.55266744 0.42597404 -0.070862874 -0.5313314 0.6648066 -0.16114905 0.41391468 -0.5586024 0.12787881 0.36725712 -0.69529235 0.34800944 0.15124165 0.62767535 0.27500954 -0.2872836 0.76116925 -0.5751469 0.40721443 -0.1571617 -0.22703582 0.4128291 0.24211796 -0.07618107 -0.95084697 -0.4640617 0.30440792 0.39706692 0.08611208 -0.13821518 0.6462415 0.51876694 -0.5196336 -0.5170039 -0.5614345 0.05012367 -1.0694356 -0.7420417 0.014218085 0.23026691 -0.14102182 0.0022967479 0.2554509 -0.3597757 0.3931957 0.7544382 0.17589596 -0.075241044 0.44094482 1.1984777
20 0.50764877 0.18243694 0.43158463 0.24975987 -0.18024969 0.734845 0.47550026 0.3154153 -0.22056787 -0.59093034 -0.37207475 0.13724239 -0.46234375 0.07041277 0.3557933 -0.0428586 -0.33126837 -0.269182 0.16867544 -0.68307376 -0.04925706 -0.2606503 0.2437722 -0.14454517 -0.38258728 0.478524 -0.509932 -0.1250589 0.4131078 0.6443757 0.09031605 -0.08915431 0.53267664 0.9823915 0.22121201 0.091942534 0.011376591 -0.020835858 -0.07053138 0.047531858 -0.097580895 0.32895473 0.059547562 -0.3831771 0.58020675 0.68978596 0.09759924 -0.24919541 -0.001312502 -0.3349129 0.2366255 0.05576623 0.4152711 0.054844823 -0.24134453 -0.052877963 0.42008144 -0.36441937 0.03467541 0.3195531 0.08801704 -0.17439374 -0.17475732 0.1614071
166 0.44645143 -0.17451414 -0.1444417 -0.014975702 -0.6214196 0.16602294 0.3070069 0.36856574 -0.41724813 -0.32534114 0.5764841 0.6470781 0.012718538 0.56776875 0.13193083 -0.29885864 0.14790273 0.278649 0.007514154 -0.3392997 0.004103936 -0.7135222 0.3285136 0.2572953 0.080822624 0.51139545 -0.32799605 -0.007346852 0.2463681 0.15743835 0.5179058 -0.37830788 0.022002207 -0.09139974 0.32549682 0.30278626 -0.11250508 -0.08227776 -0.21337236 -0.17500746 -0.69485 -0.0515853 -0.16737075 0.07029174 0.5005076 0.5065215 -0.2270034 0.048129644 -0.2790736 -0.0028117097 0.050249543 -0.1267953 -0.13373648 0.32101923 -0.7356655 -0.01874896 -0.3759041 -0.046248414 -0.3002732 0.1817211 -0.31852496 -0.37404633 0.046983942 0.47073635
16 0.45248297 -0.091748886 -0.045007538 -0.034774713 -0.6278532 0.13669117 0.34512812 0.24900392 -0.383697 -0.25673652 0.51890546 0.64309543 -0.118925884 0.5708826 0.20845318 -0.26662952 -0.044089213 0.3172352 -0.0058923634 -0.36647123 0.06986336 -0.73779446 0.44141805 0.30651924 -0.21480408 0.2982056 -0.21502365 -0.06794421 0.31485048 0.056786083 0.56367296 -0.30141348 -0.023971524 -0.010022713 0.46656135 0.18609048 -0.1676633 -0.14654852 -0.13419563 -0.103778176 -0.67563033 -0.09165126 -0.13499327 0.06966772 0.49995142 0.6618138 -0.006261313 0.04856559 -0.25993803 -0.03258788 -0.14437188 -0.087090164 -0.09577542 0.40871108 -0.7017942 -0.15648548 -0.21905562 -0.052618388 -0.3107232 0.27353528 -0.31559682 -0.34941927 0.20375682 0.45972642
46 0.57907265 -0.46511802 0.4450467 0.2994091 -0.28893837 0.9311137 0.21771955 -0.3083189 -0.30235168 -0.20469995 0.37501866 -0.14315435 -0.31312752 1.0744586 0.27036878 1.0333847 0.8069175 -0.043929063 0.26437667 -0.76307 -0.014215439 -0.77805656 0.2136361 -0.18349545 -0.08594459 0.2634782 0.5091718 -0.0087644905 0.4355509 0.5903442 1.1692642 -0.50162214 -0.40561327 0.49839157 0.5531197 -0.5695776 0.20316628 -0.1952244 -0.37853262 -0.24253085 0.71367437 0.0029531787 -0.35712308 0.036314696 0.2012406 0.23111698 0.16817741 0.025186658 -0.7813736 0.9069605 -0.49926716 -0.27851835 0.294331 0.36420655 -0.67223287 -0.51748085 -0.5308696 -0.98442113 0.7598084 0.22720872 0.09320029 -0.3530406 -0.49795288 0.37202418
124 0.5244686 -0.53293556 0.22680026 0.3816199 -0.7525831 0.20953186 0.7454595 0.16926248 -0.3397988 -0.27405813 0.4854433 0.6096307 -0.19420393 0.67149836 0.31268123 -0.49785933 -0.20172285 -0.25533655 -0.00014760606 -0.25343832 0.235943 -0.7751709 -0.040698633 -0.049111124 0.02099283 0.34822708 -0.5491864 0.25175917 0.21765141 -0.2215267 0.9275073 -0.24341992 -0.11335751 -0.50766575 0.70788646 0.003725668 0.33041954 -0.029074656 -0.46470994 -0.1255065 -0.5674437 -0.35154393 -0.26203528 0.023843087 0.43332803 0.7000218 0.10694366 0.21925645 -0.36066294 -0.07293019 -0.1263861 -0.07538369 -0.39109254 0.3961485 -0.5606891 -0.24038233 -0.3337843 -0.12153882 -0.5240832 0.59541017 -0.3062569 -0.3871276 -0.057733674 0.17306697
149 0.4923865 0.1152566 0.06984497 0.49645978 0.1745137 0.8853997 0.9205173 0.22104622 -0.369578 0.043523833 -0.6446716 -0.2616577 -0.15660681 -0.4202564 0.3960592 -0.2696645 -0.59947324 -1.2264024 0.07550182 -0.5795697 -0.22654484 -0.6007009 -0.1319763 -0.14360502 -0.492856 0.87666595 -0.08534025 -0.60917056 0.8076366 0.6052762 0.83433825 -0.29013282 0.5990289 0.39042434 0.231555 0.124362655 1.0822427 1.0565103 -0.3514084 -0.22771116 -0.4532159 0.78750455 -0.27343598 0.3432945 0.36305618 0.44650272 -0.5580901 0.11672978 -1.1166484 -0.22602692 0.44019178 0.5162084 0.7867991 0.7934609 -0.75403947 0.33188894 -0.56052476 -1.0258505 0.21242483 0.020685542 -0.7951399 -0.18542387 -0.35064635 0.29045448
201 0.45177218 -0.4837651 0.07825694 0.20877934 -0.043727227 0.62077796 0.34744292 -0.046563238 -0.57390636 -0.7822902 -0.081938125 0.42754045 -0.07889532 0.6428296 -0.26765567 0.0925643 0.34412402 -0.2891936 -0.32651988 -0.7402089 0.050974373 0.033148903 0.2574771 -0.17470565 -0.13479505 0.13246119 0.24329685 0.07465405 -0.25192752 0.63090634 0.39208785 -0.68480283 -0.17099854 -0.17351222 0.22126386 -0.024275789 -0.049561206 0.09428893 -0.5526092 -0.5255847 -0.2777337 0.12528281 -0.32350236 0.09739955 0.012118609 -0.032806806 -0.5877447 -0.1424246 -0.4306032 0.19795048 -0.6523228 0.06396505 0.20790689 0.502876 -0.69255954 -0.36404663 0.26577067 0.22522813 -0.026420716 0.17054892 -0.059653312 -0.5202678 -0.5007705 0.8464151
157 0.8350123 0.018353991 0.23223084 0.22812138 -0.31075957 0.28639674 0.49265894 0.109071255 -0.047553413 -0.6193755 -0.022547184 -0.07662374 -0.30860475 0.16035715 0.34455258 -0.11487666 -0.029085489 0.115402065 0.7105576 -0.8502138 -0.18972103 -0.61329484 0.771316 0.15164866 -0.44926423 -0.074602105 -0.850218 -0.19489224 0.28239247 0.18469587 0.38493425 -0.20598213 0.277928 0.43536055 0.19454364 0.20078473 0.026067076 -0.35818014 0.08345824 -0.095802456 -0.2983586 0.4798241 -0.077343866 -0.025725791 0.5295737 0.9033947 0.075720735 -0.35567322 -0.09785249 -0.2731361 -0.08241463 -0.3150719 0.10368116 0.15370272 -0.21161947 0.07669967 0.15414438 -0.7009747 -0.26917416 0.2347335 -0.079771236 -0.6216303 -0.38456234 0.058626678
75 0.38786304 -0.012324722 0.37784338 -0.14470422 -0.17594385 0.17956972 0.34257713 0.5071475 -0.12742575 -0.09632559 -0.2415681 -0.020997588 -0.110367395 -0.14127332 0.112796955 -0.30152005 -0.11619505 -0.6783448 0.057085153 -0.88580316 0.015490361 0.50187093 -0.1539865 -0.22142911 -0.43673173 0.21933866 0.014366946 0.33159745 0.16716857 0.29052782 0.1764952 0.16011529 -0.08583907 0.4915386 -0.12783621 -0.25145274 -0.096247025 0.005556282 -0.14257069 0.24532983 0.27435365 0.3663938 0.026496973 0.09654476 -0.106435016 0.61384225 -0.21666455 0.172385 -0.4703831 -0.24183525 0.35617638 -0.068661846 0.6595571 0.28059992 -0.20272179 -0.34797746 -0.5347711 -0.6031257 -0.42656368 0.6258612 -0.14205483 -0.01065032 -0.13791992 0.340613
161 0.8811176 -0.09158246 0.20790191 0.15588354 -0.34273422 0.4736236 0.6100409 0.10398262 -0.18152794 -0.48337236 0.19304231 -0.09717638 -0.43987817 0.11134624 0.43704575 -0.14130946 -0.12451803 0.075063206 0.5730225 -0.7032798 -0.20336346 -0.57168394 0.7666643 0.23970348 -0.57666993 -0.1607071 -0.7949273 -0.08986687 0.27646506 0.1837626 0.3356201 -0.2780528 0.20336781 0.37406278 0.26389915 0.24293561 0.014036862 -0.29368764 -0.037102085 -0.11641567 -0.1997375 0.36486703 0.10448682 -0.06796078 0.5583616 0.7052363 0.2332235 -0.24901827 -0.04393587 -0.3767634 0.033873476 -0.048328187 -0.1524043 0.0510453 -0.5178931 0.043926876 0.12986235 -0.48065144 -0.3097754 0.30906847 -0.2617866 -0.72394574 -0.4789643 0.093654215
2 0.40582556 -0.38664445 0.091339864 0.48649845 -0.36514726 0.5893375 0.36140454 0.11648298 -0.25403038 -0.35005173 0.30397922 0.17952098 -0.041606493 0.69847065 -0.13836983 0.15764377 0.02618927 -0.1409956 -0.005287541 -0.5040321 -0.015983222 -0.26570758 -0.051942278 0.34387857 -0.01837167 0.58177686 0.39723322 0.09635959 -0.30225727 0.5049008 0.35103458 -0.1596325 -0.4283582 -0.22293401 0.10573778 0.2039271 0.065081045 0.18014432 -0.49537304 -0.047358368 -0.09903109 0.12985848 0.009958715 -0.16839951 0.14191908 0.58348155 -0.1602595 -0.20911132 -0.53814894 0.5251531 -0.41148734 0.10398486 -0.13447843 0.50541764 -0.7622307 0.03497816 -0.20628181 -0.24096404 -0.00866252 0.17017385 0.4057493 -0.39573795 0.1420424 0.92096585
206 0.47966316 0.09054129 0.21130806 0.23725773 -0.49738336 0.639257 0.65468 0.35034013 0.08232568 -0.5357529 0.019474432 0.051126078 -0.4478355 0.23068672 0.28408337 -0.20883027 -0.09930528 0.03591423 0.40882987 -0.6693799 -0.20928812 -0.5639091 0.27532917 0.055841446 -0.2930274 0.4281245 -0.64967227 0.12222924 0.37160552 0.3758277 0.15380786 -0.41531503 0.35607848 0.86025196 0.16951624 0.47362435 0.060074195 -0.039313484 0.29421335 -0.28046829 -0.40875685 0.49962 -0.17050232 0.026080137 0.5820357 0.80019003 0.18605399 -0.28480706 0.13068363 -0.39521027 0.011040278 -0.19122803 0.33553514 0.26078504 -0.21998417 -0.06743624 0.25904694 -0.44284394 -0.18604271 0.30832082 -0.2936713 -0.6617448 -0.23386355 0.11689449
190 0.45719308 -0.04324916 0.702174 0.31218186 0.13161485 0.2546926 0.16093008 0.41536745 -0.124007136 -0.05410992 -0.4568575 0.0035070432 0.02436787 -0.31320864 0.6139282 -0.13961828 -0.014360962 -0.26964697 0.5259115 -0.84429693 0.028204067 0.40189067 -0.25340956 -0.3808056 -0.10334075 0.027966816 -0.12499364 -0.11432484 0.044055257 0.099083796 0.2097964 0.40237603 0.16192299 0.891513 -0.02411932 0.026573507 -0.22190273 0.06246541 -0.29169655 -0.057867322 0.04517236 0.49073035 0.1802188 0.15135309 0.3026384 0.28080043 -0.23970005 -0.017955022 -0.23459162 -0.028733755 0.15014908 0.017831646 0.5756644 0.18261103 -0.57849854 0.044851623 -0.6129283 -0.55860496 -0.28174117 0.50409937 -0.3806245 -0.007414994 0.18969636 0.42608395
127 0.5882646 0.1310388 0.27607366 0.39066562 -0.36784953 0.79084444 0.7268869 0.31418413 0.09533833 -0.41409138 0.060457952 0.20326494 -0.4614917 0.15860128 0.31621417 -0.23812644 0.011419315 0.05052453 0.45698455 -0.63863087 -0.088668354 -0.59344393 0.44432348 -0.008302072 -0.33702463 0.56718576 -0.39277837 0.016598426 0.41193616 0.11987819 0.31428918 -0.37323627 0.43416965 0.75361055 0.27634895 0.4421592 -0.015496832 -0.034940403 0.1547445 -0.2233355 -0.257855 0.4108251 -0.35779294 -0.16535912 0.5851127 0.8839675 0.14098121 -0.20011504 0.14252777 -0.412593 -0.045273177 -0.27966657 0.23589054 0.25989437 -0.33982903 0.0022435784 0.23441906 -0.4467129 -0.3480351 0.27272275 -0.32790425 -0.5130719 -0.2112199 0.0101675615
41 0.41254696 -0.16440408 0.0081866 -0.06777058 -0.19865394 0.16246817 0.44988832 0.3431075 -0.29089448 0.19023755 0.08452821 -0.34553015 0.085511275 -0.19072707 -0.14846268 -0.24616374 -0.47878003 -0.3626413 -0.104490384 -1.1461641 0.3340342 0.2070457 -0.13373102 0.03842296 -0.3650393 0.16384925 0.03704507 0.10717266 0.47702694 0.5770351 0.28968048 -0.0660796 -0.20706606 0.33733645 -0.3789577 -0.27731898 0.0001529735 -0.11674162 0.039563634 0.17457828 -0.08171268 0.00015197779 -0.20905851 -0.36133718 0.094486214 0.05265102 -0.523473 -0.03742103 -0.5614604 -0.08355409 0.6313614 -0.5124165 0.20582372 0.2752898 -0.23923732 -0.7341963 -0.52838343 -0.79512537 -0.013299299 0.5855943 -0.22672372 -0.26524895 -0.047401287 0.20837525
19 0.418573 0.23921522 0.24118818 0.14131513 0.105842024 0.39040986 0.38404644 -0.110265575 -0.11617777 -0.43608788 -0.14142565 -0.17944111 -0.31192482 -0.11187447 0.49002257 0.005000601 -0.34223834 -0.19649006 0.24521585 -0.87297803 -0.20728436 0.016755989 0.46997586 0.08618791 -0.37092358 0.5152798 -0.7246882 0.07209188 0.28944775 0.8284456 0.12543951 0.11254403 0.5184935 0.71078175 0.34977207 0.08088011 0.12923747 -0.23500213 0.13758114 -0.0011832775 0.121146284 0.44339934 0.06496134 -0.08581043 0.5155581 0.6746628 0.33450904 -0.3223158 0.07084685 -0.25023898 0.032932833 -0.124217056 0.32021692 0.20402831 -0.29961586 -0.04709643 0.41270936 -0.7275731 -0.07046674 0.5205982 -0.2430047 -0.17593147 -0.12853634 0.37520877
85 0.59340495 -0.1778339 -0.024085667 0.4198525 -0.40307158 0.31957912 0.36357826 0.20758648 -0.22673965 -0.51387185 0.2674673 0.17333454 -0.07353972 0.77085376 0.06744348 0.41335344 -0.08770438 -0.32389116 0.22635968 -0.6107309 0.2919307 -0.24224937 0.11151749 0.4263579 0.004392696 0.553459 0.5670571 -0.13697319 -0.15007329 0.57553697 0.4312258 -0.35527998 -0.6324442 -0.2528934 0.11382012 0.11584208 0.107331574 0.07107156 -0.35024178 -0.092282034 -0.035346057 0.2496015 0.05206035 -0.12995246 0.23720002 0.38064107 -0.31245127 -0.02714857 -0.7228368 0.42633837 -0.53473073 0.21288697 -0.1264556 0.33941624 -0.56853896 -0.10407377 -0.026790405 -0.2723064 0.06413668 0.15524554 0.19543526 -0.36875266 -0.12206463 0.860079
48 0.5220034 -0.08455096 -0.1251263 0.09253468 -0.34806514 0.139473 0.29902908 0.08664894 -0.22004993 -0.26138586 0.40798166 0.19381015 -0.31451964 0.47878557 0.19369873 -0.12324854 -0.007839677 0.33506557 -0.051363543 -0.5586043 0.1720127 -0.69514036 0.6286903 0.2538082 -0.2944803 0.46901697 -0.5588127 -0.024463046 0.54709584 0.23268367 0.76222616 -0.550678 -0.053564236 -0.33798808 0.32850382 0.18318875 -0.30393258 -0.41734982 -0.51941717 0.01254958 -0.62330204 0.6310867 -0.116508156 0.14793947 0.34928614 0.54858726 0.0027752519 -0.047358386 -0.11796057 0.111750364 -0.103190675 0.16087139 0.08694512 -0.20063923 -0.48248076 -0.27329266 -0.5467701 0.23457153 -0.4784801 0.17718267 -0.31685138 -0.5569921 0.33537975 0.39871362
52 0.24752118 -0.36319882 0.012827922 0.22995302 -0.14309229 -0.019323822 -0.022113785 0.39534894 -0.041740343 0.107102975 -0.44648725 -0.016844105 0.26176584 -0.22693926 0.1054938 -0.3021868 -0.27689233 -0.32237196 -0.010449604 -0.8149276 0.21905546 0.3571448 -0.13592875 -0.38498253 0.08942959 0.33665267 -0.15076971 -0.16961384 0.6350935 0.53656673 0.28162703 -0.40688497 0.27008343 0.87535477 -0.34199443 -0.098975725 0.15395463 -0.2922189 -0.00897083 -0.033902217 -0.014343144 0.27626386 0.136111 -0.66805625 0.23396625 0.5690497 0.021333858 0.15173593 -0.31592146 0.022805938 0.3339967 0.0325201 0.29258478 0.21360686 -0.18992603 -0.34202304 -0.18383609 -0.7661321 0.0026326843 0.6359469 -0.2593186 -0.1813643 -0.4403948 0.28530994
15 0.6074635 -0.044459376 0.13866776 0.034007397 -0.62523323 0.697121 0.70926815 0.36472645 -0.26561978 -0.2698578 0.5893903 0.5940832 0.00046608908 0.48431513 0.30554247 -0.034509603 -0.124670886 0.02947589 0.01913828 -0.2023688 0.13959791 -0.9277742 0.4132422 0.47481936 -0.34358394 0.2989342 -0.32563475 -0.13005887 0.36748153 0.45399645 0.5838787 -0.13977447 0.24141696 0.12366939 0.43800858 0.27343157 -0.06706016 -0.14540856 0.22279231 0.17409788 -0.45954338 -0.056882247 -0.11592769 -0.05045794 0.6748821 0.5679725 0.19553632 -0.2644403 0.10366648 -0.102961354 0.07540487 -0.18884066 0.025942843 0.37361506 -0.3771208 -0.26182055 -0.0673954 -0.17115651 -0.57885414 0.28134355 -0.23054226 -0.54391325 0.23881875 0.27393773
168 0.5321293 -0.26680335 -0.18201448 0.44949043 -0.37301087 0.32674462 0.16438216 0.114809446 -0.078288704 -0.4708788 -0.19993336 0.0010465828 0.013872051 0.4309827 -0.10321852 0.10694455 0.41609776 -0.3970014 0.47810286 -0.41613796 0.48862845 -0.010723889 0.2327356 -0.28059828 -0.16769804 0.6393288 0.30164963 0.16733819 -0.15778853 0.8286536 0.68421227 -0.17873769 -0.41900426 -0.25228614 0.27604225 0.43980548 -0.31911412 -0.15449624 -0.47957194 -0.40732604 0.25491816 0.2427949 0.012501426 -0.11070203 0.6271522 0.4702093 -0.65174365 0.093751 -0.19957025 0.3712344 -0.54540205 0.03301597 -0.03824391 0.91211325 -0.58890176 0.06764236 0.23943305 -0.26503637 0.22290327 0.14756922 -0.13465671 -0.10799633 -0.21859154 0.15431811
196 0.45030576 -0.12761615 -0.1971319 -0.09184246 -0.60026133 0.14043306 0.1985979 0.42421064 -0.27077007 -0.41088066 0.60910326 0.62076837 -0.10194745 0.5962792 0.15254508 -0.29769403 0.06814148 0.31347078 -0.024079107 -0.4703646 0.059111394 -0.7414358 0.34770235 0.27055785 0.0132692605 0.33052522 -0.39762408 -0.07232795 0.2730195 0.1824464 0.5244267 -0.37410715 -0.10498314 -0.07469232 0.42265022 0.3374643 -0.024149602 -0.2814323 -0.32798442 -0.23245248 -0.64594126 0.014569387 -0.20034274 0.046288323 0.36014563 0.5036371 -0.122057885 0.039696157 -0.32329828 -0.07940672 -0.013388665 -0.067916684 -0.16813585 0.25353786 -0.8228857 -0.15715314 -0.41300172 -0.048846576 -0.23286718 0.24084796 -0.26237413 -0.36332494 0.17111833 0.41315764
125 0.45561615 -0.30777174 -0.067322716 0.5299568 0.06487058 0.13552485 0.5367896 0.5394286 -1.0171794 -0.0069558066 -0.20693155 -0.032777347 0.3958672 0.966783 -0.18812798 0.20335296 0.36958876 -0.14645185 0.3978214 -0.38513973 -0.019231638 0.12932803 -0.17728868 -0.2234303 -0.0038785674 0.55183846 -0.15581232 -0.02006873 0.13047771 0.9834745 0.6277756 -0.12022014 -0.23844801 -0.10347274 0.40270573 0.36937985 -0.097130485 -0.04848599 0.013156172 -0.24558547 -0.16198851 0.6332328 -0.03535486 -0.09963444 0.09049586 0.5907894 0.004407754 0.13241199 -0.44276288 0.39115044 -0.6234043 0.19570154 -0.052398216 0.019285636 -0.49495327 -0.24810813 0.015891945 -0.19316888 -0.029812062 -0.038798068 -0.49414656 -0.56728035 0.8060444 0.6106814
27 0.63244134 -0.30024123 -0.009379552 0.48261267 -0.47887588 0.4831347 0.30140653 0.28289315 -0.21317232 -0.4367582 0.2635959 0.18382826 0.108923376 0.63494647 -0.13361542 0.3991891 0.019958748 -0.3967881 0.304882 -0.8067308 0.23833239 -0.21968752 0.016078185 0.5549659 0.014029583 0.50360966 0.501118 -0.092360884 -0.29814458 0.6438435 0.38878146 -0.42618904 -0.4339642 -0.18048894 0.13513926 0.10476305 0.19447996 0.23544015 -0.33630353 -0.2518002 0.022313757 0.16374068 0.003842591 -0.02895369 0.14005515 0.28969112 -0.31681558 -0.09549404 -0.6447846 0.42438525 -0.42058533 0.15750186 -0.2464586 0.3642663 -0.6854582 0.028285436 -0.18078694 -0.22565487 0.13385594 0.20585656 0.35061678 -0.32316038 -0.06522696 0.8054735
193 0.50879794 0.04296772 0.21752523 0.21087536 -0.56407064 0.6424957 0.71887165 0.31718087 0.008491751 -0.36961898 0.34069946 0.011755709 -0.4403331 0.24672477 0.3164977 -0.064132996 -0.04651734 0.052239075 0.3284015 -0.38337603 -0.10191015 -0.97979057 0.25993901 0.39968103 -0.53947556 0.11583556 -0.54530567 -0.006281381 0.24513799 0.24597047 0.45020866 -0.32507107 0.0623588 0.65817827 0.5480955 0.38854295 -0.0032191481 -0.122665174 0.117479764 -0.096964605 -0.48265046 -0.08035071 -0.076547004 -0.1560564 0.6628939 0.59042835 -0.12926036 -0.21700461 0.18722871 -0.14990498 0.26880175 -0.07989763 0.0251346 0.29459462 -0.56390476 -0.05716724 0.07998832 -0.40394178 -0.3914383 0.12541655 -0.23724398 -0.93001395 0.2741926 0.17969808
91 0.7874435 0.0228515 0.14843713 -0.2032656 -0.69003916 0.29386613 0.470651 0.20973697 -0.19734828 -0.2721893 0.5207933 0.37701657 -0.35891247 0.71924603 0.49717814 -0.103225805 -0.17708343 0.039635148 -0.1298456 -0.65596884 0.28597674 -0.9768636 0.26392275 0.31204486 -0.36307207 -0.007767029 -0.5489787 -0.1185682 0.3645039 0.33167696 0.6488084 -0.31246573 0.2756239 -0.09652021 0.310603 -0.08242752 -0.11779014 -0.028362144 -0.33818358 0.114792705 -0.6232163 0.100321 -0.015794506 0.16561241 0.55463356 0.6568469 0.19938399 -0.016425416 0.011698076 0.12127259 -0.2283634 -0.083955444 -0.09502449 0.21196185 -0.44496357 -0.29345742 -0.17384039 -0.051540792 -0.4858506 0.19902492 -0.22006556 -0.4555473 0.27654374 0.09810494
9 0.28218913 -0.3047538 0.10733945 -0.16163182 -0.29362687 0.23720115 0.43039358 0.3326817 -0.25145143 0.21887332 -0.21300575 -0.07227897 -0.07820249 -0.5519523 -0.29820064 -0.13016851 -0.053297993 -0.45213217 -0.25140905 -0.9857437 0.68583554 0.5755863 0.3221098 -0.16093375 -0.5828332 0.26528394 -0.030709868 0.3148468 0.5585194 0.23712248 0.2569461 -0.1266784 -0.34896162 0.4289571 -0.18128178 -0.38238505 0.23894878 0.010058816 -0.061850633 0.08144118 -0.08423783 0.5099367 -0.08114684 -0.38097468 0.042535655 0.11378124 0.06175064 -0.10101871 -0.11146727 0.13341236 0.21939659 -0.19520238 -0.22878847 0.2802289 -0.39710683 -0.5564308 -0.8110353 -0.9992497 -0.37167308 0.41337147 0.05992053 -0.27138466 -0.008992175 0.4221869
80 0.9092075 -0.28567296 0.17998837 -0.061063353 -0.261615 0.5241147 0.7505769 0.13267978 0.17058069 -0.4947913 0.22513099 0.095098846 -0.41506785 0.04261747 0.46507838 -0.2692696 -0.016539985 0.25988716 0.5203056 -0.75702703 -0.12327563 -0.65964174 0.5600336 0.30538467 -0.7822142 -0.119258665 -0.8994466 -0.22888619 0.26746002 0.21682513 0.50097483 -0.14507617 0.14046198 0.28972638 0.3475133 0.3309834 0.033262312 -0.41315362 -0.112121895 0.0012020322 -0.40939134 0.32635212 -0.23063079 -0.07058805 0.46986362 0.5726165 0.10576602 -0.30904365 0.12198144 -0.29062432 -0.006996516 -0.14124846 -0.10520634 0.1970052 -0.4117008 -0.06517777 0.15728432 -0.41770092 -0.22755846 0.2825312 -0.22803496 -0.52643126 -0.23451246 0.3024482
79 0.60205674 -0.13297182 0.019624267 0.49839568 -0.5216197 0.4800442 0.27753976 0.092580505 -0.35268936 -0.38806286 0.21643664 0.022778628 0.06376928 0.7013325 -0.06900253 0.46084857 -0.13392995 -0.07492371 0.18711132 -0.642141 0.19770753 -0.27966437 -0.12814009 0.49233893 -0.00843802 0.66245294 0.66322225 -0.016106654 -0.3608842 0.6543177 0.31404084 -0.31442574 -0.51542103 -0.079639 0.1267212 0.25120914 0.032294698 0.09354472 -0.3897597 0.011880264 -0.10070995 0.17818022 0.10069346 -0.07234047 0.19952935 0.45966923 -0.20037118 -0.01598984 -0.52681345 0.53000396 -0.4025634 0.15571523 -0.24200396 0.46417353 -0.8542521 0.029894546 -0.2747566 -0.32706648 -0.04249237 0.3052492 0.49251023 -0.21796033 0.026696546 0.993477
202 0.41187105 -0.24053147 0.09287032 -0.57361776 0.34992734 0.26246625 0.33695993 0.8526479 -1.1084731 -0.5115683 0.6192852 -0.6631659 0.35277075 0.35939977 -0.039810956 0.19110273 -0.088863455 -1.3345343 0.46206215 -0.41049582 0.86363333 -0.14497344 0.39264563 -0.41313908 -0.07969745 0.28221494 -0.14825125 -0.04206416 -0.65276223 0.68541825 0.60468984 -0.839477 -0.15649477 -0.2063817 0.26016337 1.0710309 -0.21998431 -0.45524445 -0.43715796 -0.18449888 -0.044966467 -0.40266633 0.17042102 -0.054800626 0.42430523 0.07084775 -0.021972824 -0.33043292 0.24393687 0.7300953 -0.43039826 0.48122713 0.13217194 0.87272006 -0.9370922 0.067185126 0.09758585 -0.33470765 0.19521195 0.6230116 0.18729301 -0.5351866 -0.65203726 0.90516144
13 -0.0365966 -0.17772639 0.049378704 0.40735024 -0.1532153 0.51065534 -0.07504753 -0.06835189 -0.39560786 -0.3527691 -0.4003876 0.15743041 0.5518053 0.46290088 0.33001488 -0.10842238 0.15677983 -0.54084426 0.13849884 -0.26630172 -0.11468089 0.5188274 -0.07844597 -0.28181517 0.057029694 0.74427885 -0.3410384 0.5349363 0.022356614 0.73874503 0.86094904 -0.25698942 -0.037916094 0.0008788215 0.14355116 0.015389854 -0.27819744 -0.17851454 -0.38816282 -0.30273232 -0.23857063 0.54417264 -0.104080044 0.22899222 0.18116124 0.14028375 -0.24454625 -0.21291058 -0.5831379 0.17028864 -0.13166706 0.34011018 0.3107086 0.41919133 -0.78623426 0.33546525 0.102731235 -0.55375797 0.13102542 0.42418936 0.041888114 -0.14347395 0.24982892 0.37957796
204 0.42199433 -0.16467309 0.048039418 -0.4211443 -0.3764808 0.4753544 0.46379894 0.15223616 -0.19014123 0.008616495 -0.26060954 -0.10413406 -0.27382797 0.016269177 0.11760123 -0.10792262 -0.13500477 -0.5922162 -0.30729082 -1.1028422 0.35346985 0.3830076 0.11535289 -0.26399937 -0.05761833 -0.00224165 -0.19978206 0.45966288 0.47428668 0.341874 0.22888091 -0.08769713 -0.20515469 0.2289236 -0.4650335 0.027423663 -0.15091634 0.28765383 -0.16507316 0.092626415 0.124765754 0.1939636 -0.25689957 -0.40668696 0.06281234 0.15729064 -0.07929355 -0.07962815 -0.49705216 -0.14781374 0.8072548 -0.34254065 0.04813045 0.19311877 -0.27459407 -0.8723284 -0.60747856 -0.93798345 -0.17601824 0.30944306 0.12235253 0.1161508 0.15682495 0.613455
101 0.49403188 -0.04745457 -0.021704901 0.013229043 -0.3810941 0.36199018 0.07219351 0.31045225 -0.1980038 -0.13662007 0.33452484 0.5388283 0.35579038 0.5556301 -0.08343964 0.0051179198 0.18772165 0.29328024 -0.04439545 -0.584392 -0.06968028 -0.4183108 0.18758434 0.4263712 -0.0030725866 0.32414144 -0.19860245 0.095308885 0.1973184 0.24808958 0.70715505 -0.44739947 -0.05411274 -0.39536324 0.5554784 0.45207047 0.013324825 -0.047979247 -0.378187 -0.31416363 -0.45392197 -0.14678735 -0.100684 -0.0060705184 0.26876423 0.72015697 -0.22580616 0.29075614 -0.11706534 0.008414863 0.019109162 -0.021166475 -0.14457372 0.5481251 -0.9131178 -0.13305487 -0.03187584 0.22682722 -0.12660795 0.12319118 -0.27370748 -0.41814128 0.15023184 0.38533133
133 0.33144802 0.009458143 -0.017085712 0.18934353 -0.5008618 0.6322919 0.05494947 0.17962599 -0.43064535 -0.33395043 0.47640908 0.47793877 0.15938215 0.5009116 -0.072900675 -0.10090192 0.28222486 0.17907046 0.03582533 -0.6173727 -0.036326725 -0.4792652 -0.12984133 0.3901866 0.06011612 0.17131694 -0.15833634 0.1364387 0.24624352 0.23696393 0.6992271 -0.41575408 -0.23475035 -0.53649163 0.5945124 0.19138008 0.19224788 -0.12552035 -0.30663523 -0.25123248 -0.6261556 0.017590981 0.15575491 0.0206895 0.22073564 0.4815935 -0.23480633 0.24493727 -0.05647207 0.10864646 0.16642314 -0.09766064 0.048970934 0.76417744 -0.8747287 0.105513565 0.0349076 0.061474964 0.16050498 0.020770298 -0.20742916 -0.37966958 0.09306202 0.4066537
29 0.43988597 -0.4733492 0.007702341 0.01662293 -0.35857642 -0.008457458 0.26362425 0.13514805 -0.30056477 -0.28377047 0.50427854 0.18890761 -0.21177481 0.5316785 0.23088895 -0.2846482 0.22276594 0.26985785 -0.27467957 -0.48929226 0.1754322 -0.6707537 0.85539645 0.457407 -0.41696152 0.48769855 -0.4216753 0.032210417 0.5717411 0.15726733 0.8499537 -0.41073743 -0.068633065 -0.24369498 0.255432 0.36031514 0.0018622217 -0.18360515 -0.22224335 -0.042529095 -0.70284426 0.36437228 -0.29840046 0.15931955 0.4232549 0.40230453 -0.29228768 -0.02436498 -0.34065813 0.08714327 -0.15301266 0.10528528 -0.0052052983 -0.1860691 -0.8929832 -0.06579402 -0.73839885 -0.02717937 -0.441612 0.10231877 -0.2787103 -0.4354153 0.2251865 0.28041154
184 0.6943645 -0.4144475 0.01788202 0.48465967 -0.228615 0.6782071 0.1672593 -0.20436676 -0.39752117 0.08273403 0.46736872 0.08854272 -0.01127197 0.9403773 -0.2689989 -0.09414944 0.14225538 -0.14157398 -0.096165955 -0.51978636 -0.06806225 -0.26041248 -0.33717215 0.2530329 -0.35264373 0.42935216 0.5267877 -0.44872844 -0.25049576 0.5043421 0.42577747 -0.4712145 -0.17690565 -0.2672155 -0.012748081 0.29783803 0.20682399 0.20022894 -0.37570888 -0.6894741 -0.25722864 0.19415468 0.29107845 0.012790922 0.29753608 0.38886967 -0.083545096 -0.1860612 -0.49189532 0.1910928 -0.17886013 0.16990316 -0.07945844 0.46735227 -0.88771486 -0.16593927 -0.28080326 -0.17597955 -0.15051618 0.15007564 0.3768077 -0.33153123 -0.0023564484 0.7683264
191 0.55774623 -0.09623052 0.15081644 0.005261496 -0.45825326 0.676507 0.740752 0.21869463 0.04379131 -0.39411128 0.33557174 0.17484024 -0.25342816 0.4169674 0.38936907 0.051247463 -0.017759945 0.10036354 0.18761016 -0.51774514 0.14785743 -0.9017123 0.24611405 0.45956814 -0.43754092 0.18297833 -0.6134408 -0.03469177 0.23924384 0.29529706 0.51508236 -0.3123854 0.33444604 0.46793956 0.6261002 0.42880553 -0.05202377 0.016260251 0.0057624965 -0.1443806 -0.38171673 -0.023469372 0.013571371 -0.07520768 0.60417163 0.46682873 0.10429804 -0.27242497 0.3206119 -0.1578671 0.30272835 -0.23664388 -0.18352325 0.19095027 -0.5607627 -0.07356181 -0.08875328 -0.41922945 -0.51389176 0.16263087 -0.2474658 -0.8644448 0.2646602 0.16474867
144 0.6502548 0.08399736 0.13458997 0.04645601 -0.75024706 0.59062296 0.57324916 0.08099659 -0.3064044 -0.146821 0.7907204 0.6636013 -0.024435468 0.39494744 0.14398059 -0.012781532 0.002133337 -0.097500615 0.031463318 -0.37437233 0.042284716 -0.863794 0.35238317 0.45237952 -0.30732 0.11878846 -0.5112593 -0.21385677 0.30394801 0.3924981 0.5936212 -0.13445963 0.30227742 0.07602763 0.4964025 0.2932771 -0.01619355 -0.15198822 -0.0931934 0.12139542 -0.5830045 -0.06751755 -0.07939463 -0.02870501 0.60357875 0.5979906 0.036805358 -0.25594115 0.19920447 -0.23059866 -0.11930595 -0.16302016 0.05113644 0.3022525 -0.4592992 -0.2539686 -0.17171174 -0.29628187 -0.44681564 0.2921118 -0.15835822 -0.60368645 0.28482753 0.16940434
33 0.73035014 0.09430311 0.12929045 0.11278882 -0.533848 0.5195202 0.52630174 0.29855752 -0.14664395 -0.25944448 0.5766018 0.571635 -0.07361183 0.6256003 0.27163026 -0.0014445117 -0.16928938 -0.0027385731 0.02451576 -0.275586 0.17312022 -0.8797884 0.36828682 0.43743628 -0.27312955 0.32223463 -0.40795448 -0.30376044 0.24642152 0.32728952 0.61187506 -0.13255787 0.24027696 0.02245235 0.41939828 0.34696686 -0.18583068 -0.15846191 0.028777013 0.27542812 -0.58460206 -0.16066949 -0.16062985 -0.04552279 0.64111143 0.55737495 0.0942097 -0.25670597 0.10782539 -0.11479774 0.020478265 -0.14536196 0.019006519 0.37994322 -0.56863284 -0.22063965 -0.05004969 -0.32355416 -0.52507365 0.21041116 -0.29106733 -0.51851183 0.14015938 0.28921282
78 0.38358822 -0.1820559 0.09920409 0.4679983 -0.51284826 0.512354 0.39535597 0.059435748 -0.29088742 -0.30355984 0.31762058 0.049642228 0.082483895 0.7972328 -0.21885186 0.3250689 -0.06423243 -0.17666459 0.010029064 -0.60016733 -0.17741558 -0.08119554 -0.21856977 0.25004855 0.075023524 0.4723675 0.34445533 0.12505794 -0.31731308 0.5369582 0.3485979 -0.32445356 -0.4467218 -0.0007348853 0.033972055 0.29532683 0.13317844 0.13669793 -0.52589875 0.014133516 -0.15911199 0.14071281 0.12249276 -0.048018724 0.3133747 0.7431461 -0.1312196 -0.14410901 -0.5716934 0.39274013 -0.44583225 0.26577127 -0.30259636 0.40725875 -0.83940256 0.008602885 -0.40985873 -0.13715814 0.20440994 0.08988351 0.35931575 -0.28530902 0.10397161 0.9894386
169 0.40839604 -0.3589394 -0.17805643 0.5043394 -0.28067908 0.38424197 0.35537627 0.1429919 0.0042346087 -0.48810843 -0.18800844 0.15791355 0.11699753 0.4640227 -0.021794641 0.1813459 0.3107526 -0.2828089 0.58413124 -0.51341736 0.61713016 -0.06476298 0.20390536 -0.43907347 -0.14053911 0.6581967 0.18300976 0.2740816 -0.18203996 0.8348286 0.79509443 -0.15472154 -0.6220412 -0.21909304 0.32001996 0.44510478 -0.10023503 -0.101468116 -0.33887827 -0.51135534 0.28113705 0.2717001 0.07130766 0.08808469 0.7618775 0.3989773 -0.65608066 0.08803055 -0.126901 0.35632634 -0.5060058 0.10751505 0.06295861 0.6810086 -0.408506 0.059943788 -0.012443776 -0.31464973 0.314794 0.06271521 -0.053562965 0.0053865034 -0.16350973 0.29678246
136 0.6807199 0.019519778 -0.07725221 -0.25948566 -0.3320499 0.2507058 0.74993753 0.0011188168 -0.33221826 -0.2093435 0.46371356 0.42611846 -0.3972219 0.4761401 0.3956603 -0.25446072 -0.10248897 0.0670326 0.0069617117 -0.7168996 0.050678525 -0.9573879 0.6336175 0.5322046 -0.5016495 0.050664563 -0.6687238 -0.017307887 0.4419142 0.55510193 0.6774672 -0.2323934 0.23044775 0.039110273 0.19627614 0.13311328 -0.32959837 -0.17150885 -0.36088794 0.10724849 -0.69405514 0.06579753 -0.15158302 0.0796675 0.3488217 0.79819906 0.16798314 -0.15858483 0.14634627 0.20141116 -0.094888255 -0.28794515 0.042716738 0.16710392 -0.61192137 -0.39745745 -0.13187379 -0.18932372 -0.52009875 0.003750783 -0.099191114 -0.5245444 0.18259105 -0.014640671
96 0.09109967 0.25178492 0.46236655 0.25216383 -0.45327094 0.82902133 0.63946325 0.34006587 -0.09852645 -0.4513917 -0.09182025 0.17861225 -0.54435396 0.20430066 0.44869998 -0.26872087 -0.056352537 0.1019246 0.037165154 -0.6963519 -0.12890795 -0.53634995 0.11488652 -0.1348368 -0.42367354 0.45392597 -0.36386228 0.020631807 0.2665155 0.46309438 0.3681811 -0.29011732 0.4354509 1.0091207 0.28713456 0.11431538 -0.0041495045 -0.0759256 0.19542144 -0.21407574 -0.31170818 0.58968806 -0.082102604 -0.27147686 0.6771061 0.7682572 0.1251116 -0.14414643 0.038621314 -0.2891881 0.06900025 -0.12013005 0.3754077 0.12654759 -0.23197708 -0.04300404 0.4402248 -0.32230276 -0.16221665 0.3709838 -0.24026883 -0.62557375 -0.27255246 0.038403716
135 0.43084723 -0.4546662 -0.14195962 0.2013124 -0.3949831 0.72099763 -0.0047599464 0.15937932 -0.44280425 -0.01761835 0.039411597 0.24424736 0.07823339 1.0392169 0.020841768 0.01324235 0.11410513 -0.05942072 -0.16440056 -0.6903394 -0.19564928 -0.31930202 -0.06604164 0.26923695 -0.236702 0.4074592 0.0922928 -0.14116527 -0.08475971 0.40673864 0.31419194 -0.49608406 -0.23478498 -0.56270844 0.26643324 0.25107673 0.38428527 -0.04474145 -0.33172202 -0.40833244 -0.5415939 0.03748376 0.0016292679 0.00029821304 0.36190775 0.5367697 -0.3263595 0.103780314 -0.12080813 0.1894238 -0.19352685 -0.053129967 0.021842895 0.33473605 -0.6109047 -0.15359026 0.0008579816 0.036753353 0.16971606 0.13471101 0.03416378 -0.5664904 0.068327464 0.40824443
31 0.11632812 0.38521233 0.03152671 0.15861984 -0.30298162 0.63895357 0.8564176 0.28335822 -0.30048892 0.21616502 -0.76742244 -0.19652222 0.027133003 -0.56786025 0.18675375 -0.011936445 -0.6525954 -0.84170777 0.32698545 -0.8741512 -0.19019595 -0.24647643 -0.16123982 -0.31497857 -0.06290595 0.68106806 -0.11417427 -0.22635049 0.47658125 0.6524885 0.6370946 -0.6170603 0.22065349 0.5361012 0.003246259 -0.08583055 0.617471 0.9765089 -0.15207222 -0.63674396 -0.06631417 0.9560499 -0.020253124 0.092056334 0.34962612 0.5724559 -0.21459293 0.21481687 -0.11459388 -0.25895756 0.19131677 0.2774783 0.52899164 0.20730509 -0.73883945 -0.06061725 -0.22936112 -0.46512288 0.056249123 0.5702429 -0.4306616 -0.02311886 -0.4851768 0.37386343
175 0.5748466 0.25244373 -0.06018024 0.4391727 0.3449084 0.2150699 0.49619585 -0.2266967 0.15569162 -0.430408 -0.27901807 -0.14800547 -0.35432744 -0.08206953 0.018050663 -0.34772676 -0.061302032 -0.18911833 0.5576301 -0.8961021 -0.05554004 0.27786916 0.40716875 -0.20440859 -0.29243174 0.32891595 -0.5483176 -0.14367028 0.3079178 0.8131077 0.4618615 -0.16012849 0.3155082 0.63999325 0.0632914 -0.25604886 0.07865782 -0.34812072 0.1708968 0.10433344 0.28668433 -0.026091974 0.12163965 -0.30249864 0.27719504 0.46926153 0.19441345 -0.38818812 0.10164001 -0.21040258 0.08573958 -0.10052442 0.3131358 -0.031113608 -0.5151453 -0.07574912 0.3875783 -0.59501874 -0.22033228 0.47016978 -0.11120047 0.09682457 -0.24801503 0.44949776
173 0.5029411 -0.43791232 -0.0035079883 0.25561577 -0.075588085 0.39446062 0.23818289 0.23234567 -0.041202076 -0.3218604 0.13504502 0.18491988 -0.09701321 0.46112296 -0.029620826 0.49275076 0.29529962 -0.32297927 0.43758884 -0.5064729 0.50024897 -0.08484817 0.13924007 -0.107905604 0.12727986 0.5680705 0.40465248 0.16827849 -0.13641809 0.78745514 0.4693241 -0.16860107 -0.43041873 -0.22664593 0.07899118 0.383405 0.10519022 -0.11865119 -0.32941192 -0.43683106 0.2621952 0.37443164 0.32309857 0.12695126 0.6266683 0.5724248 -0.74038184 0.095479175 -0.2651193 0.3443124 -0.61604494 0.19714417 -0.29311427 0.8727152 -0.8406296 -0.16179031 0.20365113 -0.47767788 0.50266016 0.33436182 -0.034698855 -0.12732829 -0.17990758 0.1747795
68 0.41679054 0.2986314 0.37843013 0.30968142 -0.12043726 0.751796 0.33374342 0.057351407 -0.38616943 -0.56313753 -0.49735862 0.25261405 -0.327552 -0.22366239 0.34899265 -0.33450657 -0.06848052 -0.18438418 0.33417064 -0.7693875 0.12281442 -0.1058557 0.002643009 -0.1695661 -0.32327905 0.31034717 -0.36253554 -0.25690734 0.3092918 0.7041109 0.19773729 -0.15782297 0.15179466 0.9868946 0.14327782 -0.064557254 0.0910157 0.094815396 0.08939547 -0.01750485 0.028675843 0.21261455 -0.10505965 -0.334466 0.6987981 0.7367206 0.1481009 0.09142884 0.2617367 -0.15441751 0.23960876 -0.16689615 0.46906105 0.12180808 -0.3633531 0.021140432 0.45566952 -0.46403965 -0.058143295 0.44112498 -0.074735545 -0.29286596 -0.18265058 0.23153038
98 0.32209086 0.18197124 0.3199217 0.44731715 -0.32092804 0.7337566 0.37719527 0.2573632 -0.18956584 -0.4786229 -0.43575326 0.095472075 -0.45443407 -0.048192997 0.31823888 -0.12549591 -0.42976624 -0.32372713 0.110620216 -0.72654927 -0.05546424 -0.19800994 0.06503383 0.106051035 -0.54630315 0.410463 -0.23429632 -0.2993609 0.35414502 0.643057 0.26966628 -0.066424 0.16219646 1.0364186 0.20748115 -0.0051355045 0.13278936 0.11633057 -0.080539614 -0.10064864 0.006422657 0.3943924 -0.06425189 -0.5273817 0.7278867 0.71129423 0.32789403 -0.019407704 0.21667917 -0.23712829 0.12428487 -0.24463357 0.5242996 -0.04102878 -0.43348816 -0.07475865 0.64684004 -0.4769673 -0.13737252 0.30930483 -0.038691256 -0.28742766 -0.28864858 0.17131194
57 0.5225919 0.17556761 -0.1535487 0.276192 0.1912099 0.3585652 0.7456995 -0.25462124 -0.07620701 -0.40155682 -0.18495938 -0.20436068 -0.44790792 -0.3063827 0.5434096 -0.008010437 0.014683222 -0.2500245 0.55123425 -0.83598125 -0.2412878 0.21799217 0.26923037 0.0018975245 -0.47045296 0.34869453 -0.5024365 0.007936689 0.1824202 0.8467905 -0.02237074 -0.27421427 0.790346 0.59916663 0.23337789 0.24666393 -0.0032412424 -0.5183214 0.2457291 0.12022116 -0.09742311 0.0726754 0.3782712 -0.09248125 0.6620483 0.52495736 0.36630931 -0.45931733 -0.20793143 -0.24882075 -0.0014004398 -0.24080338 0.345918 0.08009807 -0.3430026 -0.1955231 -0.03174542 -0.7100084 -0.15484798 0.4509436 -0.06720032 0.06757519 -0.43050402 0.52233213
138 0.45853463 -0.059036884 -0.08740353 0.037452742 -0.8676557 0.20268428 0.47872716 0.5863961 -0.21562634 -0.4116655 0.5787606 0.45268786 0.014443622 0.66909283 0.08452889 -0.25014603 -0.06601755 0.38336256 -0.059082285 -0.26465073 -0.18010913 -0.81771785 0.48018956 0.2837254 -0.3188487 0.35460153 -0.14198396 -0.029881895 0.4154459 0.27228513 0.35409355 -0.21029724 0.27367505 -0.07689586 0.60666287 0.24432802 -0.22907823 -0.081173 -0.042055596 -0.0140472 -0.7014429 0.010189581 0.009507451 0.1693214 0.6450651 0.49834234 -0.059298947 -0.13401824 -0.0457597 0.03958892 -0.13384122 -0.20738247 0.08886788 0.60504204 -0.7868396 -0.18068512 -0.085943 -0.012927814 -0.2837917 0.4326662 -0.33682454 -0.43367493 0.14404199 0.43369836
165 0.69735134 -0.46991098 0.03569616 -0.10547675 -0.4529081 0.24467357 1.024458 0.0077910363 -0.3400833 -0.20380147 0.17932604 0.19901356 -0.238797 0.1337427 0.16641742 -0.56220126 -0.4569442 0.038659815 0.008643533 -0.7298373 0.018456297 -0.7164183 0.2599242 -0.033841446 0.1461467 0.5070879 -0.8738855 -0.098816 0.29778236 -0.3148894 0.9409852 -0.7611206 -0.2110078 -0.7546609 0.45060286 -0.3679806 0.011391568 -0.26214588 -0.34659 -0.1655329 -0.45682204 -0.08942547 -0.5885327 -0.048884507 0.5977856 0.7946605 0.5135396 -0.07395106 -0.7337828 0.2987946 0.0047078882 -0.1270167 0.0032901978 0.55865145 -0.8982953 -0.34758443 -0.40139166 0.25891557 -0.3657448 0.6033562 -0.3282539 -0.7518879 0.39362857 -0.20553364
194 0.246396 -0.068403885 -0.16483633 0.60006225 -0.63869566 0.45042396 -0.6278117 -0.006136594 -0.53031164 -0.4276161 -0.18809693 -0.19111034 0.079569004 0.21056809 -0.007104736 0.26427546 -0.13009432 0.06744983 0.4115846 0.039637085 0.20162433 0.63242996 -0.12222155 -0.43879247 -0.34870794 -0.19767852 -0.62438005 0.21275146 -0.23943147 0.99069023 0.79105675 -0.6112225 0.16322668 -0.24290933 0.27761105 0.021192819 0.0065263044 -0.19379206 -0.20962965 -0.4868972 -0.20553474 0.23751669 -0.065802686 0.09670172 -0.18349244 1.098769 -0.459497 -0.2311274 -0.7722255 0.35688388 0.06569726 0.22379746 0.208175 0.7545196 -1.5705167 -0.17298585 -0.1397021 -0.2635575 0.19365244 0.06411469 -0.14858231 -0.2039537 0.38419876 0.6593786
110 0.5794726 -0.505599 0.31640723 0.43485606 -0.16669449 0.5179509 0.0050413767 -0.18918458 -0.49728027 -0.5088842 -0.06716288 0.37381265 0.19702125 0.708359 -0.050859056 0.1555495 0.090231635 -0.37549797 -0.10920196 -0.7118974 -0.06871708 -0.06196725 0.3801351 -0.20988959 0.012682856 -0.06188484 0.16577843 0.18586491 -0.2582398 0.6146897 0.56592023 -0.7061878 -0.15270767 0.005274997 0.14640853 -0.14862794 -0.11914966 -0.045660205 -0.6936239 -0.3733391 -0.11808057 0.41037804 -0.21426335 -0.1071944 -0.035868 -0.12657201 -0.4984145 -0.22583656 -0.22667691 0.05176839 -0.74118274 -0.022583311 0.18110208 0.7255011 -0.7852028 -0.1884062 0.2878699 0.07563448 0.05098964 -0.12883595 -0.12134154 -0.3820162 -0.50381875 0.83153695
192 0.63177335 -0.14341864 0.35849407 -0.04819507 -0.19760524 0.4359123 0.7292997 0.1991569 -0.16468264 -0.19783616 0.27931437 0.31773973 -0.5092481 0.1123778 0.42943054 -0.1970767 -0.17288837 0.4238353 0.20483384 -0.92442405 -0.10250915 -0.81605965 0.5678748 0.3413433 -0.5699764 0.106307246 -0.983727 -0.20318061 0.28006074 0.37932834 0.5451079 -0.3675573 0.14878127 0.1349585 0.48491362 0.3859774 -0.21432893 -0.18816912 -0.06643916 0.1669627 -0.31026897 0.11788945 -0.15646797 0.25692445 0.5464325 0.5810764 0.09842825 -0.17354019 0.140597 -0.049728617 0.05593732 -0.20487735 -0.06214266 0.091391705 -0.49781188 -0.06394649 -0.08383723 -0.3256789 -0.23592223 0.19245121 -0.13781483 -0.5332823 -0.018368568 0.2260956
195 1.010891 -0.25815585 0.17110945 -0.021614693 -0.15317748 0.49295166 0.6533878 0.09899916 0.08743336 -0.32379732 0.15505995 0.06339452 -0.5281994 0.11041224 0.4163619 -0.2448775 0.112052195 0.3183299 0.52388465 -0.8772608 -0.07362622 -0.48105925 0.5750324 0.28328323 -0.7062378 -0.027325222 -0.98159534 -0.12174429 0.3189307 0.32176706 0.45564252 -0.21263552 0.2767805 0.23478009 0.48954588 0.18216304 0.07598449 -0.4351761 -0.034864463 0.03825031 -0.50431603 0.36431295 -0.096946225 0.054619193 0.42108467 0.6920554 0.14876506 -0.13352351 0.26397565 -0.33861387 -0.0031539944 -0.18526216 -0.20534614 0.24649195 -0.62943745 -0.05338059 0.09428789 -0.41875052 -0.11186149 0.24422595 -0.17954747 -0.588789 -0.16611727 0.0753143
103 0.54906327 0.28505737 0.34886336 0.36852548 -0.11822633 0.70799714 0.22924417 0.24832568 -0.48548836 -0.48522818 -0.50955784 0.09515978 -0.2798781 -0.13051909 0.3787119 -0.34771207 -0.17137183 -0.22393888 0.22540648 -0.5059344 0.0678266 -0.23709293 -0.02458611 -0.17252785 -0.27376625 0.043567277 -0.36209944 -0.16420488 0.47491112 0.79283035 0.20568407 -0.015994987 0.044709586 1.1425099 0.48819295 0.025963984 0.096124016 0.18585055 0.21938796 -0.060542535 -0.07891744 0.44093907 -0.12015127 -0.42287368 0.63802737 0.69279003 0.049732793 0.10039275 0.25030163 -0.17387705 0.2099416 -0.09664009 0.62533265 0.04588808 -0.44202867 -0.16672045 0.4368216 -0.5471743 0.014978175 0.48401684 -0.11685354 -0.21459387 -0.2847455 0.25659737
4 0.75361145 0.14147729 0.22327843 0.034949306 -0.5584255 0.51933455 0.7001463 0.21113086 0.017864134 -0.25383198 0.39432025 0.30588204 -0.3603915 0.3537846 0.3679709 0.20390591 -0.13956389 0.1213901 -0.0047019543 -0.27400127 -0.09327086 -0.8918641 0.30152708 0.38836437 -0.44781274 0.26624405 -0.40097928 -0.13451979 0.30226484 0.24788548 0.6084596 -0.27617922 0.26629144 0.2555697 0.62411195 0.44781128 -0.21038409 0.050548755 -0.015121818 -0.07523227 -0.41917634 -0.0056470395 0.06650415 -0.06593317 0.6578181 0.6392285 0.16827555 -0.34734038 0.18473133 -0.050237894 0.30147138 -0.18400158 -0.16319531 0.17935699 -0.69939816 -0.20259944 -0.100703955 -0.35800335 -0.36823624 0.3230674 -0.15546806 -0.58775854 0.28355786 0.14432497
77 0.46680054 -0.39275828 -0.082630195 -0.24645817 -0.2287033 0.33938953 0.27034268 0.37497985 -0.2366727 0.12305885 -0.21492647 -0.13009225 -0.08189374 -0.23868962 0.11809782 0.01674153 -0.29290968 -0.47494653 -0.25067422 -1.1902943 0.68331003 0.6526491 0.056882303 0.046793636 -0.30604836 0.22965257 0.116766736 0.1688056 0.6577415 0.007637159 0.2785665 -0.32958183 -0.041100577 0.3371709 -0.26452032 -0.1292955 -0.1437056 0.045728717 -0.051469695 0.11837813 -0.07841105 0.08937268 -0.44073048 -0.4286552 0.023600906 0.23870881 -0.16475864 -0.08220361 -0.074872114 0.021312015 0.45788303 0.025627488 0.058577057 0.23329465 -0.4283587 -0.5902812 -0.6091855 -0.929375 -0.1930695 0.5236854 -0.07879794 -0.057765033 -0.07705225 0.3229261
17 0.8878333 -0.1607199 0.19376756 -0.09945098 -0.0736841 0.37490538 0.61669916 0.157329 -0.041384988 -0.34245497 0.20565654 0.09822929 -0.31001022 -0.038805995 0.5860947 -0.19125237 -0.15629624 0.35182735 0.30831262 -0.8529374 -0.2973313 -0.7602013 0.60747695 0.31205675 -0.70025295 0.076649 -1.0238248 -0.0909961 0.3099382 0.39739186 0.64709026 -0.3505344 0.06770713 0.062053517 0.53575075 0.32524055 0.072022095 -0.23427087 -0.071852915 0.13732408 -0.3367043 0.26787698 -0.095960565 -0.17797288 0.6599614 0.5996433 -0.06929236 -0.22547239 0.22541386 -0.38127866 -0.12394517 -0.017298866 -0.17073742 0.13321307 -0.45112577 -0.20383567 0.02681634 -0.54694676 -0.339229 0.18296699 -0.006737697 -0.5600368 -0.23289862 0.047564954
39 0.47000185 0.18430322 -0.003999585 0.30533224 0.22253595 0.31669566 0.58543134 -0.19997485 -0.11812285 -0.50715095 -0.13401137 -0.25577706 -0.3626011 -0.004443807 0.45690608 -0.042669337 -0.3233638 -0.1505122 0.14785025 -0.77190137 -0.19373919 0.09308612 0.57655036 0.039354853 -0.3504832 0.46448377 -0.6917434 -0.20542365 0.2786368 0.6493965 0.0042986926 -0.24257469 0.37280047 0.80043525 0.14809227 0.09331941 0.23505424 -0.31770313 0.08480222 0.14774032 0.197414 0.2502339 0.14666255 -0.15076219 0.47659433 0.6569908 0.16829595 -0.47401172 -0.15597956 -0.37538752 0.027849304 0.047602504 0.33241948 0.05793889 -0.26620743 0.052288994 0.2995417 -1.0153407 -0.15800536 0.50966585 -0.08083348 -0.101753294 -0.11450452 0.45025674
89 0.4876796 -0.36502406 0.09533616 -0.32745138 -0.41847566 0.14535893 0.46081257 0.18116178 -0.413352 -0.14580935 -0.30115202 -0.07572469 -0.093698785 -0.091288336 -0.19292367 -0.007686733 -0.257285 -0.38528192 -0.24362846 -1.1253312 0.2607075 0.4192548 -0.19778346 0.11631361 -0.71601164 -0.24524662 -0.12026148 0.29880598 0.3909754 -0.017659439 0.5293663 0.0012303242 -0.3110335 0.3522014 -0.41770872 0.12679067 -0.21868406 0.06922383 0.023004757 0.12134163 0.03713946 -0.13012184 -0.22662319 -0.043598652 -0.13942501 0.29518655 -0.025357643 0.32812253 -0.031076685 0.059943806 0.3532231 -0.096788235 0.26128057 0.30360416 -0.6278253 -0.79337317 -0.8386194 -1.1900061 -0.057139948 0.4449425 0.31054777 -0.31053 -0.11475466 0.31624845
186 0.44138458 -0.029361017 -0.024229696 -0.26964033 -0.7329453 0.18546869 0.4733533 0.33109915 -0.89765865 -0.32165077 -0.009614001 -0.3042464 0.24528882 -0.13196474 -0.16775586 0.38100317 0.12211885 -0.18886964 -0.16959149 -1.541491 -0.018142244 0.13792843 0.054669395 0.4049398 -0.6354613 -0.17455342 -0.32555655 0.19920687 0.24530399 -0.15856732 0.7078062 0.2005305 -0.23030914 0.21639372 -0.38623908 0.14684056 0.17368628 -0.021160262 -0.35903814 -0.109229214 0.30889362 0.07302282 -0.11455858 0.027341917 -0.26819372 0.30926114 0.24356335 0.5213008 -0.12527394 -0.09896484 0.75307536 0.13398875 0.32136083 0.81029207 -0.3769123 -1.0605605 -1.1273309 -1.179971 -0.27857786 0.5916364 0.3021783 -0.5158344 -0.27002528 0.31756186
143 -0.07885838 0.020885604 0.14729956 0.40594134 0.08659052 0.33085826 0.061792534 0.028028665 -0.4338867 -0.10308935 -0.49536988 0.44426137 0.6399128 0.24192432 0.460528 -0.13508795 0.109233946 -0.72387844 0.14637953 -0.6629256 -0.14179048 0.5961524 -0.12120989 -0.015746923 -0.019252669 0.4427648 -0.123185396 0.28000873 -0.1716756 0.593677 0.77458304 -0.41122994 -0.14777568 0.30007818 0.3229823 -0.13171564 -0.43679267 -0.47773895 -0.13986482 -0.25294515 -0.12303431 0.17591803 -0.04409064 0.17706886 0.2590345 0.14381033 -0.29901916 -0.17309286 -0.833544 0.19796048 -0.092562154 0.3235504 0.3896577 0.45717928 -0.80561274 0.32225254 0.22706738 -0.38728908 0.10773399 0.60060924 -0.08624355 -0.14642556 0.27729344 0.5615385
132 0.8343909 -0.24595004 0.012192266 0.43158337 -0.4787089 0.4956483 0.3271738 0.25502968 -0.12680984 -0.32230425 0.29165566 0.061007317 0.31082988 0.43052405 0.10126975 0.54046464 -0.108827725 -0.2539315 0.37352523 -0.7164361 0.09167497 -0.1350298 0.3296858 0.36210784 0.026330505 0.6534514 0.74812794 -0.04420225 -0.396335 0.7971032 0.37488362 -0.2907336 -0.4929544 -0.03218908 0.21858345 0.17355019 0.020540833 0.2201533 -0.48982665 -0.12815516 0.13967957 0.06904687 0.026926205 -0.0256801 0.39781678 0.34385276 -0.30681753 -0.15735787 -0.64274365 0.38803068 -0.7262187 0.23507287 -0.072444454 0.21682481 -0.6621004 -0.12688646 -0.23065063 -0.30160636 0.29682305 0.08973165 0.28590277 -0.3858481 -0.027760146 0.7532542
35 0.7921103 -1.0662414 0.20169614 0.49159738 -0.6188931 1.0729982 0.08033742 -0.21412407 -0.27155244 -0.44955721 0.5956864 0.16751432 -0.42359817 0.18507817 -0.30883667 0.7255371 -0.27675492 -0.301879 0.3755881 -0.7839832 -0.0063906233 -0.7312028 0.052499272 0.33319056 -0.29075083 -0.26940057 0.30146074 0.5095903 0.48012242 0.94956684 -0.21112595 -0.10811768 -0.10981122 -0.05047165 0.21623467 0.13257913 0.1333729 0.06308171 -0.23524569 -0.63186777 0.5431506 0.757228 -1.1420262 0.37667084 0.45916763 0.7551846 -0.33588588 0.4142252 -0.3718879 0.14930911 -0.4273099 -0.04759051 -0.17797226 0.6202307 -0.123997696 -0.36766207 -0.17414226 -1.4124124 -0.05941685 0.17658411 -0.009235306 0.22492336 -0.9312185 0.6040556
32 0.3934726 0.31393406 0.46716803 0.40418065 -0.33829346 0.8033407 0.5994574 0.3559014 -0.09084808 -0.6295883 -0.47371924 0.33148423 -0.4818651 0.14810552 0.29985645 -0.09316543 -0.2199793 -0.27935457 0.11810683 -0.6968312 -0.15177245 -0.47896183 0.11011317 -0.28653783 -0.40293226 0.600412 -0.5375103 0.015647592 0.43370947 0.44521606 0.1774093 -0.2865297 0.29985964 0.9998918 0.27331787 0.09906015 0.14588392 -0.07872993 -0.07305391 0.08758903 -0.093690164 0.3574098 -0.09775013 -0.32899082 0.78073317 0.594928 0.06120821 -0.07358129 0.0483302 -0.36973882 0.2538056 -0.25343105 0.36580896 -0.054743577 -0.2899534 -0.09633639 0.38194796 -0.43818504 -0.14350104 0.16604184 0.073420055 -0.3482694 -0.14186735 0.0046735806
24 0.32256317 -0.42430827 -0.33325583 0.3903344 -0.24436152 0.51970154 -0.09645014 0.18254131 -0.14347304 -0.33225742 -0.07603671 0.21728347 0.14169109 0.6355505 -0.11504124 -0.04243717 0.0190021 -0.4121317 0.4022615 -0.37278977 0.29567996 -0.08706297 0.018622335 -0.29357913 -0.1781444 0.64821756 -0.42046848 0.47426113 -0.13787313 0.88084024 0.7777449 -0.21214832 -0.5924635 -0.1124488 0.27394667 0.17761073 -0.27962604 -0.10655172 -0.7486921 -0.39671862 0.36224216 0.4626447 -0.20840359 -0.2611317 0.74060965 0.5837698 -0.47296122 0.119473636 -0.3614218 0.3709809 -0.02297117 0.334814 0.29229698 0.32234538 -0.5150785 0.28443006 0.32456136 -0.36916256 0.29683706 -0.21810153 -0.18875489 0.15216717 -0.050383188 0.09185368
23 0.59995955 -0.554068 0.22017388 -0.08418951 -0.34168902 0.22110686 0.9655596 -0.24535851 -0.54499394 -0.10841137 0.11486577 0.080926076 -0.3573253 0.31389305 0.25679508 -0.51790124 -0.58024365 0.082201615 0.011147529 -0.58812445 -0.057484217 -0.67478544 0.16271658 0.08666787 0.2593672 0.47110388 -0.81472766 -0.04641795 0.49448118 -0.01694974 0.89359254 -0.7844483 -0.14170404 -0.7240035 0.39311928 -0.4808314 0.039906554 -0.40614244 -0.57048345 -0.01950635 -0.38969764 0.050551757 -0.4475602 0.11241171 0.53171515 0.786703 0.25565597 -0.052878026 -0.70345366 0.32342878 -0.05051038 -0.04890667 -0.2763148 0.5443261 -0.8317629 -0.5276211 -0.2675619 0.23480086 -0.31534967 0.71608 -0.38361388 -1.1450521 0.34927362 -0.38276
58 0.009878219 -0.23206034 0.05998769 0.48106351 -0.10508734 0.47261482 -0.21834674 0.009607627 -0.20646214 -0.3666856 -0.45545492 0.34931836 0.6568932 0.3334192 0.27822277 -0.03333646 0.5324755 -1.0847893 0.1357116 -0.6578999 -0.12866783 -0.031315815 -0.10030071 0.01878659 -0.09310131 0.6780188 -0.3656875 0.29910615 -0.08430316 0.7751915 0.6321891 -0.48350015 -0.27136528 0.077941194 -0.0075072716 -0.28531927 -0.22977 -0.49495092 -0.522997 -0.07521064 -0.38908842 0.3910301 -0.2040186 0.31892318 0.55517805 -0.04201557 -0.059243158 -0.23759794 -0.84323144 0.40596393 0.0052294317 0.16012739 0.26034355 0.40572953 -0.8425907 0.3991297 0.25740102 -0.05618234 -0.108581245 0.5647955 -0.27422234 0.06660632 0.21082234 0.41322628
34 0.1370293 -0.3802693 -0.027960766 -0.32171613 -0.57053506 0.09904019 0.40029603 0.1500243 -0.48826545 -0.06328677 -0.06282666 -0.113733195 -0.13104945 -0.07950349 -0.32469288 0.18731861 0.04479923 -0.43513778 -0.07954662 -1.3435785 0.12276466 0.28091627 -0.07478949 0.097949564 -0.68620586 -0.3399523 -0.022395354 0.3950868 0.2892163 -0.13430226 0.80253047 0.21746859 -0.23778278 0.34185737 -0.58408606 0.2691748 -0.07899658 -0.14881471 -0.16072902 -0.078102656 0.11604486 0.04359065 -0.34306923 -0.006833168 -0.07831068 0.3903858 -0.07971954 0.100049295 -0.104355566 0.18686517 0.5458891 0.05822976 0.28401858 0.39058805 -0.46429792 -1.074203 -0.9667654 -1.0276786 -0.11046245 0.5640864 0.27792856 -0.43203065 -0.27763802 0.36837548
90 0.09884428 -0.13260181 -0.016091365 0.6302958 0.050588325 0.7212101 1.1217995 0.07958634 -0.29811388 -0.19897564 -0.58682394 -0.20926768 -0.15762596 -0.6037575 0.6959567 -0.0751126 -0.6159551 -1.1117285 0.12925924 -0.3537412 -0.10264662 -0.20202614 0.2180078 -0.053524222 -0.6677025 0.81020105 -0.24665569 -0.74982905 1.0230838 0.545669 0.76268876 0.10635594 0.84204805 0.1740291 0.49718538 0.054650042 1.2689238 0.36375123 -0.013192907 -0.467468 -0.19460286 0.6201612 0.017400641 0.040724494 -0.10374966 0.43534622 -0.36015165 0.14434941 -1.200188 0.3419744 0.39521623 0.34891188 0.5989855 0.6402324 -0.65037537 0.23264223 -0.5073875 -0.93781054 0.23886557 0.37695917 -0.41655675 0.06945032 -0.5370205 0.5752374
